tree
version=v4
num_class=1
num_tree_per_iteration=1
label_index=0
max_feature_idx=100
objective=regression
feature_names=index forecast_horizon open close high low mid body range body_pct upper_wick lower_wick upper_wick_pct lower_wick_pct mid_lag_1 mid_lag_2 mid_lag_3 mid_lag_5 mid_lag_7 mid_lag_10 range_lag_1 range_lag_2 range_lag_3 range_lag_5 range_lag_7 range_lag_10 body_pct_lag_1 body_pct_lag_2 body_pct_lag_3 body_pct_lag_5 body_pct_lag_7 body_pct_lag_10 close_sma_3 close_ema_3 close_sma_6 close_ema_6 close_sma_12 close_ema_12 close_sma_25 close_ema_25 close_sma_50 close_ema_50 close_sma_100 close_ema_100 close_sma_200 close_ema_200 close_sma_400 close_ema_400 range_sma_3 range_ema_3 range_sma_6 range_ema_6 range_sma_12 range_ema_12 range_sma_25 range_ema_25 range_sma_50 range_ema_50 range_sma_100 range_ema_100 range_sma_200 range_ema_200 range_sma_400 range_ema_400 body_pct_sma_3 body_pct_ema_3 body_pct_sma_6 body_pct_ema_6 body_pct_sma_12 body_pct_ema_12 body_pct_sma_25 body_pct_ema_25 body_pct_sma_50 body_pct_ema_50 body_pct_sma_100 body_pct_ema_100 body_pct_sma_200 body_pct_ema_200 body_pct_sma_400 body_pct_ema_400 close_div_ema_3 close_div_ema_6 close_div_ema_12 close_div_ema_25 close_div_ema_50 close_div_ema_100 close_div_ema_200 close_div_ema_400 range_std_12 range_std_25 range_std_50 macd macd_signal macd_hist time curr_CARD curr_GARR curr_HEST curr_JUMP curr_LOGN curr_SIMP
feature_infos=[399:1799] [1:60] [95622:106466] [95546:106406] [95792:106728] [95342:106334] [95614:106463] [-363:370] [37:1437] [-0.89820358743590667:0.85806451336108225] [0:892] [0:777] [0:0.97969542898554463] [0:0.97263681350090347] [95614:106463] [95614:106463] [95614:106463] [95614:106254] [95614:105855] [95614:105742] [37:1437] [37:1437] [37:1437] [37:1437] [37:1437] [37:1437] [-0.89820358743590667:0.85806451336108225] [-0.89820358743590667:0.85806451336108225] [-0.89820358743590667:0.85806451336108225] [-0.89820358743590667:0.85806451336108225] [-0.89820358743590667:0.85806451336108225] [-0.89820358743590667:0.85806451336108225] [95627.333333333328:106281.66666666667] [95632.674529424956:106244.04576426699] [95689.5:106179.5] [95694.868882402268:106133.2061978381] [95774.916666666672:105854.33333333333] [95750.863779725565:105936.73431810655] [95836.839999999997:105606.84] [95888.499710090415:105652.43343156386] [96049.759999999995:105231.67999999999] [96147.478544669779:105240.02484617189] [96357.520000000004:104477.73] [96437.360215982204:104657.05121221552] [96660.339999999997:103568.985] [96710.726251959277:103896.44389673945] [96850.847500000003:102829.72] [96938.511863232576:102996.76325148306] [105.66666666666667:724.33333333333337] [110.58151625128909:859.22081866839767] [129.83333333333334:554.33333333333337] [153.29889943167169:609.10513856029957] [179.91666666666666:493.58333333333331] [195.60754755383587:498.71936335929843] [220.68000000000001:454.75999999999999] [227.78697358341103:441.12013930342266] [243.31999999999999:385.56] [243.18516054734482:402.64993239727806] [266.24000000000001:365.56] [261.00390313328234:370.93047569185109] [282.00999999999999:346.73500000000001] [276.49848391399871:350.53662598624391] [289.69749999999999:337.05500000000001] [288.55889787199902:356.80425633285097] [-0.5831103970524868:0.58231663896042052] [-0.56763171821063352:0.57881610496915092] [-0.45606669729497368:0.46157450100335629] [-0.42349493455563625:0.43329558012010316] [-0.33670464083273138:0.30351532560583178] [-0.31866577758030945:0.27785008575145276] [-0.2328441918052741:0.19146957608872259] [-0.23302882123828:0.19343673970490979] [-0.18233974136610664:0.1410266355467007] [-0.17987721504306248:0.14125514559881264] [-0.11273491986753975:0.086644235734135044] [-0.13194509454513723:0.10338199765854721] [-0.067061244949923257:0.065923574997354656] [-0.089901656382784398:0.074548317347054943] [-0.045191208475321404:0.049545591735121651] [-0.095901501865465935:0.068934587732441974] [0.99501881329773378:1.0054974073173713] [0.99265624241163941:1.0083236111313851] [0.99128155979509258:1.0102346382298566] [0.99060807681189356:1.0107971507560418] [0.98832747978049196:1.0131049849715414] [0.98518646385916375:1.0175626791767853] [0.98050855369614831:1.0248858512053882] [0.97702697064527355:1.0336516739473622] [61.682962629789756:347.34040372609439] [88.434307068391476:285.89186767027849] [110.93384864643515:243.39456586760014] [-384.67017121813842:394.17266340578499] [-337.79307307715783:353.72050779166011] [-145.57278221500081:143.50781440748861] [400030:1800112] none none none none none none
tree_sizes=11158 11283 11340 11306 11308 11323 11342 11309 11309 11297 11329 11311 11282 11310 11302 11280 11323 11301 11275 11283 11301 11300 11278 11324 11303 11308 11278 11235 11341 11270 11272 11353 11252 11314 11320 11276 11285 11297 11272 11290 11294 11276 11299 11269 11306 11224 11279 11247 11317 11238 11311 11307 11233 11276 11292 11190 11215 11089 11096 11128 11075 11019 11103 10962 11006 10973 10910 10935 10882 10902 10846 10799 10754 10743 10838 10835 10815 10768 10672 10739 10789 10687 10811 10646 10902 10753 10751 10621 10643 10686 10665 10684 10631 10693 10629 10607 10640 10674 10598 10643 10678 10596 10643 10598 10540 10553 10608 10540 10575 10568 10574 10604 10612 10520 10518 10562 10612 10529 10588 10501 10625 10541 10568 10668 10509 10483 10632 10590 10495 10542 10514 10519 10567 10471 10416 10584 10492 10504 10479 10522 10478 10439 10563 10495 10533 10476 10551 10542 10520 10530 10498 10488 10542 10542 10597 10503

Tree=0
num_leaves=128
num_cat=0
split_feature=35 2 94 35 3 6 0 94 3 6 2 6 0 79 79 79 45 47 94 92 0 78 1 0 90 6 62 40 3 42 90 42 79 45 47 0 94 47 78 94 44 0 59 44 94 44 46 78 46 1 0 0 44 42 1 1 56 1 0 47 85 94 42 43 1 62 92 44 0 0 43 72 62 1 62 44 1 1 39 45 61 1 0 0 0 0 0 0 1 1 78 1 0 0 46 1 42 72 1 70 1 1 1 44 43 46 56 1 1 38 39 1 1 2 1 0 1 76 43 72 42 42 1 1 78 76 76
split_gain=6.6109e+10 1.72825e+10 4.74281e+09 3.26768e+09 1.84566e+09 1.13303e+09 8.33996e+08 5.52798e+08 3.46461e+08 3.40927e+08 3.25681e+08 1.88036e+08 1.78445e+08 1.55571e+08 1.4301e+08 1.16859e+08 1.16589e+08 1.09302e+08 1.59863e+08 1.07834e+08 9.81068e+07 9.70918e+07 9.6369e+07 9.54932e+07 8.69916e+07 8.49357e+07 8.29343e+07 8.24453e+07 8.16027e+07 8.09355e+07 7.52787e+07 7.28592e+07 7.01965e+07 6.71577e+07 6.51037e+07 6.49966e+07 6.18189e+07 5.73094e+07 5.70959e+07 6.34221e+07 5.55231e+07 5.48069e+07 5.95032e+07 5.44801e+07 6.24172e+07 5.36119e+07 4.86295e+07 4.60604e+07 4.00984e+07 3.95887e+07 3.54855e+07 3.44476e+07 3.44015e+07 3.43781e+07 2.96479e+07 2.79382e+07 2.76928e+07 2.72729e+07 2.72609e+07 2.61959e+07 2.61347e+07 2.61185e+07 2.60183e+07 2.59706e+07 2.58983e+07 2.57312e+07 2.55688e+07 2.54583e+07 2.4537e+07 2.43324e+07 2.37019e+07 2.2673e+07 2.24862e+07 2.18431e+07 2.17894e+07 2.57475e+07 2.10945e+07 2.07409e+07 2.10277e+07 2.07151e+07 2.00883e+07 4.25988e+07 2.39358e+07 1.95848e+07 1.95092e+07 1.94591e+07 1.74411e+07 1.70568e+07 1.68314e+07 1.64796e+07 1.60298e+07 1.54843e+07 1.53185e+07 1.50636e+07 1.48838e+07 1.45982e+07 1.42717e+07 1.41939e+07 1.39099e+07 1.37575e+07 1.32284e+07 1.31968e+07 1.26112e+07 1.25421e+07 1.2395e+07 1.15772e+07 1.14518e+07 1.14454e+07 1.12582e+07 1.10496e+07 1.19857e+07 1.09964e+07 1.09955e+07 1.09008e+07 1.08651e+07 1.07992e+07 1.52062e+07 1.07821e+07 1.07618e+07 1.04954e+07 1.07306e+07 1.0326e+07 1.02308e+07 1.01884e+07 1.01177e+07 1.00718e+07 9.68542e+06
threshold=100272.85909020463 98452.500000000015 1440074.5000000002 97304.047521018991 99258.500000000015 101588.50000000001 1012.5000000000001 1576090.5000000002 98023.000000000015 100602.00000000001 99751.000000000015 104110.50000000001 1680.5000000000002 -0.0022791266581653588 0.027772392260551022 -0.020818669065394327 99949.975131704938 98189.063297322878 1165061.5000000002 1.9723891771416115 1314.5000000000002 -0.035840400670569546 28.500000000000004 1540.5000000000002 153.4142198364423 101877.50000000001 315.25750000000005 97377.130000000019 98875.500000000015 99887.520000000004 140.10379904226218 102268.46500000001 -0.0058496116808962415 98017.79651384351 101206.30644193006 1006.5000000000001 668025.50000000012 101482.23369631359 0.015085769648068811 599564.00000000012 97038.095000000016 899.50000000000011 330.00955867239429 100078.27500000001 813023.00000000012 97679.572500000024 99089.522500000006 0.015598426442085766 98178.99000000002 26.500000000000004 1547.5000000000002 1501.5000000000002 98036.197500000024 101958.46500000001 13.500000000000002 22.500000000000004 314.69000000000005 33.500000000000007 1562.5000000000002 100067.36880273733 1.0069690365915858 1143021.5000000002 101481.01000000002 99101.244885875247 33.500000000000007 310.60125000000011 166.04173612411401 99259.860000000015 869.50000000000011 1178.5000000000002 103367.74682780584 0.023282867736327862 311.37875000000003 21.500000000000004 320.64625000000007 100266.54750000002 13.500000000000002 19.500000000000004 100997.61110246275 100150.9340553058 302.73571803060742 28.500000000000004 989.50000000000011 1701.5000000000002 1123.5000000000002 1604.5000000000002 769.50000000000011 1308.5000000000002 42.500000000000007 18.500000000000004 -0.0018985642826590576 41.500000000000007 1533.5000000000002 1143.5000000000002 99074.127500000017 30.500000000000004 98642.970000000016 0.0033541477318057658 12.500000000000002 0.051912187837569852 21.500000000000004 32.500000000000007 24.500000000000004 100663.82750000001 97807.134900269491 98040.127500000017 330.23000000000008 22.500000000000004 23.500000000000004 98403.320000000022 98030.675369639444 32.500000000000007 31.500000000000004 98621.000000000015 11.500000000000002 989.50000000000011 31.500000000000004 0.016685811214575897 100932.15719993225 -0.033567307281438537 99757.310000000012 98451.670000000027 35.500000000000007 40.500000000000007 -0.010040734822871039 -0.020184743098945433 -0.022811800232615243
decision_type=2 2 2 2 2 2 2 2 2 2 2 2 2 2 2 2 2 2 2 2 2 2 2 2 2 2 2 2 2 2 2 2 2 2 2 2 2 2 2 2 2 2 2 2 2 2 2 2 2 2 2 2 2 2 2 2 2 2 2 2 2 2 2 2 2 2 2 2 2 2 2 2 2 2 2 2 2 2 2 2 2 2 2 2 2 2 2 2 2 2 2 2 2 2 2 2 2 2 2 2 2 2 2 2 2 2 2 2 2 2 2 2 2 2 2 2 2 2 2 2 2 2 2 2 2 2 2
left_child=1 3 5 12 6 9 14 31 23 24 16 19 45 43 28 101 35 49 52 -9 21 111 60 27 59 53 67 107 57 -23 93 50 108 51 38 41 63 66 39 71 -14 42 90 44 -12 106 55 -26 58 92 -4 117 -19 74 109 -38 -48 -3 -32 124 113 -50 77 100 -39 112 97 -15 -36 -35 -13 -31 86 -28 75 -7 -37 78 -41 -45 -46 -82 -83 85 125 -21 -54 -49 -53 -22 119 -86 -17 -24 -43 -69 -56 -27 -52 -87 -30 -10 -61 -77 -51 123 -1 -5 -29 110 -20 -11 -42 -8 -94 -96 -117 -34 -40 -6 -121 -71 -95 -47 -2 -18 -59
right_child=2 4 7 8 10 25 22 11 15 20 13 70 40 26 -16 17 84 18 54 83 89 29 30 -25 47 37 73 32 36 34 48 -33 33 69 68 76 46 64 118 62 65 94 -44 79 80 105 56 87 61 104 98 88 72 -55 96 -57 -58 126 -60 102 -62 -63 -64 -65 -66 -67 -68 95 -70 121 -72 -73 -74 -75 -76 103 -78 -79 -80 -81 81 82 -84 -85 91 99 -88 -89 -90 -91 -92 -93 114 122 115 -97 -98 -99 -100 -101 -102 -103 -104 -105 -106 -107 -108 -109 -110 -111 -112 -113 -114 -115 -116 116 -118 -119 -120 120 -122 -123 -124 -125 -126 -127 -128
leaf_value=99306.271596593957 99469.879112886629 99419.68469220055 99608.661876115191 99344.086486914632 99446.811536769354 99530.254904789021 99395.291625481332 99630.128192275544 99401.167428410146 99561.396839193301 99470.37808403917 99676.494046203166 99309.061568577163 99487.538536586013 99382.423005811943 99379.036506096207 99457.690184177831 99369.953979018508 99379.804865665399 99650.680356985409 99552.257682566807 99479.474596732529 99393.767299125175 99336.530465441421 99475.716427014893 99574.687263312138 99472.09935172573 99377.865340224453 99433.270833967195 99530.463665668416 99409.991970301067 99587.55592377283 99379.203644304798 99366.41986631391 99522.976432851166 99445.471969888706 99448.358718877978 99568.449787829959 99535.456665124948 99525.598482566798 99324.632258837984 99485.070185529155 99468.642167535319 99501.339205699129 99465.637282989643 99330.740933798326 99448.194212195245 99503.129559201669 99387.784548864744 99400.35163919763 99607.757682566807 99384.138743288466 99367.711950859491 99536.666432566795 99359.067146852511 99476.290377242782 99422.705412209267 99449.867343617079 99384.035199345322 99516.763420571893 99424.959448699825 99358.055721782483 99527.176648084045 99428.372952407444 99519.404741390332 99284.144541890681 99595.5073700668 99505.903517654893 99492.210316133409 99355.724548684972 99735.340799449914 99490.732684376402 99416.89443201822 99408.817684703026 99555.345750783294 99563.895437668849 99404.388012887066 99556.889330766251 99551.522993571591 99475.833573206313 99462.118505444407 99444.687856638557 99412.644114149123 99632.477682566809 99479.796709562201 99666.709379694745 99391.901012645671 99553.257682566807 99425.569222554215 99594.028766904157 99423.4852963632 99531.053335138771 99382.757682566807 99372.578090730065 99458.170080894342 99530.566432566804 99341.655333573508 99586.307119503734 99650.700864384984 99690.816253995377 99445.898601298148 99419.758219619063 99545.66525832437 99579.810658757284 99423.216507451551 99340.277812436936 99331.517682566802 99319.007682566807 99398.361826167718 99386.512343583745 99350.089221028335 99588.001518183242 99291.387915124942 99407.678080636877 99423.807684092681 99460.657684140358 99413.012231073109 99368.030798736349 99524.429214824864 99433.903936668125 99443.535403428235 99338.04234165771 99345.82472802134 99308.619825423943 99510.203516815658 99474.41661317728 99431.74957014501
leaf_weight=442 21 685 310 92 597 36 274 412 195 83 1402 22 386 94 124 170 140 216 71 172 33 68 26 327 326 644 30 111 327 351 315 398 260 632 440 42 145 57 344 125 59 48 203 92 299 203 553 112 268 91 24 66 82 120 560 234 132 88 149 61 170 102 116 691 51 917 320 120 76 1337 77 40 83 25 352 196 122 722 209 591 402 348 70 50 41 383 817 20 39 83 134 23 27 49 726 120 149 444 88 70 567 187 99 336 170 231 50 90 169 118 65 73 43 505 40 34 33 1274 620 587 570 88 132 70 60 252 456
leaf_count=442 21 685 310 92 597 36 274 412 195 83 1402 22 386 94 124 170 140 216 71 172 33 68 26 327 326 644 30 111 327 351 315 398 260 632 440 42 145 57 344 125 59 48 203 92 299 203 553 112 268 91 24 66 82 120 560 234 132 88 149 61 170 102 116 691 51 917 320 120 76 1337 77 40 83 25 352 196 122 722 209 591 402 348 70 50 41 383 817 20 39 83 134 23 27 49 726 120 149 444 88 70 567 187 99 336 170 231 50 90 169 118 65 73 43 505 40 34 33 1274 620 587 570 88 132 70 60 252 456
internal_value=99449.2 99405 99567.1 99355.2 99442.6 99546.7 99422.1 99634.5 99371.4 99530.4 99459.8 99656.3 99304.4 99470.4 99435.3 99384.4 99449 99380.7 99375.8 99650.3 99537 99535.4 99395.7 99362.5 99498.6 99572.8 99500.2 99364.6 99437 99533.4 99385.2 99602.9 99366.1 99364.3 99534.6 99445.5 99441.9 99580.4 99537.9 99543.8 99292.9 99447.3 99442.9 99466.7 99463.3 99320.6 99451.2 99485.8 99391.9 99401.8 99617.4 99371.8 99388 99561.8 99360.7 99465.6 99443.3 99426.3 99401.7 99522.9 99407.2 99379.6 99549.7 99435.7 99545.3 99286.8 99583.1 99509.6 99518.4 99358.3 99722.3 99526.4 99392 99443.3 99565.1 99571.2 99414.9 99552.1 99541.8 99479.3 99454.5 99450.5 99439.3 99662.6 99472.6 99665 99389.7 99510.7 99399.5 99582.1 99440.2 99498.2 99387 99358.2 99458 99518.2 99355.4 99579.4 99641.5 99670.4 99441.3 99410.3 99534.6 99573.9 99415.2 99332 99308.8 99331.7 99390.2 99375.3 99365.6 99573.8 99310.6 99403.3 99407.3 99456.4 99437.2 99369.9 99528.4 99441.4 99438.6 99354.6 99353.1 99325.1 99499.7 99468.4 99434.7
internal_weight=31708 23064 8644 9927 13137 6638 5992 2006 7526 4082 7145 1186 2401 3593 4002 3041 3552 2659 2161 1087 3383 3267 1990 4485 699 2556 389 4158 3878 3111 1041 820 3976 3696 3043 3096 2649 1516 2527 1563 1405 2932 2091 3204 2521 996 1064 458 834 498 422 1639 1198 1040 963 379 685 1229 464 241 949 370 1172 1585 108 1019 1408 334 516 2057 99 391 982 55 920 568 164 1056 334 683 1119 820 418 675 456 625 899 132 105 116 1888 64 237 207 841 240 709 1088 112 453 894 382 160 532 261 504 492 182 280 254 136 156 102 779 67 793 67 1534 964 1754 1157 1425 181 273 81 392 544
internal_count=31708 23064 8644 9927 13137 6638 5992 2006 7526 4082 7145 1186 2401 3593 4002 3041 3552 2659 2161 1087 3383 3267 1990 4485 699 2556 389 4158 3878 3111 1041 820 3976 3696 3043 3096 2649 1516 2527 1563 1405 2932 2091 3204 2521 996 1064 458 834 498 422 1639 1198 1040 963 379 685 1229 464 241 949 370 1172 1585 108 1019 1408 334 516 2057 99 391 982 55 920 568 164 1056 334 683 1119 820 418 675 456 625 899 132 105 116 1888 64 237 207 841 240 709 1088 112 453 894 382 160 532 261 504 492 182 280 254 136 156 102 779 67 793 67 1534 964 1754 1157 1425 181 273 81 392 544
is_linear=0
shrinkage=1


Tree=1
num_leaves=128
num_cat=0
split_feature=35 2 94 35 33 6 0 94 6 2 0 44 6 0 79 79 79 63 45 92 41 1 0 78 90 6 3 62 42 42 90 44 94 0 0 0 59 47 44 78 94 44 94 46 44 42 46 78 0 1 85 0 2 0 42 0 1 86 47 1 62 1 92 58 43 42 1 94 78 17 0 0 62 44 45 0 1 36 46 0 61 1 0 1 1 38 0 46 0 1 1 72 1 0 58 1 46 76 1 46 94 1 94 1 74 1 76 1 44 42 1 46 77 0 56 1 1 1 46 43 0 1 1 1 76 1 45
split_gain=5.96634e+10 1.55976e+10 4.28039e+09 2.88464e+09 1.74243e+09 1.02256e+09 7.84571e+08 4.989e+08 3.07686e+08 2.99995e+08 2.87772e+08 1.78381e+08 1.69702e+08 1.61047e+08 1.40403e+08 1.3146e+08 1.3024e+08 1.22841e+08 1.09415e+08 9.73203e+07 9.07229e+07 8.93696e+07 8.85414e+07 8.80906e+07 7.85099e+07 7.66544e+07 7.62676e+07 7.49622e+07 7.33835e+07 6.57555e+07 6.56864e+07 6.10497e+07 5.84833e+07 5.63471e+07 5.56259e+07 5.18809e+07 5.63037e+07 5.17217e+07 5.01096e+07 4.98011e+07 4.91885e+07 4.91682e+07 5.63315e+07 4.90451e+07 4.83847e+07 4.78828e+07 4.58937e+07 4.15696e+07 3.91371e+07 3.49069e+07 3.39041e+07 3.34706e+07 3.25392e+07 3.20257e+07 3.10262e+07 2.7948e+07 2.56928e+07 2.47448e+07 2.36418e+07 2.33732e+07 2.32224e+07 2.31363e+07 2.30758e+07 2.23318e+07 2.22075e+07 2.20815e+07 2.18901e+07 2.16914e+07 2.16613e+07 2.16091e+07 2.13991e+07 2.02109e+07 1.96649e+07 2.32371e+07 1.86954e+07 1.86461e+07 1.81855e+07 1.8147e+07 1.81406e+07 2.11902e+07 1.81297e+07 3.84454e+07 2.17257e+07 1.71277e+07 1.68317e+07 2.00274e+07 1.64992e+07 2.07672e+07 1.53937e+07 1.49456e+07 1.48728e+07 1.41266e+07 1.36553e+07 1.3646e+07 1.35722e+07 1.32099e+07 1.31405e+07 1.29468e+07 1.70853e+07 1.29186e+07 1.66894e+07 1.25537e+07 1.23569e+07 1.18917e+07 1.55285e+07 1.17399e+07 1.16861e+07 1.13816e+07 1.13192e+07 1.12316e+07 1.12037e+07 1.04484e+07 1.04355e+07 1.2181e+07 1.03353e+07 1.008e+07 1.00201e+07 9.92346e+06 9.81156e+06 9.71248e+06 9.67525e+06 1.37236e+07 9.63768e+06 9.54901e+06 9.3768e+06 9.19502e+06 9.16455e+06
threshold=100272.85909020463 98433.500000000015 1440074.5000000002 97304.047521018991 99250.539018679367 101588.50000000001 1012.5000000000001 1576090.5000000002 100602.00000000001 99751.000000000015 1160.5000000000002 97953.422500000015 104110.50000000001 1680.5000000000002 -0.0022791266581653588 0.027772392260551022 0.022264718738662665 312.88330891771051 99949.975131704938 1.9723891771416115 97401.757909152322 27.500000000000004 1314.5000000000002 -0.036666553916499492 153.4142198364423 101877.50000000001 98875.500000000015 314.71625 99887.520000000004 102268.46500000001 140.10379904226218 101669.94250000002 1501091.0000000002 668.50000000000011 1006.5000000000001 899.50000000000011 327.1628271823792 101482.23369631359 97038.095000000016 0.015085769648068811 599564.00000000012 100078.27500000001 813023.00000000012 99082.836250000008 97679.572500000024 101481.01000000002 98178.99000000002 0.015598426442085766 949.50000000000011 41.500000000000007 1.0010220852441034 1619.5000000000002 97856.500000000015 1547.5000000000002 101958.46500000001 1562.5000000000002 37.500000000000007 1.008066361460312 100067.36880273733 33.500000000000007 310.60125000000011 21.500000000000004 166.04173612411401 305.44500000000005 99110.548103138703 101011.35000000002 21.500000000000004 1143021.5000000002 0.00062203425038757389 104066.50000000001 1024.5000000000002 869.50000000000011 320.64625000000007 100266.54750000002 100150.9340553058 1123.5000000000002 25.500000000000004 98164.958333333358 102345.30750000001 1619.5000000000002 302.73571803060742 28.500000000000004 977.50000000000011 13.500000000000002 27.500000000000004 101113.58000000002 1289.5000000000002 98680.937500000015 1308.5000000000002 41.500000000000007 18.500000000000004 0.046894546103450917 15.500000000000002 1154.5000000000002 346.26500000000004 44.500000000000007 99074.127500000017 0.0034186428525286032 27.500000000000004 101014.78000000001 508557.50000000006 12.500000000000002 1232020.5000000002 20.500000000000004 -0.0084055902068913401 15.500000000000002 0.01365861129735031 24.500000000000004 100663.82750000001 99026.760000000024 26.500000000000004 98040.127500000017 -0.027463610410972773 660.50000000000011 330.23000000000008 35.500000000000007 36.500000000000007 31.500000000000004 101203.20750000002 100932.15719993225 989.50000000000011 31.500000000000004 22.500000000000004 25.500000000000004 -0.013467684487115564 40.500000000000007 100258.74491179899
decision_type=2 2 2 2 2 2 2 2 2 2 2 2 2 2 2 2 2 2 2 2 2 2 2 2 2 2 2 2 2 2 2 2 2 2 2 2 2 2 2 2 2 2 2 2 2 2 2 2 2 2 2 2 2 2 2 2 2 2 2 2 2 2 2 2 2 2 2 2 2 2 2 2 2 2 2 2 2 2 2 2 2 2 2 2 2 2 2 2 2 2 2 2 2 2 2 2 2 2 2 2 2 2 2 2 2 2 2 2 2 2 2 2 2 2 2 2 2 2 2 2 2 2 2 2 2 2 2
left_child=1 3 5 13 6 8 15 29 24 18 16 17 19 44 41 26 48 20 34 -9 122 57 23 123 58 54 56 70 -25 53 91 39 -22 64 35 36 68 62 -15 40 65 42 -11 61 114 84 55 -26 77 -34 -18 86 -19 124 72 -32 -3 93 -2 -39 117 -35 94 -45 110 126 -29 -48 112 -14 -16 -33 73 -7 -43 -20 -54 116 79 95 -44 -82 -83 -36 85 -42 87 -13 -49 -77 -24 115 -72 -8 99 -21 -37 98 -81 100 -27 -55 -89 106 -105 -53 -88 -60 -75 -65 -28 125 -6 -114 -1 -23 -5 -40 -86 -41 -98 -122 -12 -10 -4 -46 -30
right_child=2 4 7 10 9 25 21 12 22 14 11 51 69 38 27 -17 50 52 75 78 32 30 90 28 47 37 33 66 31 -31 46 71 49 43 83 96 -38 59 60 119 45 74 80 63 111 -47 67 88 -50 -51 -52 105 76 101 -56 -57 -58 -59 107 -61 -62 -63 -64 109 -66 -67 -68 -69 -70 -71 92 -73 -74 108 -76 89 -78 -79 -80 97 81 82 -84 -85 118 -87 103 102 -90 -91 -92 -93 -94 -95 -96 -97 120 -99 -100 -101 -102 -103 -104 104 -106 -107 -108 -109 -110 -111 -112 -113 113 -115 -116 -117 -118 -119 -120 -121 121 -123 -124 -125 -126 -127 -128
leaf_value=-135.74966059205758 48.053906782173819 -27.495176775803046 157.08304310191761 -56.330058271806323 -3.2479555110025204 77.034478081597229 -39.783978301286702 171.91410048401474 105.90860953495422 20.151494802047797 -99.647911580403658 -106.12041197819497 222.24479282924108 -133.0991901615123 42.799387070711923 -63.336849236488348 -78.954120454510445 -102.80844421386719 18.301736237741913 190.12649830005788 -76.418557922512875 -61.251353567617912 97.937118437795931 28.793181439007032 25.22292084489132 132.46778400127707 -13.693691702833716 22.571927727593319 62.861686425460022 131.47044579587393 -36.560046864979306 69.137462623997735 -64.868631772641777 0.22488653641894352 -4.6036270496457119 34.879445036974822 17.154671782281202 113.31961830540706 -118.30703993975106 81.976148135163072 81.780463172649519 49.564560069208568 15.647734896554596 1.5734780957379679 -112.50379710831668 74.980431365966794 -60.152642440795901 51.265397535051619 -57.574621908197962 -26.694193002801196 -55.523993530273437 -91.102495330514273 -50.142077613422892 150.66212158203126 83.125430297851565 -62.070484441443334 -12.90213285570475 -25.056103443308466 64.217566318199289 66.726819565716923 -156.77036723861778 26.321310918280421 139.0243212890625 -8.1705487714494982 -19.619095132097737 40.453225695003169 -38.330883544921875 -85.84012254797895 -34.075088206831232 274.11253644916377 45.626698939005536 40.892115221525501 100.87078299088913 108.99298266975248 25.334209913328014 29.346812196211381 -24.267552531357353 -30.342447908045884 181.85429551866321 210.66836286272326 12.304895420216802 -2.2873728512138718 -27.744710756170338 -41.26315898119919 103.24744056892763 102.83744734330611 -61.924042191043981 -83.911136635375797 98.88711853027344 78.39789276123048 137.61964390766192 -111.20535278320312 76.420921728346087 -54.152236056718678 99.776816231863847 214.36339593184621 8.4457066704855759 206.8975222500888 248.99558241102432 132.37866313733554 115.30486334723396 191.45813543146309 -93.333151478607391 -98.446776576012198 -77.62540199838034 -111.25764604048295 -85.669978041059522 91.674311597419518 124.11244881039575 -29.413648618970598 -2.654887847216481 -103.44376173143263 -16.46996253741824 -5.8895161929300857 -111.76588256835937 -87.197927831430903 -38.537660784040185 -149.88916441451673 129.89711881070522 71.500072297127019 10.917115783691408 -34.346064897017044 -124.78952320240163 132.69766157101364 137.92524007161458 -133.5188507952009 82.608243210251274
leaf_weight=442 81 782 220 182 713 36 512 412 58 1402 72 201 28 386 136 128 824 20 393 216 1632 54 33 68 326 208 424 36 76 398 335 380 162 133 43 44 229 57 59 344 232 92 299 381 203 256 288 112 945 95 190 103 131 24 120 158 491 211 61 51 917 235 320 140 678 44 25 115 83 71 48 76 352 196 591 44 141 236 90 63 402 302 116 123 519 220 124 653 20 24 83 43 144 244 56 76 758 176 54 380 444 88 745 159 205 242 89 99 336 112 502 231 529 560 50 122 140 43 37 620 34 33 81 78 90 70 259
leaf_count=442 81 782 220 182 713 36 512 412 58 1402 72 201 28 386 136 128 824 20 393 216 1632 54 33 68 326 208 424 36 76 398 335 380 162 133 43 44 229 57 59 344 232 92 299 381 203 256 288 112 945 95 190 103 131 24 120 158 491 211 61 51 917 235 320 140 678 44 25 115 83 71 48 76 352 196 591 44 141 236 90 63 402 302 116 123 519 220 124 653 20 24 83 43 144 244 56 76 758 176 54 380 444 88 745 159 205 242 89 99 336 112 502 231 529 560 50 122 140 43 37 620 34 33 81 78 90 70 259
internal_value=1.46516e-07 -41.9884 112.034 -89.9394 -6.72965 92.6919 -26.4216 176.038 77.1631 9.91402 -74.4367 -81.5497 196.772 -137.538 20.1421 -13.4816 -60.7167 -71.5891 -0.265921 191.064 -75.9267 -51.3195 83.4029 81.8787 46.9636 117.492 -11.836 48.5083 80.1676 146.05 -60.9667 81.3081 -72.9273 -6.93433 -3.5965 -2.02884 -6.25655 124.664 -148.441 84.2603 89.5538 16.6982 13.4742 2.37433 -122.158 94.2911 -54.9669 34.8082 -51.3747 -50.7575 -74.5639 -90.7714 -41.2552 159.8 107.038 -44.7358 -21.8666 -40.1958 70.0639 91.3175 -154.253 16.8897 127.221 -6.06431 -12.7435 73.7545 -2.38824 -67.4828 -9.10067 259.443 57.9738 64.4299 110.157 115.911 28.598 22.4846 -36.7292 -40.8748 202.752 205.967 5.10819 1.26512 -9.35209 -31.767 99.1954 92.0294 -88.4774 -91.0928 58.4808 46.659 126.331 -85.5139 68.7224 -44.4214 123.75 196.435 8.25581 215.467 228.358 125.051 120.78 182.716 -88.9322 -81.2296 -86.7205 -105.24 -71.8461 81.2064 118.542 -17.6119 -7.70937 -111.27 -7.95035 -11.0291 -133.312 -79.237 -48.5942 -131.621 105.021 75.2384 6.83589 -11.3767 -112.958 121.273 151.521 -117.892 78.1284
internal_weight=31708 23064 8644 9773 13291 6638 6088 2006 4082 7203 7372 4855 1186 2401 3593 4006 2517 2334 3610 1087 2042 2082 3383 3267 699 2556 3878 389 3131 820 1115 3063 1889 2605 3149 2983 2114 1516 1405 2607 1643 3204 2521 1001 996 1264 896 458 1503 257 1014 2521 292 422 1040 493 1273 967 241 108 1019 368 1408 633 1604 379 61 403 1885 99 328 456 920 568 683 461 272 558 675 585 1119 820 418 166 1008 452 2176 1599 132 68 116 219 192 756 1088 292 869 293 117 1032 652 112 1398 577 364 345 213 160 532 252 926 504 1802 1089 492 176 322 102 556 964 825 67 153 136 310 273 335
internal_count=31708 23064 8644 9773 13291 6638 6088 2006 4082 7203 7372 4855 1186 2401 3593 4006 2517 2334 3610 1087 2042 2082 3383 3267 699 2556 3878 389 3131 820 1115 3063 1889 2605 3149 2983 2114 1516 1405 2607 1643 3204 2521 1001 996 1264 896 458 1503 257 1014 2521 292 422 1040 493 1273 967 241 108 1019 368 1408 633 1604 379 61 403 1885 99 328 456 920 568 683 461 272 558 675 585 1119 820 418 166 1008 452 2176 1599 132 68 116 219 192 756 1088 292 869 293 117 1032 652 112 1398 577 364 345 213 160 532 252 926 504 1802 1089 492 176 322 102 556 964 825 67 153 136 310 273 335
is_linear=0
shrinkage=0.05


Tree=2
num_leaves=128
num_cat=0
split_feature=35 4 94 35 2 6 0 0 0 6 79 44 6 0 78 63 42 92 79 6 41 0 0 78 44 72 90 1 6 42 79 74 42 44 94 0 61 47 44 42 44 62 90 78 94 42 78 0 0 47 1 79 2 1 46 42 0 0 43 39 0 90 47 1 62 92 90 46 0 42 46 1 1 38 46 72 62 44 42 1 0 0 44 0 0 44 46 1 0 1 74 1 0 46 94 76 1 1 70 76 1 2 46 46 1 94 1 44 47 1 1 78 74 70 90 56 1 78 86 1 79 1 1 40 46 1 47
split_gain=5.38462e+10 1.40825e+10 3.86305e+09 3.07455e+09 1.01024e+09 9.22858e+08 5.94635e+08 5.26872e+08 4.50472e+08 2.77687e+08 1.92757e+08 1.58103e+08 1.54982e+08 1.45345e+08 1.24567e+08 1.20477e+08 1.05715e+08 9.12337e+07 9.07484e+07 8.75769e+07 8.26196e+07 7.99785e+07 7.99086e+07 7.95105e+07 7.38404e+07 7.30056e+07 7.08552e+07 6.97299e+07 6.91806e+07 6.59097e+07 6.08403e+07 5.57595e+07 5.54278e+07 5.39346e+07 5.37116e+07 5.23343e+07 4.8769e+07 4.66789e+07 4.52239e+07 4.47157e+07 4.36672e+07 4.33734e+07 4.16618e+07 4.00658e+07 4.1553e+07 4.73202e+07 3.75165e+07 3.50753e+07 3.47073e+07 3.16028e+07 3.15676e+07 2.97423e+07 2.94045e+07 2.82258e+07 2.81413e+07 2.80011e+07 2.51642e+07 2.50919e+07 2.3237e+07 2.67036e+07 2.16122e+07 2.15406e+07 2.13368e+07 2.10943e+07 2.09582e+07 2.08259e+07 2.04594e+07 2.03423e+07 2.02177e+07 1.99132e+07 1.98081e+07 1.90724e+07 1.89714e+07 2.41173e+07 1.82303e+07 1.86859e+07 1.77476e+07 2.09715e+07 1.73881e+07 1.6478e+07 1.61272e+07 1.75338e+07 1.60307e+07 1.59645e+07 1.55677e+07 2.19748e+07 1.48178e+07 1.40437e+07 1.39778e+07 1.37147e+07 1.56447e+07 1.3466e+07 1.31734e+07 1.22978e+07 1.8869e+07 1.22925e+07 1.19082e+07 1.16479e+07 1.14525e+07 1.12895e+07 1.1148e+07 1.10325e+07 1.08363e+07 1.06286e+07 1.05953e+07 1.05508e+07 1.02719e+07 1.02156e+07 1.00528e+07 1.0034e+07 1.00155e+07 9.64144e+06 9.56866e+06 9.40843e+06 9.38213e+06 9.3276e+06 9.13739e+06 9.13122e+06 9.11823e+06 1.11593e+07 9.06939e+06 8.95592e+06 8.89292e+06 1.12791e+07 8.74797e+06 8.69801e+06 8.68779e+06
threshold=100272.85909020463 98778.500000000015 1440074.5000000002 97304.047521018991 99592.500000000015 101588.50000000001 1006.5000000000001 1154.5000000000002 1572.5000000000002 100602.00000000001 -0.020818669065394327 97937.257500000022 104110.50000000001 1680.5000000000002 -0.012110151020915385 312.88330891771051 99921.140000000014 1.9723891771416115 0.032307093123368179 98104.500000000015 97401.757909152322 899.50000000000011 1314.5000000000002 -0.035840400670569546 99102.815000000017 -0.026227894561268787 153.4142198364423 37.500000000000007 101877.50000000001 99887.520000000004 -0.0022791266581653588 0.0053656244161688358 102268.46500000001 101683.70250000001 1501091.0000000002 1000.5000000000001 317.66045052372118 101482.23369631359 97038.095000000016 99694.380000000019 97679.572500000024 311.88625000000008 140.45496103723721 0.01767918433952272 586558.00000000012 101481.01000000002 0.015598426442085766 433.50000000000006 1619.5000000000002 99367.430831109363 41.500000000000007 0.018614418674520111 97856.500000000015 24.500000000000004 98236.180000000008 101958.46500000001 1547.5000000000002 959.50000000000011 99126.296141532119 99029.449427369211 521.50000000000011 140.10379904226218 100067.36880273733 33.500000000000007 310.60125000000011 166.04173612411401 158.09295957460174 99339.687500000015 672.50000000000011 103419.78000000001 98671.35500000001 25.500000000000004 27.500000000000004 101113.58000000002 100973.65250000001 -0.013875518647407189 320.64625000000007 100266.54750000002 101011.35000000002 31.500000000000004 1701.5000000000002 1604.5000000000002 99694.715000000011 869.50000000000011 1289.5000000000002 98591.452500000014 99082.836250000008 17.500000000000004 1230.5000000000002 22.500000000000004 -0.0084055902068913401 24.500000000000004 1123.5000000000002 100973.65250000001 508557.50000000006 0.011971079550752913 12.500000000000002 22.500000000000004 0.051912187837569852 0.011416996279373851 16.500000000000004 98524.500000000015 98197.126250000016 100704.72625000002 15.500000000000002 1215106.5000000002 24.500000000000004 100663.82750000001 99536.892842644695 24.500000000000004 12.500000000000002 -0.010248803411364181 -0.0039565092474538009 -0.0011488944632172678 181.98456817829529 330.23000000000008 32.500000000000007 -0.010040734822871039 1.0033173601105652 19.500000000000004 -0.0088358386627363106 31.500000000000004 18.500000000000004 99306.830000000016 101203.20750000002 22.500000000000004 98404.300614911583
decision_type=2 2 2 2 2 2 2 2 2 2 2 2 2 2 2 2 2 2 2 2 2 2 2 2 2 2 2 2 2 2 2 2 2 2 2 2 2 2 2 2 2 2 2 2 2 2 2 2 2 2 2 2 2 2 2 2 2 2 2 2 2 2 2 2 2 2 2 2 2 2 2 2 2 2 2 2 2 2 2 2 2 2 2 2 2 2 2 2 2 2 2 2 2 2 2 2 2 2 2 2 2 2 2 2 2 2 2 2 2 2 2 2 2 2 2 2 2 2 2 2 2 2 2 2 2 2 2
left_child=1 3 5 13 6 9 18 10 32 26 47 15 17 40 31 20 27 118 21 57 125 25 23 116 -16 36 62 61 55 -25 66 49 56 43 -22 67 -3 65 -15 51 115 54 -29 44 78 72 -28 -5 84 -6 -36 58 -17 -33 -21 76 -4 -12 59 97 -41 -8 117 -39 121 93 103 -32 -38 -14 -56 -54 73 -46 75 -51 77 -7 -31 -49 81 -19 -68 -35 85 99 -23 -37 -48 95 -91 -24 126 94 -30 -86 -58 -27 -83 -13 -59 -63 -94 -26 -50 -45 -64 -79 -55 -61 -72 -111 -42 -112 -96 -1 -11 -2 -10 -120 -78 -40 123 -60 -74 -9 -44
right_child=2 4 8 7 14 28 16 11 12 22 19 48 69 38 24 52 -18 80 -20 41 34 86 91 29 30 39 46 42 37 33 35 53 -34 83 50 87 68 63 64 60 112 -43 92 105 45 -47 88 79 104 74 -52 -53 71 108 70 -57 96 100 122 109 -62 101 106 -65 -66 -67 82 -69 -70 -71 110 -73 124 -75 -76 -77 120 107 -80 -81 -82 98 -84 -85 89 -87 -88 -89 -90 90 -92 -93 102 -95 114 -97 -98 -99 -100 -101 -102 -103 -104 -105 -106 -107 -108 -109 -110 111 113 -113 -114 -115 -116 -117 -118 -119 119 -121 -122 -123 -124 -125 -126 -127 -128
leaf_value=-128.96218460566317 17.274777639479865 -5.3614746502831085 143.94504575667844 -47.578725212664644 19.329208967393125 73.182750786675342 -52.148992176544972 -94.665515391031903 158.37307109089642 101.26958066641566 -75.140951572041516 -100.00074617568761 210.76207798549109 -126.44423410682481 -15.581471309442632 -97.668020019531255 38.489636597633364 181.52727263077446 -63.149567609514513 -39.101600930185036 -72.510995800735643 25.903188794136049 98.999066427479633 27.353523219332978 43.602230488976772 -21.716783841943865 23.961775215710603 -88.473188947594679 125.84439532940206 72.318127974900818 33.12073169210683 7.3824693186386767 124.65022010216347 64.53768279616898 -61.318809185606064 43.392536183407429 0.29845659904873251 107.65363641036184 -112.39168349443855 35.69741596645779 -110.88603665369638 -25.233121351235443 -31.251325761510969 74.804653030786753 75.555893917835746 70.943842892530483 46.352753295898438 -33.010863897667171 -86.547368495904138 10.613646256120019 -25.258163483937583 -42.897906524181366 -47.915071417360892 -8.0144695465381339 -74.508183479309082 78.969156595865897 140.30173117897729 -72.554609452917234 -24.283415299436474 -8.7613764693405454 -4.0397451422839019 -58.325953962996202 61.006689853355539 63.390479233685667 -148.93185404836808 132.07310058593751 -12.789147917429608 -14.402961948939733 20.970882355970126 260.55302734374999 -46.231020124296577 -22.695996502645656 96.977875648155361 97.695573369806468 22.426438419635481 -1.3145214239112761 86.831159542768432 103.54333371532208 38.43056363192472 -16.738329314868711 165.05339843750002 196.43141955980744 21.606544075444187 38.847510729337998 -58.417469353075859 -78.153264092873414 5.5054731987526857 68.942015623009723 84.319321441650402 -93.516208141476085 -73.804446066151499 133.82400669642857 -55.264110675190778 124.26652646019346 112.32303368839217 -79.709847600673285 181.95359168419472 -10.543047635528866 218.42622698102679 -87.304107756904173 -51.955276013295588 -30.316947201426242 -84.904000515407986 23.103401722908021 -105.69476028316279 63.28931711275284 87.090595777107012 117.90682140531995 -35.361451313621124 22.804778112124094 -63.145760419796673 0.15993197470000298 -96.54280154050052 -52.60479476302541 96.675072411929875 -106.17758911132813 125.5213187439801 55.582961018880212 198.93758796243108 164.61263177333734 102.98738664899554 -142.39470640670422 -23.781657084485033 -5.0040983570323272 122.72067940848216 -118.55005312319156 -51.33701639326793
leaf_weight=442 21 1382 310 242 1149 36 156 72 308 83 719 219 28 386 87 20 40 184 70 264 1606 100 46 68 172 387 326 92 208 271 115 115 390 296 165 76 194 57 59 36 322 144 94 624 279 328 100 322 103 979 96 100 147 52 144 120 22 94 137 151 691 37 61 51 917 320 36 28 303 71 261 153 578 220 208 494 156 196 44 301 50 383 574 76 151 635 812 184 32 179 230 70 215 420 324 123 78 587 70 873 218 706 36 100 242 292 99 336 95 73 390 132 182 463 136 50 73 60 34 78 196 43 715 170 35 81 126
leaf_count=442 21 1382 310 242 1149 36 156 72 308 83 719 219 28 386 87 20 40 184 70 264 1606 100 46 68 172 387 326 92 208 271 115 115 390 296 165 76 194 57 59 36 322 144 94 624 279 328 100 322 103 979 96 100 147 52 144 120 22 94 137 151 691 37 61 51 917 320 36 28 303 71 261 153 578 220 208 494 156 196 44 301 50 383 574 76 151 635 812 184 32 179 230 70 215 420 324 123 78 587 70 873 218 706 36 100 242 292 99 336 95 73 390 132 182 463 136 50 73 60 34 78 196 43 715 170 35 81 126
internal_value=2.82237e-08 -39.889 106.432 -80.5993 -2.39325 88.0573 -13.5516 -66.7146 167.236 73.3049 -51.9622 -77.0283 186.534 -130.662 16.459 -67.4713 -41.7053 181.174 -6.5505 -58.5493 -71.9869 -5.88686 79.2328 77.7848 28.9977 -8.34427 44.6154 -43.8995 111.617 76.0381 32.0159 10.8953 138.144 77.126 -69.0922 48.1111 -0.530857 118.43 -141.019 -12.9625 -116.05 -51.4614 -57.698 79.6102 84.0344 87.6327 33.0678 -31.424 -85.1456 12.9383 -48.0551 -16.1915 -38.9668 -11.1722 -53.9429 101.686 150.98 -70.0026 -15.056 -10.6995 -2.07202 -35.2581 66.5607 86.7516 -146.54 120.86 24.6618 23.8154 12.9016 246.471 -57.0575 -35.0533 92.5554 85.3169 8.56995 6.6133 104.649 110.116 67.5846 -25.1489 192.397 194.543 19.5766 59.2892 -83.0223 -85.5495 7.74206 61.4737 55.5568 -76.6322 -82.4314 120.014 -51.6867 117.563 113.347 -67.9757 172.79 -14.9827 199.83 -89.8504 -58.1615 -31.7117 -59.5153 36.0659 -99.9783 71.1338 77.1461 112.615 -25.6877 1.01936 -54.8018 8.22371 -105.707 -57.4242 107.697 -126.647 112.618 45.6512 162.816 175.033 95.8272 -125.04 -20.7254 -13.6076 98.4477 -107.31 -42.7549
internal_weight=31708 23064 8644 11058 12006 6638 7542 8657 2006 4082 3562 5095 1206 2401 4464 2340 1502 1107 6040 2697 2020 5970 3383 3267 1372 5058 699 1462 2556 3111 1285 3092 800 3043 1867 403 1879 1516 1405 3179 996 1666 563 2671 1755 1440 458 865 2755 2830 261 2452 320 262 1522 1040 410 1031 2352 1330 727 899 241 108 1019 1408 882 143 497 99 1258 300 1112 499 1681 1473 920 568 315 623 687 637 610 372 2410 1727 912 260 132 683 409 116 471 1088 668 274 100 974 453 1092 312 743 251 272 345 916 160 532 147 356 1114 205 504 853 460 492 156 81 420 112 352 102 1022 307 613 153 220
internal_count=31708 23064 8644 11058 12006 6638 7542 8657 2006 4082 3562 5095 1206 2401 4464 2340 1502 1107 6040 2697 2020 5970 3383 3267 1372 5058 699 1462 2556 3111 1285 3092 800 3043 1867 403 1879 1516 1405 3179 996 1666 563 2671 1755 1440 458 865 2755 2830 261 2452 320 262 1522 1040 410 1031 2352 1330 727 899 241 108 1019 1408 882 143 497 99 1258 300 1112 499 1681 1473 920 568 315 623 687 637 610 372 2410 1727 912 260 132 683 409 116 471 1088 668 274 100 974 453 1092 312 743 251 272 345 916 160 532 147 356 1114 205 504 853 460 492 156 81 420 112 352 102 1022 307 613 153 220
is_linear=0
shrinkage=0.05


Tree=3
num_leaves=128
num_cat=0
split_feature=35 2 94 35 3 6 0 94 3 6 2 6 0 79 79 47 79 47 94 92 1 0 78 0 90 35 62 40 2 42 42 79 44 45 0 47 94 0 0 59 44 78 94 44 94 44 42 47 78 46 1 3 44 0 0 1 1 42 1 1 45 43 47 56 62 1 90 16 43 42 92 62 44 76 0 1 62 45 46 0 61 1 0 84 0 1 0 0 1 0 1 58 1 46 72 1 76 1 43 1 37 42 54 1 43 1 1 1 42 1 1 1 1 38 39 38 1 1 1 38 1 74 76 43 0 76 76
split_gain=4.85962e+10 1.27147e+10 3.4864e+09 2.4001e+09 1.35966e+09 8.3288e+08 6.10946e+08 4.06702e+08 2.55618e+08 2.50612e+08 2.38932e+08 1.38185e+08 1.31173e+08 1.14135e+08 1.05714e+08 8.6433e+07 8.53156e+07 8.13394e+07 1.18546e+08 7.91563e+07 7.43172e+07 7.21175e+07 7.22612e+07 7.07334e+07 6.39468e+07 6.25945e+07 6.19517e+07 6.08109e+07 6.02235e+07 5.97572e+07 5.36405e+07 5.14842e+07 4.99727e+07 4.99477e+07 4.78133e+07 4.75076e+07 4.72948e+07 4.52159e+07 4.24773e+07 4.68292e+07 4.08146e+07 4.08116e+07 4.05979e+07 4.04104e+07 4.68062e+07 3.94097e+07 3.91335e+07 3.84293e+07 3.38587e+07 3.29642e+07 3.03112e+07 3.01559e+07 2.64392e+07 2.60716e+07 2.56308e+07 2.44523e+07 2.2887e+07 2.25573e+07 2.21287e+07 2.05482e+07 1.98087e+07 1.95735e+07 1.92564e+07 1.91213e+07 1.89926e+07 1.86198e+07 1.85468e+07 1.81578e+07 1.7977e+07 1.78911e+07 1.76559e+07 1.76229e+07 1.90769e+07 1.68108e+07 1.63947e+07 1.63113e+07 1.63069e+07 1.53928e+07 1.52703e+07 1.76686e+07 1.50809e+07 3.39346e+07 1.84137e+07 1.43496e+07 1.42598e+07 1.38345e+07 1.33937e+07 1.28714e+07 1.28292e+07 1.2691e+07 1.23973e+07 1.22471e+07 1.19114e+07 1.14858e+07 1.12753e+07 1.12455e+07 1.10818e+07 1.57918e+07 1.10722e+07 1.07288e+07 1.06863e+07 1.04833e+07 1.03579e+07 1.02986e+07 1.95294e+07 1.02926e+07 1.02414e+07 1.0134e+07 9.79709e+06 1.01375e+07 9.72727e+06 9.39866e+06 9.27038e+06 9.22456e+06 1.04214e+07 9.09524e+06 9.82253e+06 9.00914e+06 8.85987e+06 8.76449e+06 8.75185e+06 8.68166e+06 8.56759e+06 8.56424e+06 8.53766e+06 8.48665e+06 8.46257e+06
threshold=100272.85909020463 98452.500000000015 1440074.5000000002 97304.047521018991 99258.500000000015 101588.50000000001 1012.5000000000001 1576090.5000000002 98023.000000000015 100602.00000000001 99751.000000000015 104110.50000000001 1680.5000000000002 -0.0022791266581653588 0.027772392260551022 99943.154278639267 -0.020818669065394327 98189.063297322878 1165061.5000000002 1.9723891771416115 39.500000000000007 1314.5000000000002 -0.036666553916499492 1540.5000000000002 153.4142198364423 101847.4680148429 314.71625 97377.130000000019 98911.500000000015 99887.520000000004 102268.46500000001 -0.0058496116808962415 101669.94250000002 98035.360584686612 1006.5000000000001 101482.23369631359 668025.50000000012 1137.5000000000002 884.50000000000011 330.00955867239429 97038.095000000016 0.015085769648068811 599564.00000000012 100078.27500000001 813023.00000000012 97679.572500000024 101481.01000000002 98234.99261707766 0.015598426442085766 99089.522500000006 26.500000000000004 98683.500000000015 98036.197500000024 1547.5000000000002 1501.5000000000002 13.500000000000002 33.500000000000007 101958.46500000001 21.500000000000004 30.500000000000004 98462.809843200739 99101.244885875247 100067.36880273733 314.69000000000005 311.02625000000006 21.500000000000004 148.31139675750228 104084.00000000001 99856.920437493871 101011.35000000002 170.38228911589292 320.64625000000007 100549.13250000002 -0.020184743098945433 869.50000000000011 13.500000000000002 311.37875000000003 100150.9340553058 102345.30750000001 1619.5000000000002 302.73571803060742 26.500000000000004 977.50000000000011 1.0050469015353645 1154.5000000000002 15.500000000000002 769.50000000000011 1308.5000000000002 42.500000000000007 1533.5000000000002 18.500000000000004 306.66500000000008 44.500000000000007 99074.127500000017 -0.033567307281438537 28.500000000000004 0.0034186428525286032 30.500000000000004 99681.901810971118 31.500000000000004 101288.72731598261 98642.970000000016 315.7000000000001 29.500000000000004 99110.548103138703 21.500000000000004 12.500000000000002 12.500000000000002 101424.83000000002 29.500000000000004 11.500000000000002 23.500000000000004 24.500000000000004 98403.320000000022 98030.675369639444 98003.860000000015 48.500000000000007 22.500000000000004 31.500000000000004 98478.720000000016 15.500000000000002 -0.0091207050379410893 -0.022811800232615243 98683.737073448268 466.50000000000006 0.016685811214575897 -0.013467684487115564
decision_type=2 2 2 2 2 2 2 2 2 2 2 2 2 2 2 2 2 2 2 2 2 2 2 2 2 2 2 2 2 2 2 2 2 2 2 2 2 2 2 2 2 2 2 2 2 2 2 2 2 2 2 2 2 2 2 2 2 2 2 2 2 2 2 2 2 2 2 2 2 2 2 2 2 2 2 2 2 2 2 2 2 2 2 2 2 2 2 2 2 2 2 2 2 2 2 2 2 2 2 2 2 2 2 2 2 2 2 2 2 2 2 2 2 2 2 2 2 2 2 2 2 2 2 2 2 2 2
left_child=1 3 5 12 6 9 14 30 23 24 15 19 45 43 28 34 99 50 52 -9 51 22 -11 27 62 57 68 117 56 -24 53 111 41 54 38 70 61 60 39 94 -14 42 69 44 -12 -1 85 -39 -26 58 89 84 -19 126 125 113 119 71 -38 -37 -22 105 -2 -51 118 -28 -35 -13 -15 124 91 72 -7 -17 -34 -36 86 -45 79 92 -46 -82 -83 107 -8 100 -54 -50 -56 -18 -23 -27 -21 -40 -6 -86 97 -81 103 -10 -44 -57 -93 -96 -105 -30 -55 -53 -73 -110 -91 -29 -64 114 -20 116 -52 -5 -42 -3 -70 -47 -58 -49 -31 -33 -4
right_child=2 4 7 8 10 25 20 11 16 21 13 67 40 26 -16 73 17 18 55 78 37 90 29 -25 48 35 65 31 36 32 -32 33 74 66 75 59 49 47 93 -41 64 -43 46 77 80 121 -48 123 87 63 115 83 76 106 88 101 122 -59 -60 -61 -62 -63 112 -65 -66 -67 -68 -69 120 -71 -72 108 -74 -75 -76 -77 -78 -79 -80 96 81 82 -84 -85 95 -87 -88 -89 -90 110 -92 102 -94 -95 98 -97 -98 -99 -100 -101 -102 -103 -104 104 -106 -107 -108 -109 109 -111 -112 -113 -114 -115 -116 -117 -118 -119 -120 -121 -122 -123 -124 -125 -126 -127 -128
leaf_value=-120.31434369591193 43.36865089322314 -35.322294988130267 142.03163929332388 -89.800975965416953 -2.5252703831259131 90.099521865844736 -41.453180327066562 155.17330135604712 -41.940693388593957 109.57516264073989 18.257186943590217 196.29344685872397 -120.1220173099498 40.384253679513932 -57.375503847675944 6.4113496102937848 -60.690211468864895 -68.234676629525651 -58.279306417115983 171.2402075873481 -30.28808960914612 88.090307617187506 25.985846967206285 -96.69327256322272 22.763686178944596 90.778610229492188 20.524809010823571 -61.879764976157801 -13.649972552798666 96.852108982631137 118.63052150400441 -59.826509094238283 62.344428020276524 -70.938677458273062 -2.5913106282552083 102.71474904027478 -1.9561688604146026 -51.67139473992426 31.069665555159254 16.968629714890653 -107.3340091765873 67.878802648520576 71.953067811908156 44.906222666864814 14.157205025089226 -106.05841571676319 67.684215903282166 -81.088979729185723 46.181098515646802 -0.54343532621309631 -52.54150712754992 -26.742975373139252 -70.134843779773249 135.94215494791669 -56.022324394457272 -77.590896884373251 1.7368439970016478 73.907950042724607 23.19158727748335 60.626777122760643 -55.404582522537908 -17.978707995176677 57.95635415999616 -23.24094295161111 -141.58790571256833 -35.644693847656249 -81.386936854695549 246.26039160156253 44.036006200881232 36.509036272222346 125.54313980697039 94.899879309249258 110.61767848693219 26.057594561576845 36.905134020353621 -38.718312285376385 -27.708058194080031 22.91992024124778 163.81162245008682 192.01342044406468 12.256879312927659 -1.9110193053025466 -24.492373149108886 -20.578644275665283 -51.688380786526594 92.957211796190379 -48.937498569371797 89.726794433593753 -19.851283811911557 -58.185028076171875 124.32018925310618 118.08610605352065 194.25509258069491 5.9355216572971861 -8.8266793961281547 -79.167940661371972 186.68109338933772 229.7711474609375 -5.5963577874682171 -25.179774248968698 93.60926829370959 -92.513846869756719 108.11664158935547 -0.13803195066230242 -27.379233981115476 -1.8964110452742109 172.78997636274858 -40.964143273265094 93.311532220607859 58.562049191497096 -19.343965568542483 -43.15237728322046 82.736066968513271 -52.417343786207304 -85.988023024338943 -20.571042751621558 -22.861390380859376 -112.05109151204427 -136.01940606299868 -21.920510247417255 70.391107807462177 -92.781999420451228 -14.23883172287338 -111.70549480731671 68.010883269170208 -69.700464107213392 123.83172309027778
leaf_weight=492 81 152 220 92 565 160 328 412 188 136 1402 24 386 160 124 164 170 216 71 216 128 33 68 327 326 64 36 111 299 28 398 260 380 613 42 58 137 148 48 203 63 964 165 92 299 290 256 188 112 541 63 185 82 24 66 560 100 100 242 58 203 661 61 112 909 25 1383 75 42 44 308 292 388 324 76 122 83 591 90 72 370 325 125 192 155 756 817 20 39 27 83 544 76 857 333 49 176 45 528 194 87 149 500 86 280 494 88 388 41 43 40 169 99 118 65 148 50 90 47 618 126 214 522 26 307 1335 90
leaf_count=492 81 152 220 92 565 160 328 412 188 136 1402 24 386 160 124 164 170 216 71 216 128 33 68 327 326 64 36 111 299 28 398 260 380 613 42 58 137 148 48 203 63 964 165 92 299 290 256 188 112 541 63 185 82 24 66 560 100 100 242 58 203 661 61 112 909 25 1383 75 42 44 308 292 388 324 76 122 83 591 90 72 370 325 125 192 155 756 817 20 39 27 83 544 76 857 333 49 176 45 528 194 87 149 500 86 280 494 88 388 41 43 40 169 99 118 65 148 50 90 47 618 126 214 522 26 307 1335 90
internal_value=1.23786e-07 -37.8946 101.111 -80.6012 -5.62323 83.6545 -23.1884 158.874 -66.7148 69.6397 9.10741 177.594 -124.128 18.1985 -11.9301 -0.0885767 -55.5241 -58.6984 -62.8964 172.444 -45.8295 75.2712 73.8956 -74.3025 42.3846 106.036 43.7739 -72.5416 -10.4769 72.3458 131.799 -71.2479 73.375 -72.8139 -3.20129 112.433 -5.81444 -59.0483 -1.71596 -5.79166 -133.968 76.046 80.8379 15.0933 12.1706 -110.248 85.1417 -71.2609 31.4144 2.3715 -40.4815 -38.7665 -52.3969 144.218 -66.5157 -75.9582 -18.8038 96.4659 14.1012 81.6708 -45.6919 -11.6245 63.2327 -4.43642 -139.213 -2.49548 -78.1781 234.147 52.3789 66.4844 114.954 98.9072 104.627 19.4552 58.1045 -29.4663 -48.9132 25.8815 182.985 185.935 4.54461 1.03953 -8.18362 -32.4087 -47.909 89.5753 -50.871 52.7789 -42.5874 -53.4265 114.013 112.01 177.23 7.2686 -8.36997 -58.2889 194.609 206.536 -11.0613 -33.4286 79.4296 -80.727 113.311 -15.1893 -20.9783 -6.32808 164.894 -36.3727 90.571 75.5231 -34.9963 -50.5764 73.2888 -62.6468 -71.5224 -28.7268 -39.4087 -100.804 -119.59 -24.5661 63.8023 -100.421 -11.6704 -84.8087 70.4215 -68.0909 136.748
internal_weight=31708 23064 8644 9927 13137 6638 5992 2006 7526 4082 7145 1186 2401 3593 4002 3552 3041 2659 2161 1087 1990 3383 3267 4485 699 2556 389 4158 3878 3131 820 3976 3063 3696 3064 1532 2486 693 2900 1995 1405 2607 1643 3204 2521 996 1264 362 458 1032 498 1297 1198 422 1700 963 1392 1024 379 116 331 1454 241 653 1019 61 1996 99 328 379 1416 924 548 488 456 164 982 683 675 585 1119 820 450 765 532 1008 899 132 105 237 116 1108 292 905 1792 204 293 117 1227 382 252 709 1044 699 366 793 112 573 376 84 67 280 160 254 136 261 113 182 110 770 168 504 622 214 335 1595 310
internal_count=31708 23064 8644 9927 13137 6638 5992 2006 7526 4082 7145 1186 2401 3593 4002 3552 3041 2659 2161 1087 1990 3383 3267 4485 699 2556 389 4158 3878 3131 820 3976 3063 3696 3064 1532 2486 693 2900 1995 1405 2607 1643 3204 2521 996 1264 362 458 1032 498 1297 1198 422 1700 963 1392 1024 379 116 331 1454 241 653 1019 61 1996 99 328 379 1416 924 548 488 456 164 982 683 675 585 1119 820 450 765 532 1008 899 132 105 237 116 1108 292 905 1792 204 293 117 1227 382 252 709 1044 699 366 793 112 573 376 84 67 280 160 254 136 261 113 182 110 770 168 504 622 214 335 1595 310
is_linear=0
shrinkage=0.05


Tree=4
num_leaves=128
num_cat=0
split_feature=35 4 0 35 3 0 4 0 0 2 78 79 33 85 44 0 79 63 47 43 44 6 41 79 0 62 78 1 62 70 0 0 90 0 59 77 44 44 94 44 62 76 0 94 0 78 0 1 78 46 1 76 2 42 94 1 0 90 1 62 90 1 0 85 46 47 1 76 73 1 60 41 1 78 42 1 17 45 46 76 1 61 1 0 35 1 90 1 1 0 17 79 0 46 78 1 0 1 47 1 73 46 1 1 91 94 1 92 46 1 56 42 1 56 0 0 1 70 0 1 90 1 1 43 43 1 0
split_gain=4.38581e+10 1.14781e+10 3.15075e+09 2.50286e+09 8.23412e+08 7.23203e+08 4.70776e+08 4.30997e+08 3.64642e+08 2.15636e+08 1.70139e+08 1.57218e+08 1.55271e+08 1.39838e+08 1.3036e+08 1.18384e+08 1.03007e+08 9.9096e+07 7.80058e+07 7.493e+07 7.20995e+07 7.00248e+07 6.74442e+07 6.69866e+07 6.37413e+07 5.59114e+07 5.27455e+07 5.09122e+07 4.83912e+07 4.416e+07 4.36287e+07 4.31515e+07 4.04893e+07 3.83462e+07 4.13496e+07 3.71144e+07 3.68352e+07 3.64704e+07 4.22426e+07 3.55672e+07 3.55556e+07 3.40392e+07 3.24937e+07 3.04443e+07 2.95017e+07 2.91028e+07 2.80825e+07 2.70123e+07 2.69849e+07 2.44114e+07 2.42539e+07 2.41798e+07 2.38923e+07 2.22252e+07 2.04414e+07 1.9464e+07 1.88508e+07 1.85904e+07 1.77269e+07 1.71409e+07 1.68905e+07 1.68043e+07 1.63712e+07 1.62411e+07 1.61479e+07 1.58847e+07 1.53935e+07 1.51717e+07 1.50992e+07 1.48492e+07 1.47072e+07 1.46939e+07 1.44194e+07 1.67994e+07 1.49516e+07 1.42419e+07 1.8172e+07 1.3892e+07 1.38303e+07 1.89955e+07 1.38003e+07 1.36105e+07 3.06448e+07 1.68943e+07 1.33553e+07 2.54765e+07 1.26477e+07 1.2535e+07 1.24483e+07 1.21005e+07 1.41623e+07 1.20674e+07 1.15512e+07 1.53971e+07 1.10713e+07 1.10605e+07 1.09347e+07 1.51097e+07 1.08249e+07 1.04092e+07 1.02246e+07 9.99021e+06 9.95968e+06 9.55603e+06 9.13795e+06 9.02636e+06 8.99637e+06 8.98502e+06 1.24091e+07 8.89252e+06 8.88262e+06 8.71121e+06 8.59106e+06 8.41815e+06 8.36903e+06 8.3125e+06 1.19667e+07 8.20254e+06 8.19843e+06 1.25212e+07 8.17171e+06 7.99604e+06 7.98479e+06 7.86032e+06 7.73182e+06 1.07537e+07 9.37792e+06
threshold=100272.85909020463 98778.500000000015 1332.5000000000002 97304.047521018991 99258.500000000015 1562.5000000000002 101389.50000000001 1154.5000000000002 1018.5000000000001 99751.000000000015 -0.026315028410211983 -0.020818669065394327 100518.15074496446 1.0027370947344332 97937.257500000022 1680.5000000000002 -0.0022791266581653588 312.88330891771051 99943.154278639267 103523.04283957265 101592.99250000001 98104.500000000015 97401.757909152322 0.029120938446913883 521.50000000000011 314.71625 0.02138331272029011 34.500000000000007 305.69125000000003 -0.093371952926803864 1494.5000000000002 1006.5000000000001 140.10379904226218 899.50000000000011 330.00955867239429 -0.0009496027669480834 97038.095000000016 100078.27500000001 813023.00000000012 97679.572500000024 311.88625000000008 -0.026668441222387481 914.50000000000011 660031.50000000012 433.50000000000006 -0.013224882414420427 1619.5000000000002 40.500000000000007 -0.032768748916333447 98236.180000000008 17.500000000000004 -0.01172183077856096 97856.500000000015 102358.25000000001 973091.00000000012 21.500000000000004 1314.5000000000002 157.2626925140984 22.500000000000004 311.02625000000006 163.94067182138247 21.500000000000004 1024.5000000000002 0.99913182121231681 98671.35500000001 98234.99261707766 25.500000000000004 -0.020184743098945433 -0.036871313196876192 23.500000000000004 337.80000000000007 101717.45735574847 28.500000000000004 0.018124800729953035 101505.58000000002 25.500000000000004 102056.50000000001 100150.9340553058 101874.22875000002 0.0055671871738157607 17.500000000000004 302.73571803060742 28.500000000000004 989.50000000000011 98512.765735970417 29.500000000000004 165.00850317003287 35.500000000000007 20.500000000000004 1552.5000000000002 102209.00000000001 0.022696642173662625 1289.5000000000002 98654.813750000016 -0.0018985642826590576 27.500000000000004 764.50000000000011 41.500000000000007 100288.18253163397 15.500000000000002 -0.044999596889428402 99074.127500000017 32.500000000000007 15.500000000000002 -5.3563531562904236 1232020.5000000002 28.500000000000004 136.28178909003813 100955.14125000002 12.500000000000002 335.75000000000006 99878.490000000005 13.500000000000002 330.23000000000008 1066.5000000000002 989.50000000000011 31.500000000000004 -0.0011488944632172678 1123.5000000000002 30.500000000000004 140.10379904226218 31.500000000000004 42.500000000000007 99126.296141532119 99126.296141532119 19.500000000000004 859.50000000000011
decision_type=2 2 2 2 2 2 2 2 2 2 2 2 2 2 2 2 2 2 2 2 2 2 2 2 2 2 2 2 2 2 2 2 2 2 2 2 2 2 2 2 2 2 2 2 2 2 2 2 2 2 2 2 2 2 2 2 2 2 2 2 2 2 2 2 2 2 2 2 2 2 2 2 2 2 2 2 2 2 2 2 2 2 2 2 2 2 2 2 2 2 2 2 2 2 2 2 2 2 2 2 2 2 2 2 2 2 2 2 2 2 2 2 2 2 2 2 2 2 2 2 2 2 2 2 2 2 2
left_child=1 3 6 15 8 51 12 11 23 18 60 44 28 63 17 39 37 22 31 78 26 54 -9 41 58 62 35 65 102 86 -24 33 -29 34 94 70 -17 38 -11 113 49 43 68 123 -5 -30 84 -32 95 -23 -22 53 -19 -4 -13 -45 72 -47 -14 121 -8 -27 -18 75 -51 -10 -54 -20 -43 -33 -12 -52 104 74 98 76 -7 -39 -15 88 -46 -40 -83 -84 92 -86 -26 -58 -80 107 -91 124 93 -16 -6 -31 97 -37 -74 -64 -34 -35 -2 -48 -50 -95 -72 108 -53 -66 -77 -59 -56 -1 -75 -103 -117 -111 -69 -120 -67 -38 -41 -3 125 -70 -126
right_child=2 4 5 7 9 13 10 14 27 16 20 21 24 19 46 36 25 52 67 -21 50 40 30 -25 29 61 -28 32 45 48 47 69 100 101 -36 96 59 77 81 122 -42 42 -44 55 80 57 103 -49 56 64 71 89 66 -55 112 -57 87 111 -60 -61 -62 -63 99 -65 109 120 -68 118 91 -71 106 -73 73 114 -76 110 -78 -79 79 -81 -82 82 83 -85 85 -87 -88 -89 -90 90 -92 -93 -94 105 -96 -97 -98 -99 -100 -101 -102 115 -104 -105 -106 -107 -108 -109 -110 117 -112 -113 -114 -115 -116 116 -118 -119 119 -121 -122 -123 -124 -125 126 -127 -128
leaf_value=-116.49835403925692 60.803002719221446 -2.108039541626876 133.6648658389137 -43.15036801424894 -6.5707855414984255 103.04940999348958 116.05014720329871 -96.886247901667176 -19.270562728881838 17.344327818054957 85.455397536386215 -67.161958778074592 54.426105137875211 165.83825945172993 -91.506804459470175 -114.11592505262307 36.487368743559891 -87.938156738281251 6.0907819174593545 232.48240001166047 82.638654086121136 -34.918030513416639 -65.891092629302463 -56.500490673168287 55.834614301982675 19.498568386501738 63.556198406219487 -80.218233380998882 15.640653944832938 79.879384358723968 -56.615026132492794 -10.986005892356237 -31.68384703902511 29.516183042526247 16.120198371022791 122.45142766049035 -101.9673072451637 42.660910166864817 13.449344379686591 -91.766642284897898 -22.746889434920419 -4.5013249593741689 13.566040307283401 -5.2706926428966039 -34.533813722106231 55.05463981628418 -77.511876078485287 -26.797891741840779 58.816053458139407 -67.397840616438131 41.036536746554908 101.14206063686274 -43.05151842597391 103.33201197574013 -65.9236780657087 14.502822589597038 77.547604370117199 41.726058959960938 17.936899595260623 -134.50851118131831 101.02682423311121 -33.862459289550785 38.996760908762617 158.81951207438794 -41.529051354653078 -45.708414392663329 -20.394912550184461 20.808631784915924 -18.528291739934609 -41.302752785060719 78.753619039283606 63.943575221689507 68.88728602818081 87.287610505756589 63.390460757758675 163.93832814286395 141.26265207926434 21.77392419086495 179.61743528131854 174.6356577165451 -17.947066111766414 10.843909867723191 -3.9832318171687513 -30.90415069580078 -48.147517134503623 -82.319515243841693 30.8533569135164 131.14436828613282 210.35763956705728 152.64196090698243 110.5671435546875 -37.153084956804911 -70.266420644891127 -72.218212709991363 -21.491514644338125 118.08112319946291 93.462502692727483 81.494475746154791 87.305990012295283 65.882862514919708 -48.893264296620167 7.580502402503301 103.00235369646992 -95.695987569005041 69.310659220177655 -80.28774591575106 57.900301277991574 120.14687153444453 113.53071190172787 -57.418377200395632 141.88364696317507 21.057625367091255 -45.433101043701178 -94.852992309570311 62.588757315548982 9.9920980958377612 -32.274568222508286 -47.576092595209573 18.669836640357971 62.901516342163092 -32.104542323009511 -129.21844066863363 -106.30066944909476 -14.560985169183642 -20.709093219250235 -8.2965329607760889 0.73023355688367575
leaf_weight=442 29 212 294 242 1722 42 416 153 200 1402 343 771 57 196 197 386 136 20 164 67 117 264 1538 74 152 36 224 98 175 36 210 72 111 48 203 76 63 92 299 378 144 412 120 195 174 136 103 119 423 144 108 312 147 76 70 344 24 100 80 909 340 25 48 254 261 149 153 260 395 92 106 199 105 38 127 82 120 591 57 287 449 402 348 70 123 98 76 20 78 40 40 60 597 642 134 40 884 32 332 144 388 726 27 242 407 753 101 236 574 390 103 104 190 50 352 34 33 463 32 32 426 47 126 315 572 734 56
leaf_count=442 29 212 294 242 1722 42 416 153 200 1402 343 771 57 196 197 386 136 20 164 67 117 264 1538 74 152 36 224 98 175 36 210 72 111 48 203 76 63 92 299 378 144 412 120 195 174 136 103 119 423 144 108 312 147 76 70 344 24 100 80 909 340 25 48 254 261 149 153 260 395 92 106 199 105 38 127 82 120 591 57 287 449 402 348 70 123 98 76 20 78 40 40 60 597 642 134 40 884 32 332 144 388 726 27 242 407 753 101 236 574 390 103 104 190 50 352 34 33 463 32 32 426 47 126 315 572 734 56
internal_value=5.05618e-08 -35.9998 96.0551 -72.7533 -2.14839 139.006 74.8392 -60.2259 -18.0235 8.65204 88.8425 -46.8831 60.3132 166.815 -69.5541 -117.922 17.2885 -60.8761 -0.0841479 182.259 81.7827 -52.832 -64.9714 -9.43603 66.1781 41.5852 86.228 -39.8616 37.0079 68.3024 -62.356 -3.04122 -50.8356 -1.63016 -5.30469 89.5214 -127.27 14.3387 11.562 -104.736 -46.4941 -8.41619 -11.779 -1.00603 -28.3347 32.208 -76.925 -45.8301 70.7926 -48.7409 63.2675 116.257 -35.0242 127.434 -63.0735 7.34914 69.5789 40.7354 33.1185 -132.253 109.294 -2.37071 49.7599 149.212 -51.6417 -31.408 -31.4966 18.4824 -13.1435 -27.993 79.1037 55.8851 68.7815 72.9743 78.4917 142.18 131.356 24.5874 176.814 181.911 -22.5796 4.31738 0.987557 -8.49152 -75.015 -63.3007 47.5075 101.91 197.378 112.817 131.605 -15.103 -76.1977 -78.4219 -7.64804 99.9856 95.2974 110.316 82.8804 59.1613 -45.0651 7.3661 81.1491 -90.2671 63.9622 -76.574 68.5788 111.477 109.168 -49.605 151.659 31.1892 -50.9498 -114.299 64.9953 6.02537 -10.8258 -52.0761 24.7547 40.7857 -35.6297 -113.611 -95.4001 -9.55145 -14.3501 -11.8763 -18.7973
internal_weight=31708 23064 8644 11058 12006 2858 5786 8657 4861 7145 2946 3562 2840 1286 5095 2401 3593 2340 3552 685 2190 2697 2020 3489 2269 389 1766 1372 571 2132 1867 3064 597 2900 2059 1542 1405 3204 2521 996 1666 3415 2349 1066 865 515 2755 329 1904 1522 424 1572 320 370 1031 539 1828 340 137 1019 756 61 328 601 1258 775 300 488 2229 164 550 307 1784 954 564 347 162 683 618 422 623 1119 820 418 2410 221 228 44 135 1202 80 1817 2189 1592 1856 76 992 108 437 192 499 841 56 345 830 1395 207 1122 886 1114 185 204 260 492 390 793 67 853 324 64 575 110 504 527 1757 1129 628
internal_count=31708 23064 8644 11058 12006 2858 5786 8657 4861 7145 2946 3562 2840 1286 5095 2401 3593 2340 3552 685 2190 2697 2020 3489 2269 389 1766 1372 571 2132 1867 3064 597 2900 2059 1542 1405 3204 2521 996 1666 3415 2349 1066 865 515 2755 329 1904 1522 424 1572 320 370 1031 539 1828 340 137 1019 756 61 328 601 1258 775 300 488 2229 164 550 307 1784 954 564 347 162 683 618 422 623 1119 820 418 2410 221 228 44 135 1202 80 1817 2189 1592 1856 76 992 108 437 192 499 841 56 345 830 1395 207 1122 886 1114 185 204 260 492 390 793 67 853 324 64 575 110 504 527 1757 1129 628
is_linear=0
shrinkage=0.05


Tree=5
num_leaves=128
num_cat=0
split_feature=37 2 0 35 33 0 0 4 3 2 78 33 92 0 79 42 79 47 79 47 94 44 1 0 0 0 33 40 78 78 90 79 45 70 0 0 0 59 77 44 46 90 44 45 0 46 1 78 74 79 46 1 76 1 0 1 0 42 1 94 78 1 45 85 1 40 1 90 62 58 90 78 94 0 0 72 60 1 1 0 72 90 0 0 17 1 0 42 0 1 1 0 46 1 0 40 1 1 0 38 94 43 91 1 1 46 72 41 1 40 42 0 76 38 39 78 60 1 92 46 1 1 46 70 1 1 0
split_gain=3.9582e+10 1.03266e+10 2.87069e+09 1.95373e+09 1.09862e+09 6.52691e+08 5.0288e+08 4.3749e+08 2.06596e+08 1.94673e+08 1.53551e+08 1.50113e+08 1.27303e+08 1.06842e+08 9.49039e+07 8.84237e+07 7.98789e+07 7.36517e+07 6.89378e+07 6.6502e+07 9.68273e+07 6.50698e+07 6.47741e+07 5.78578e+07 5.75266e+07 5.424e+07 4.98865e+07 4.98511e+07 4.76028e+07 4.70775e+07 4.41508e+07 4.18452e+07 4.11515e+07 3.98544e+07 3.88686e+07 3.64281e+07 3.65675e+07 4.1814e+07 3.34957e+07 3.32437e+07 3.26987e+07 3.23418e+07 3.20994e+07 3.08852e+07 4.67516e+07 2.94743e+07 2.50571e+07 2.43992e+07 2.30144e+07 2.28359e+07 2.27572e+07 2.2327e+07 2.18223e+07 2.16615e+07 2.09206e+07 2.06282e+07 2.02655e+07 2.00582e+07 1.74725e+07 2.64457e+07 1.79544e+07 1.73084e+07 1.65924e+07 1.63749e+07 1.60361e+07 2.45073e+07 1.59985e+07 1.57115e+07 1.55105e+07 1.52806e+07 1.52437e+07 1.49206e+07 1.4722e+07 1.45356e+07 1.40469e+07 1.35347e+07 1.32733e+07 1.23204e+07 1.2272e+07 1.21517e+07 1.14416e+07 1.14145e+07 1.10299e+07 1.09207e+07 1.27815e+07 1.07978e+07 1.03971e+07 1.01459e+07 9.86855e+06 1.36412e+07 9.86014e+06 9.41886e+06 9.29177e+06 9.15825e+06 9.1143e+06 9.04212e+06 1.19658e+07 8.97905e+06 2.12738e+07 1.43704e+07 8.8377e+06 1.01356e+07 8.80388e+06 8.74653e+06 8.71626e+06 8.53232e+06 8.51811e+06 8.82089e+06 8.5049e+06 1.956e+07 8.46248e+06 8.43502e+06 8.41734e+06 8.33153e+06 9.31938e+06 8.16085e+06 8.15973e+06 8.11922e+06 8.10898e+06 1.11992e+07 8.08053e+06 8.07384e+06 7.9914e+06 7.91415e+06 7.90604e+06 7.79754e+06 7.66242e+06
threshold=100231.72731750039 98452.500000000015 1332.5000000000002 97304.047521018991 99250.539018679367 1562.5000000000002 1012.5000000000001 101389.50000000001 98023.000000000015 99751.000000000015 -0.026315028410211983 100518.15074496446 30.28662617754139 1680.5000000000002 -0.0022791266581653588 103218.27500000001 0.027772392260551022 99943.154278639267 -0.020818669065394327 98189.063297322878 1165061.5000000002 101592.99250000001 27.500000000000004 1540.5000000000002 521.50000000000011 1000.5000000000001 98914.213998161009 97377.130000000019 0.02138331272029011 -0.013224882414420427 140.45496103723721 -0.0058496116808962415 98035.360584686612 -0.093371952926803864 668.50000000000011 1006.5000000000001 884.50000000000011 327.1628271823792 -0.0009496027669480834 97038.095000000016 99082.836250000008 167.20228789697617 97679.572500000024 100004.26870683221 822.50000000000011 98178.99000000002 26.500000000000004 -0.033790557519523104 0.010047899001000194 0.031823234502366321 99348.862500000017 25.500000000000004 -0.01172183077856096 13.500000000000002 1501.5000000000002 33.500000000000007 1562.5000000000002 102358.25000000001 30.500000000000004 1304027.5000000002 -0.0049860359231380666 19.500000000000004 99002.038021041619 1.0069690365915858 22.500000000000004 99617.700000000012 22.500000000000004 148.31139675750228 310.60125000000011 305.44500000000005 163.94067182138247 0.007905929143769903 1143021.5000000002 1123.5000000000002 1166.5000000000002 0.035252980470611962 337.80000000000007 41.500000000000007 13.500000000000002 854.50000000000011 0.046894546103450917 165.00850317003287 1533.5000000000002 1552.5000000000002 102209.00000000001 38.500000000000007 1604.5000000000002 100964.60500000003 764.50000000000011 43.500000000000007 30.500000000000004 433.50000000000006 99074.127500000017 32.500000000000007 989.50000000000011 98494.520000000004 32.500000000000007 37.500000000000007 1582.5000000000002 102175.80000000002 604023.00000000012 101325.74682147363 -4.2210716343906816 11.500000000000002 9.5000000000000018 99993.76125000001 -0.041701335304914225 99592.478383902751 28.500000000000004 99214.460000000006 99026.760000000024 506.50000000000006 -0.022811800232615243 98403.320000000022 98030.675369639444 -0.016534660533027084 320.46000000000004 28.500000000000004 136.28178909003813 100955.14125000002 23.500000000000004 22.500000000000004 98017.586250000008 0.061859826723193491 36.500000000000007 31.500000000000004 1513.5000000000002
decision_type=2 2 2 2 2 2 2 2 2 2 2 2 2 2 2 2 2 2 2 2 2 2 2 2 2 2 2 2 2 2 2 2 2 2 2 2 2 2 2 2 2 2 2 2 2 2 2 2 2 2 2 2 2 2 2 2 2 2 2 2 2 2 2 2 2 2 2 2 2 2 2 2 2 2 2 2 2 2 2 2 2 2 2 2 2 2 2 2 2 2 2 2 2 2 2 2 2 2 2 2 2 2 2 2 2 2 2 2 2 2 2 2 2 2 2 2 2 2 2 2 2 2 2 2 2 2 2
left_child=1 3 7 13 6 52 16 11 23 17 70 29 48 42 43 86 26 35 91 46 49 28 63 27 66 50 55 121 38 -2 80 120 54 81 62 36 37 71 76 -15 61 74 -1 44 -11 56 82 -35 -7 75 -16 -23 57 113 124 -3 -32 -4 102 60 100 -36 -28 -8 -46 -66 -13 -34 -41 104 -9 106 -47 115 111 -21 -12 -75 -37 -53 -24 -26 -20 118 -85 -56 -14 -62 89 -40 -27 -10 -38 -76 -67 -55 -97 98 -50 -99 -60 -102 -49 -84 -42 -45 -6 108 -108 -110 -71 -31 -57 114 -22 -19 -104 -78 119 -54 -29 -5 -44 -88 -33 -93 -48
right_child=2 4 5 8 9 12 22 10 18 14 21 24 15 39 25 -17 -18 73 19 20 53 51 30 -25 33 90 34 31 -30 41 45 32 67 47 40 78 92 -39 88 68 69 -43 122 105 64 72 126 58 97 -51 -52 79 83 95 85 112 -58 -59 59 -61 87 -63 -64 -65 65 94 -68 -69 -70 110 -72 -73 -74 77 93 -77 117 -79 -80 -81 -82 -83 103 84 -86 -87 123 -89 -90 -91 -92 125 -94 -95 -96 96 -98 99 -100 -101 101 -103 116 -105 -106 -107 107 -109 109 -111 -112 -113 -114 -115 -116 -117 -118 -119 -120 -121 -122 -123 -124 -125 -126 -127 -128
leaf_value=-108.58369412305879 13.964807008549492 -23.024973113814447 126.98162445275962 -80.627356089716386 -1.649717814712734 159.17663897583816 -35.042402115787375 110.24763808617224 -41.764791870117193 15.759021705715018 81.182628487011442 51.704799451326075 155.48692235702126 -108.41012435675903 27.170410524216376 220.05930710696103 -51.624206727126548 5.0772978553646491 -55.087980795467608 -47.269382889168398 -52.001955575002754 74.060268486870655 -64.397867707000387 -87.297595476156346 53.042884063720706 44.452081583314026 -6.2647131259014568 -56.127687443913636 60.378388254983093 23.219840829713007 -29.495294565017748 -64.044294717826105 -63.900769986375124 98.63123326619467 -1.7128362492618399 -2.79868063067281 28.712600465254351 14.497050084609652 115.56662265439577 -107.14389744178924 -16.697193847383772 24.594303511210853 -97.366239091589094 31.333957234295937 10.201331358887131 -49.158346878854857 -36.469795123350274 56.573512514804271 100.80438258394283 -63.635448942079655 -18.478649817572698 56.51375946199834 96.084957592303937 -68.705681044390417 -51.977712162205435 2.7352764461300163 -51.441141783885463 98.165410413240139 64.641751328954157 114.37519190171186 73.282604941343649 21.573051121320383 -16.912190475173897 -17.849124423756319 14.242596183325114 -6.5058176835895756 17.040054419040683 -73.517298499691421 -127.69737452982298 -5.5787034161885583 95.975481423770688 -38.406043281555178 -71.269180036272331 23.542213569987908 56.842098744710292 -32.782847356084567 74.815938611300496 68.077488199869791 -33.829583157174959 30.118773923601424 -93.200682032385544 29.310689303749484 -53.123199462890625 145.00986755371093 105.03878662109376 -19.480859600413932 167.91131259792454 57.730787296295176 88.789377058900868 75.4711057465652 64.892294828770531 -33.451772747617781 5.1931691738733381 100.52240778605143 -24.758210358836436 -68.528686215697221 -89.792512010407933 169.96383109714677 137.31523377389621 136.81373096567341 87.175654350070786 67.071480005437678 63.668545696551988 -16.292198143005372 4.6804190357526148 19.007813851427965 -7.3135549322812397 -4.7959333860543039 3.513719202832478 -23.937609699531386 -24.68881805283683 52.521104225158695 -13.156814654581561 -46.368557428909561 -78.204714355468752 19.532658376099864 83.19615311161165 55.005286218624306 114.13952541028038 107.85417447505513 -38.763114125629855 -101.69085978190105 -84.745444360896116 188.10203988211495 -56.712744559909986 -16.1319502055645 -18.942051566401613
leaf_weight=492 187 730 294 92 455 151 747 416 122 1481 343 57 156 386 113 89 116 152 170 815 71 171 174 327 152 118 958 111 224 28 323 1020 613 60 117 43 44 229 79 102 56 140 235 176 297 266 103 470 47 182 36 197 312 441 61 101 156 76 106 34 156 251 592 170 133 307 80 1383 917 120 340 40 105 44 24 201 106 24 123 56 43 76 27 40 40 44 364 320 884 29 118 132 921 24 88 119 149 46 264 113 218 88 390 40 321 694 329 540 82 311 112 200 476 118 65 273 62 101 236 574 169 90 269 56 575 128 158
leaf_count=492 187 730 294 92 455 151 747 416 122 1481 343 57 156 386 113 89 116 152 170 815 71 171 174 327 152 118 958 111 224 28 323 1020 613 60 117 43 44 229 79 102 56 140 235 176 297 266 103 470 47 182 36 197 312 441 61 101 156 76 106 34 156 251 592 170 133 307 80 1383 917 120 340 40 105 44 24 201 106 24 123 56 43 76 27 40 40 44 364 320 884 29 118 132 921 24 88 119 149 46 264 113 218 88 390 40 321 694 329 540 82 311 112 200 476 118 65 273 62 101 236 574 169 90 269 56 575 128 158
internal_value=4.34374e-10 -34.2869 91.0207 -72.7543 -5.14797 132.056 -21.0624 70.8627 -60.2255 8.02124 84.4004 56.9763 158.474 -112.026 16.3159 173.676 -10.7467 -0.160862 -50.165 -53.0184 -56.8143 77.6935 -41.6003 -67.047 62.8692 39.7602 -9.50991 -65.4544 81.9166 34.8022 -49.9757 -64.2831 -65.6949 64.8873 -5.40815 -3.00115 -1.71915 -5.59893 85.0453 -120.906 2.40247 44.1691 -99.4988 13.474 10.4454 -44.8367 -36.5466 67.253 142.195 -47.3252 16.1411 60.1042 110.445 -68.619 -59.9781 -17.4404 -36.6426 121.063 66.232 71.099 69.4421 14.1697 -10.3314 -31.855 0.90673 -4.32148 31.4626 -70.5639 -125.64 -4.70808 103.829 -8.21816 -55.4161 17.7969 54.0983 -44.4034 75.1485 39.2605 -25.7915 50.6714 -70.1053 45.1322 -48.3163 107.176 125.024 -38.36 166.509 62.8276 90.5325 104.8 54.6722 -30.3032 6.26556 78.6823 -10.5722 -73.1075 -80.3507 136.739 131.798 146.404 77.084 81.3941 61.3649 -31.1345 1.50496 21.5014 -7.51488 -9.6295 -13.2446 -18.2099 -14.8043 48.9227 -10.375 -56.0903 -64.5253 14.3627 66.3471 65.1499 105.904 103.71 -45.6469 -91.0434 -90.6301 170.603 -61.4013 -24.9251 -25.8591
internal_weight=31708 23032 8676 9927 13105 2858 5934 5818 7526 7171 2946 2872 1286 2401 3561 665 3950 3610 3041 2659 2161 2190 1984 4485 2269 385 3834 4158 1766 603 1067 3976 3696 2132 2527 3117 2951 1986 1542 1405 977 416 996 3176 2306 850 498 1904 621 1198 149 424 1572 963 1700 1307 479 370 1844 922 888 368 1550 917 825 528 137 1996 1019 609 756 1757 371 493 276 1016 550 68 166 253 217 228 237 1202 80 105 576 476 992 108 236 382 965 48 395 709 268 470 311 159 412 306 922 67 377 870 1717 1262 722 393 232 228 577 254 136 425 452 207 1122 886 280 182 504 420 1595 260 261
internal_count=31708 23032 8676 9927 13105 2858 5934 5818 7526 7171 2946 2872 1286 2401 3561 665 3950 3610 3041 2659 2161 2190 1984 4485 2269 385 3834 4158 1766 603 1067 3976 3696 2132 2527 3117 2951 1986 1542 1405 977 416 996 3176 2306 850 498 1904 621 1198 149 424 1572 963 1700 1307 479 370 1844 922 888 368 1550 917 825 528 137 1996 1019 609 756 1757 371 493 276 1016 550 68 166 253 217 228 237 1202 80 105 576 476 992 108 236 382 965 48 395 709 268 470 311 159 412 306 922 67 377 870 1717 1262 722 393 232 228 577 254 136 425 452 207 1122 886 280 182 504 420 1595 260 261
is_linear=0
shrinkage=0.05


Tree=6
num_leaves=128
num_cat=0
split_feature=35 35 0 35 3 0 0 4 4 2 78 33 92 0 79 42 79 47 0 79 47 44 1 0 62 0 0 90 78 62 70 0 2 94 40 0 59 77 44 44 0 44 79 46 94 0 78 78 74 1 46 76 42 42 1 73 1 79 1 1 91 0 90 1 43 1 56 62 90 72 1 76 40 60 1 78 47 45 1 89 1 40 90 1 42 0 17 1 1 1 0 2 90 90 78 0 1 1 0 46 1 46 1 0 38 1 56 1 40 58 56 94 1 43 1 43 42 91 91 46 74 1 1 1 58 1 37
split_gain=3.57256e+10 9.3621e+09 2.56583e+09 1.87331e+09 8.62848e+08 5.89054e+08 4.12113e+08 3.83124e+08 2.41259e+08 1.75149e+08 1.3858e+08 1.25946e+08 1.14891e+08 9.64246e+07 8.3856e+07 7.98024e+07 7.83654e+07 7.36519e+07 1.02029e+08 6.44427e+07 6.34228e+07 5.87255e+07 5.84691e+07 5.45979e+07 5.63561e+07 5.19177e+07 4.61052e+07 4.53206e+07 4.29615e+07 3.94891e+07 3.59686e+07 3.51128e+07 3.36329e+07 3.5346e+07 3.27989e+07 3.14462e+07 3.48952e+07 3.02299e+07 3.00025e+07 2.97798e+07 3.51899e+07 2.89697e+07 2.58542e+07 2.57887e+07 2.46015e+07 2.45738e+07 2.37438e+07 2.20869e+07 2.07704e+07 2.02606e+07 2.01018e+07 1.96946e+07 1.81026e+07 1.80691e+07 1.81027e+07 1.78882e+07 1.76462e+07 1.68273e+07 1.66873e+07 1.64103e+07 1.60128e+07 1.58386e+07 1.5505e+07 1.46704e+07 1.45069e+07 1.44387e+07 1.42145e+07 1.40202e+07 1.37574e+07 1.34633e+07 1.2523e+07 1.24893e+07 1.24459e+07 1.19791e+07 1.19031e+07 1.32948e+07 1.29354e+07 1.17605e+07 1.1384e+07 1.11093e+07 1.69354e+07 1.09596e+07 1.03016e+07 1.02536e+07 9.99678e+06 9.85595e+06 1.15353e+07 9.82933e+06 9.78576e+06 9.52876e+06 9.3834e+06 9.15305e+06 9.06238e+06 9.04734e+06 8.94075e+06 8.90637e+06 1.27257e+07 8.90357e+06 8.82476e+06 8.79336e+06 8.69007e+06 8.44517e+06 8.10359e+06 1.91996e+07 1.29693e+07 8.08958e+06 7.95641e+06 7.83747e+06 7.81287e+06 7.78924e+06 7.63682e+06 7.5966e+06 7.89508e+06 7.57185e+06 1.07078e+07 1.22138e+07 7.4416e+06 7.37467e+06 7.33965e+06 1.04442e+07 7.32802e+06 7.3276e+06 7.30481e+06 7.20405e+06 7.20114e+06 8.73155e+06 7.18689e+06
threshold=100272.85909020463 98524.916440924906 1332.5000000000002 97304.047521018991 99258.500000000015 1562.5000000000002 1018.5000000000001 101389.50000000001 98240.500000000015 99751.000000000015 -0.026315028410211983 100518.15074496446 30.28662617754139 1680.5000000000002 -0.0022791266581653588 103218.27500000001 -0.020818669065394327 98189.063297322878 1166.5000000000002 0.027772392260551022 99943.154278639267 101592.99250000001 30.500000000000004 1520.5000000000002 299.41375000000011 521.50000000000011 1000.5000000000001 140.10379904226218 0.02138331272029011 305.69125000000003 -0.093371952926803864 1006.5000000000001 98911.500000000015 668025.50000000012 97377.130000000019 884.50000000000011 330.00955867239429 -0.0009496027669480834 97038.095000000016 100078.27500000001 807.50000000000011 97679.572500000024 -0.0018018226198980318 99082.836250000008 1474067.0000000002 1289.5000000000002 -0.013224882414420427 -0.032768748916333447 0.010047899001000194 17.500000000000004 99348.862500000017 -0.01172183077856096 102358.25000000001 98133.99500000001 49.500000000000007 -0.043564397326703218 41.500000000000007 0.033662340163015107 15.500000000000002 22.500000000000004 146.7965641270421 1314.5000000000002 157.2626925140984 23.500000000000004 99101.244885875247 22.500000000000004 314.69000000000005 311.02625000000006 163.94067182138247 0.044910714553327367 23.500000000000004 -0.020184743098945433 101674.81000000001 337.80000000000007 27.500000000000004 0.018124800729953035 101189.60360168967 100150.9340553058 26.500000000000004 167.20230261572348 26.500000000000004 98494.520000000004 165.00850317003287 35.500000000000007 98518.055000000008 1552.5000000000002 102209.00000000001 27.500000000000004 31.500000000000004 31.500000000000004 1604.5000000000002 98740.000000000015 128.75864981122328 140.10379904226218 -0.012110151020915385 764.50000000000011 30.500000000000004 25.500000000000004 1143.5000000000002 100189.72125000002 21.500000000000004 99074.127500000017 37.500000000000007 1582.5000000000002 102175.80000000002 32.500000000000007 304.63000000000005 44.500000000000007 97737.680000000008 306.47500000000008 331.35000000000008 1536062.5000000002 9.5000000000000018 99126.296141532119 14.500000000000002 99681.901810971118 99878.490000000005 -5.3563531562904236 178.88422065031776 101014.78000000001 -0.0039565092474538009 28.500000000000004 22.500000000000004 31.500000000000004 310.07500000000005 31.500000000000004 99638.507609370441
decision_type=2 2 2 2 2 2 2 2 2 2 2 2 2 2 2 2 2 2 2 2 2 2 2 2 2 2 2 2 2 2 2 2 2 2 2 2 2 2 2 2 2 2 2 2 2 2 2 2 2 2 2 2 2 2 2 2 2 2 2 2 2 2 2 2 2 2 2 2 2 2 2 2 2 2 2 2 2 2 2 2 2 2 2 2 2 2 2 2 2 2 2 2 2 2 2 2 2 2 2 2 2 2 2 2 2 2 2 2 2 2 2 2 2 2 2 2 2 2 2 2 2 2 2 2 2 2 2
left_child=1 3 7 13 6 51 19 11 23 20 68 29 48 41 39 90 78 63 57 32 31 28 60 24 34 65 50 84 37 105 82 35 53 64 122 36 92 73 -15 40 -11 110 97 59 108 94 -31 87 -7 -23 -16 52 -4 -3 -55 -29 -46 69 -20 -35 93 74 -48 111 100 -13 -45 123 -9 -19 -33 -22 -51 -12 117 76 99 -41 -10 -42 -81 -60 -27 -63 -24 118 -87 -32 106 -25 -14 98 -6 -8 -36 96 -39 -26 107 -76 -34 -37 103 -50 -104 -2 -28 -57 -44 -77 -1 -18 -113 -94 -115 -116 -64 -49 119 -53 -43 -75 -5 -40 -103 -126 -73
right_child=2 4 5 8 9 12 22 10 16 14 21 25 15 38 26 -17 17 18 58 -21 71 49 27 89 42 30 88 55 -30 46 47 70 33 43 45 101 -38 95 67 77 79 120 44 66 56 -47 62 61 102 72 -52 85 -54 54 -56 91 -58 -59 81 -61 -62 83 116 -65 -66 -67 -68 -69 -70 -71 -72 126 -74 121 75 109 -78 -79 -80 80 -82 -83 -84 -85 -86 86 -88 -89 -90 -91 -92 -93 113 -95 -96 -97 -98 -99 -100 -101 -102 124 104 -105 -106 -107 -108 -109 -110 -111 -112 112 -114 114 115 -117 -118 -119 -120 -121 -122 -123 -124 -125 125 -127 -128
leaf_value=-104.95672576500982 54.992317988954746 -58.000783793131511 120.63254211840986 -80.071299438476558 -21.092718613364482 151.21780520811777 -41.007915871483938 104.73525644449087 -35.988206144820815 15.969448884992458 77.123497538663912 49.119559063827786 147.71257676344652 -102.9896198490123 25.741654096330919 209.05633394048456 -49.595160089881681 -44.36682157071855 -54.962192021826368 -52.559400894528352 5.4356081782317744 74.803707650991598 -50.481599489847824 -74.439101572111838 -52.679080834960942 50.390739019293534 52.356394042968752 -26.787776194187188 57.359468705313546 14.153716491699221 71.347209421793622 -9.6189395098326109 -12.119416736998287 -0.67534623759133483 -47.795302400134858 26.683004204432173 14.684203688147035 116.72346688729745 -91.446494450644849 38.822990002839468 6.3339754017916592 -90.631320815945273 -54.785872677534059 -0.43374486821038388 -53.011305908203127 -59.531743004754844 49.897635112089269 52.812390406653108 95.764165091007328 36.183473546296646 -17.554717318216959 92.048791486952041 93.257141836066012 -17.085191145236415 -1.2199719322811475 -34.705051185344828 -27.79229859511058 -59.313801684379577 -65.304305852501145 21.090928401190805 -14.755124047891982 70.393768819173189 37.841200622558596 -22.018203153268274 -15.421659863842777 16.188051266670225 -19.967025600160873 -121.39820881624297 91.176707602108237 -30.272509958248328 -37.459992815100627 38.660200010027211 57.50503885605756 71.075141043033241 62.489194972826091 64.732512318004268 56.307120654296881 19.60509497647358 -20.749061391604574 10.440690373252421 -18.884551443809119 -79.209354075679073 27.845154822500128 118.86839172363283 -77.074322190925272 137.75936813354494 99.78684570312501 107.36005950927733 60.836622004148346 -89.928895465874234 162.07323762439546 -41.641463418292183 -1.6674168371560238 -28.934658184995744 -71.294580698867861 84.349907939790057 82.39697423864294 -35.405111455144116 -71.79025504128974 78.465791787906582 -1.3195284615825065 6.295895420905226 161.4656446373981 130.44947440407495 129.97304493051715 93.024061867042832 27.430638226008014 -60.376629438556613 -63.053516391507927 50.654978148700202 -81.622735756321958 -49.527607400076732 -15.852709662395975 0.35313629173187622 -17.72579533852155 -5.7147090340487381 18.738204108751738 62.421308533026256 109.08553214439979 102.98770578983459 -78.079264647096068 52.255023253790227 -103.53957141694569 -117.31286218521444 9.2279549439748134 -31.871177891322546 18.965403185317765
leaf_weight=454 29 24 294 70 110 151 224 416 215 1340 343 57 156 386 105 89 103 1051 257 84 164 117 48 254 125 152 70 151 224 175 36 72 299 140 42 48 203 54 63 92 979 322 390 553 250 931 136 407 47 103 36 360 76 984 220 58 96 160 412 227 151 24 100 251 661 80 112 909 340 202 92 56 204 106 115 231 125 591 285 85 117 216 76 20 134 40 40 40 119 163 420 351 582 505 1116 884 54 185 57 343 494 805 46 264 113 27 59 61 1069 171 38 28 46 251 402 447 104 392 208 554 182 101 63 47 24 28 268
leaf_count=454 29 24 294 70 110 151 224 416 215 1340 343 57 156 386 105 89 103 1051 257 84 164 117 48 254 125 152 70 151 224 175 36 72 299 140 42 48 203 54 63 92 979 322 390 553 250 931 136 407 47 103 36 360 76 984 220 58 96 160 412 227 151 24 100 251 661 80 112 909 340 202 92 56 204 106 115 231 125 591 285 85 117 216 76 20 134 40 40 40 119 163 420 351 582 505 1116 884 54 185 57 343 494 805 46 264 113 27 59 61 1069 171 38 28 46 251 402 447 104 392 208 554 182 101 63 47 24 28 268
internal_value=1.51114e-07 -32.4912 86.6933 -67.7024 -3.67093 125.453 -18.4842 67.5477 -56.0518 7.81065 80.1804 54.4436 150.55 -106.425 15.5942 164.992 -45.498 -48.8355 -52.3824 -9.25213 -0.0627916 73.8089 -38.6356 -63.2134 -61.5519 59.7257 37.5162 -47.9071 77.8207 33.4541 61.6429 -2.72917 -8.27264 -4.92854 -67.1126 -1.45631 -4.96308 80.7931 -114.861 12.9327 10.4236 -94.5238 -55.7099 2.14818 -58.0009 -65.5798 29.1182 63.8903 135.085 57.099 14.6873 104.922 115.009 -15.0425 -14.1862 -41.9602 -46.0141 -44.0444 -65.6948 12.7877 -29.5748 62.7923 36.8205 -29.7917 -9.95135 29.8895 -3.72356 -119.358 98.6375 -42.0946 -25.2371 16.6786 50.3515 71.3911 62.0613 65.7397 70.5633 22.1937 -27.3019 4.13118 -6.54472 -70.0869 42.8755 92.4277 -70.0609 101.817 118.773 90.3013 50.4956 -80.4939 158.184 -46.3075 -7.18875 -32.6444 -70.4423 86.0059 99.5602 -42.3704 -55.6131 74.4542 -5.39162 6.2741 129.902 125.208 139.084 73.3291 40.9562 -47.8644 -60.8435 58.7443 -103.155 -40.8152 -28.5946 -6.27946 -8.71964 -11.4019 28.1024 57.5267 100.608 98.6792 -86.0986 61.8924 -91.1878 -102.498 5.13101 -12.9023 22.3694
internal_weight=31708 23064 8644 10381 12683 2858 5538 5786 7980 7145 2946 2840 1286 2401 3593 665 3226 2726 2298 3798 3552 2190 1740 4754 4337 2269 389 860 1766 571 2132 3064 3714 2486 2222 2900 1995 1542 1405 3204 2521 996 2115 1032 1805 2089 515 1904 621 424 141 1572 370 1228 1204 678 346 1413 885 367 880 1828 340 428 1454 137 665 1019 756 1253 164 488 307 550 1784 985 583 683 500 1181 202 628 228 44 182 1202 80 76 248 417 576 527 1792 729 1158 992 108 310 176 458 793 905 470 311 159 56 129 119 1459 402 492 177 74 1682 1100 849 204 799 1122 914 504 207 133 110 857 52 324
internal_count=31708 23064 8644 10381 12683 2858 5538 5786 7980 7145 2946 2840 1286 2401 3593 665 3226 2726 2298 3798 3552 2190 1740 4754 4337 2269 389 860 1766 571 2132 3064 3714 2486 2222 2900 1995 1542 1405 3204 2521 996 2115 1032 1805 2089 515 1904 621 424 141 1572 370 1228 1204 678 346 1413 885 367 880 1828 340 428 1454 137 665 1019 756 1253 164 488 307 550 1784 985 583 683 500 1181 202 628 228 44 182 1202 80 76 248 417 576 527 1792 729 1158 992 108 310 176 458 793 905 470 311 159 56 129 119 1459 402 492 177 74 1682 1100 849 204 799 1122 914 504 207 133 110 857 52 324
is_linear=0
shrinkage=0.05


Tree=7
num_leaves=128
num_cat=0
split_feature=37 35 0 35 33 0 0 4 4 2 78 33 85 0 79 79 47 0 47 14 1 44 79 0 62 0 0 90 78 78 70 2 0 40 0 0 59 46 77 90 44 46 45 94 79 0 0 78 1 46 76 73 42 42 1 78 1 1 91 1 94 61 43 19 1 40 1 1 39 78 43 0 42 90 62 1 46 46 62 1 42 85 60 1 1 0 1 41 1 90 1 15 62 56 46 0 1 42 1 1 1 1 78 1 0 1 39 90 1 59 0 1 91 40 76 1 45 40 38 1 74 94 1 39 1 0 69
split_gain=3.22429e+10 8.41912e+09 2.33769e+09 1.69066e+09 7.73067e+08 5.31621e+08 3.77361e+08 3.55995e+08 2.17737e+08 1.57982e+08 1.25068e+08 1.21719e+08 1.04231e+08 8.70232e+07 7.72825e+07 7.07248e+07 6.64708e+07 9.20815e+07 6.01557e+07 5.76784e+07 5.43991e+07 5.29997e+07 5.25264e+07 4.92746e+07 5.08614e+07 4.68557e+07 4.42527e+07 3.92751e+07 3.88765e+07 3.87728e+07 3.24617e+07 2.99433e+07 3.23238e+07 2.9601e+07 2.95381e+07 2.98923e+07 3.35636e+07 2.88183e+07 2.72825e+07 2.72264e+07 2.70772e+07 2.64554e+07 2.5632e+07 3.90907e+07 2.34565e+07 2.21778e+07 2.17853e+07 2.00947e+07 1.86775e+07 1.85005e+07 1.77744e+07 1.73612e+07 1.63376e+07 1.63073e+07 1.67619e+07 1.57973e+07 1.57865e+07 1.50603e+07 1.4587e+07 1.43879e+07 2.0806e+07 1.45778e+07 1.42547e+07 1.3945e+07 1.33357e+07 1.67752e+07 1.3964e+07 1.32401e+07 1.30754e+07 1.2948e+07 1.29349e+07 1.25498e+07 1.24239e+07 1.24161e+07 1.2345e+07 1.22385e+07 1.21552e+07 1.20304e+07 1.15119e+07 1.14198e+07 1.08635e+07 1.08284e+07 1.08112e+07 1.03628e+07 1.02741e+07 1.01815e+07 1.00307e+07 9.9648e+06 9.38708e+06 9.29721e+06 9.24544e+06 1.32887e+07 9.17967e+06 9.11036e+06 9.84386e+06 8.895e+06 1.09976e+07 8.79657e+06 8.76427e+06 8.64344e+06 8.1461e+06 8.07336e+06 8.06903e+06 8.04168e+06 8.03799e+06 1.15912e+07 7.95809e+06 7.81731e+06 7.81062e+06 7.77772e+06 7.77524e+06 9.89312e+06 7.65223e+06 7.4363e+06 7.2878e+06 1.47953e+07 7.19437e+06 7.15604e+06 7.07131e+06 6.98176e+06 6.87046e+06 6.85593e+06 7.12531e+06 6.78164e+06 6.71994e+06 6.71663e+06 6.71558e+06
threshold=100231.72731750039 98524.916440924906 1332.5000000000002 97304.047521018991 99250.539018679367 1562.5000000000002 1018.5000000000001 101389.50000000001 98240.500000000015 99751.000000000015 -0.026315028410211983 100518.15074496446 1.0022443086712893 1680.5000000000002 -0.0022791266581653588 -0.020818669065394327 98189.063297322878 1166.5000000000002 99943.154278639267 104110.50000000001 30.500000000000004 101592.99250000001 0.027772392260551022 1520.5000000000002 299.41375000000011 521.50000000000011 1000.5000000000001 140.10379904226218 -0.013224882414420427 0.02138331272029011 -0.093371952926803864 98911.500000000015 672.50000000000011 97377.130000000019 1006.5000000000001 899.50000000000011 327.1628271823792 99082.836250000008 -0.0009496027669480834 167.20228789697617 97038.095000000016 98017.586250000008 100004.26870683221 827034.00000000012 -0.0045724260469866855 1289.5000000000002 1476.5000000000002 -0.033790557519523104 25.500000000000004 99348.862500000017 -0.01172183077856096 -0.043564397326703218 102358.25000000001 98133.99500000001 40.500000000000007 0.0184785429304412 41.500000000000007 15.500000000000002 146.7965641270421 28.500000000000004 1304027.5000000002 318.51305884107677 99110.548103138703 101163.00000000001 12.500000000000002 99617.700000000012 41.500000000000007 23.500000000000004 96968.691762275135 0.007905929143769903 103367.74682780584 1123.5000000000002 100964.60500000003 163.94067182138247 311.74375000000003 18.500000000000004 97481.303750000006 98435.910000000018 309.16625000000005 30.500000000000004 99479.22500000002 0.99757090055734221 337.80000000000007 13.500000000000002 26.500000000000004 854.50000000000011 17.500000000000004 98351.412717938903 25.500000000000004 165.00850317003287 31.500000000000004 102039.00000000001 298.04125000000005 328.30000000000001 101874.22875000002 1552.5000000000002 27.500000000000004 99026.760000000024 24.500000000000004 12.500000000000002 9.5000000000000018 30.500000000000004 -0.012110151020915385 44.500000000000007 764.50000000000011 41.500000000000007 100745.35721109789 140.10379904226218 25.500000000000004 315.92179691461553 989.50000000000011 31.500000000000004 -5.3563531562904236 100033.16000000002 0.0034186428525286032 26.500000000000004 103097.40749159468 97737.680000000008 98403.320000000022 35.500000000000007 -0.022424002670250163 1536062.5000000002 9.5000000000000018 98030.675369639444 23.500000000000004 769.50000000000011 -0.054210581375300694
decision_type=2 2 2 2 2 2 2 2 2 2 2 2 2 2 2 2 2 2 2 2 2 2 2 2 2 2 2 2 2 2 2 2 2 2 2 2 2 2 2 2 2 2 2 2 2 2 2 2 2 2 2 2 2 2 2 2 2 2 2 2 2 2 2 2 2 2 2 2 2 2 2 2 2 2 2 2 2 2 2 2 2 2 2 2 2 2 2 2 2 2 2 2 2 2 2 2 2 2 2 2 2 2 2 2 2 2 2 2 2 2 2 2 2 2 2 2 2 2 2 2 2 2 2 2 2 2 2
left_child=1 3 7 13 6 50 22 11 23 18 73 28 81 41 42 84 67 55 34 93 58 29 31 24 33 63 49 92 -2 38 89 53 62 -5 35 36 69 86 82 78 -15 76 43 -11 108 102 117 124 -23 -16 52 -29 126 -3 -55 74 -48 118 107 112 61 72 88 -13 -45 -66 -67 121 -42 -6 -21 -20 -61 -9 77 -70 -1 -18 99 -73 97 90 -12 -36 -10 -50 -34 -59 -33 -27 91 -7 -22 -14 -95 -52 -97 -39 -25 -30 -82 -28 -35 -53 105 -40 -63 -8 -26 -90 -37 -112 -49 -44 115 -96 -83 -46 123 120 -64 -17 -123 -19 -32 -79 -4
right_child=2 4 5 8 9 12 20 10 15 14 21 25 19 40 26 16 17 57 71 70 27 48 -24 98 44 30 101 51 39 -31 47 32 37 45 83 110 -38 80 104 -41 68 -43 113 64 46 -47 56 59 85 -51 95 103 -54 54 -56 -57 -58 87 -60 60 -62 106 119 -65 65 66 -68 -69 75 -71 -72 79 -74 -75 -76 -77 -78 125 -80 -81 100 116 -84 -85 -86 -87 -88 -89 109 -91 -92 -93 -94 94 114 96 -98 -99 -100 -101 -102 -103 -104 -105 -106 -107 -108 -109 -110 -111 111 -113 -114 -115 -116 -117 -118 -119 -120 -121 -122 122 -124 -125 -126 -127 -128
leaf_value=-103.63076559399802 12.530217759239484 -55.100744628906256 102.45027547696742 -86.62845651726974 -6.4021306100334847 88.229267035590283 -38.957520306110382 99.498493884159984 -34.188796521563866 14.023632116336437 73.267321528220677 17.605800222843254 140.75069231305804 -97.840135849078081 24.481976649191527 -47.115402547595572 -30.762394696015576 -49.056736083984376 12.910723695194021 155.79529296875 -89.986032822552858 67.008659942805423 -49.917070710031616 -69.341154796672328 -49.628171986072992 47.871202629490909 40.093031000686906 -25.448387156101255 34.450885925292972 54.491496086120605 68.678159332275399 -10.654290675876117 1.3025048664637975 -45.405537923177086 -2.0879589801610901 7.6161709129067141 13.267386893726334 -5.0894719380948503 105.21117690236946 22.017714811052599 -116.59379313572703 -76.401229472674402 24.161463782943301 12.662023802762906 -51.94719167741836 -56.555153660922763 -50.346175159391812 50.378277047694418 50.964343571541882 -16.676980845133464 95.577912872912847 -38.131253990760221 88.594284459164271 -17.653719384087591 -5.1440992749745575 -59.860762936728342 -26.500504523208463 -60.442743223202164 -14.203458589042715 66.419365960524487 100.16676619680305 91.252395339239214 -5.1657535438074689 51.98071743277616 10.66757432408631 -0.51216443579966631 -18.380147930483023 -20.917293133678665 -87.146631091154077 -35.161500053405767 200.92653031782672 15.555253449608299 52.001989150373902 86.617871111701518 -23.411944068908692 -111.00907821655274 -90.04538527960527 -58.805379002530813 41.867410680522092 56.53556724997128 -16.222598217808923 138.8462113103256 58.797759449539562 -30.603127319832158 -19.71160859816953 26.803661755153112 21.079516777355003 -73.043467732348475 -3.210968823978682 26.452897413153398 130.36870835248163 121.44570768586883 -61.175658313648128 142.43519229888918 151.40812924033716 91.271238080193029 128.77248561693276 -24.27480408668518 -83.840585014529353 71.606620746188696 7.5202298784677968 58.588752358646722 -67.729852171867137 -50.539794872297705 80.132412253677586 69.338400459289559 67.954830159081354 -27.717714140319824 -32.495023024225809 13.352402820975284 8.8145558076746333 -29.61608350349195 59.823076194961587 14.915012661687928 153.12669051732775 187.93050130208334 123.85095917672822 -59.693263745878724 -42.777202933175225 -20.482328320460187 -19.32613117550359 -47.051228005545482 -15.060073819367782 -70.695959036690851 102.83450334337022 -42.845646153613444 119.30068946694428
leaf_weight=252 187 24 82 133 1813 45 224 416 215 1531 343 94 182 386 113 103 208 75 425 20 34 171 76 212 111 152 118 151 20 224 24 396 91 42 43 802 229 236 76 140 772 269 428 169 411 931 244 435 197 36 1122 247 76 802 402 112 97 322 153 253 38 42 244 43 160 254 192 251 79 40 77 34 365 340 100 168 475 71 184 34 43 203 207 123 285 56 217 306 403 76 102 91 148 128 57 34 46 80 205 72 226 118 1116 277 884 32 288 500 166 86 34 33 423 442 195 54 132 1086 112 288 132 28 46 70 36 922 212
leaf_count=252 187 24 82 133 1813 45 224 416 215 1531 343 94 182 386 113 103 208 75 425 20 34 171 76 212 111 152 118 151 20 224 24 396 91 42 43 802 229 236 76 140 772 269 428 169 411 931 244 435 197 36 1122 247 76 802 402 112 97 322 153 253 38 42 244 43 160 254 192 251 79 40 77 34 365 340 100 168 475 71 184 34 43 203 207 123 285 56 217 306 403 76 102 91 148 128 57 34 46 80 205 72 226 118 1116 277 884 32 288 500 166 86 34 33 423 442 195 54 132 1086 112 288 132 28 46 70 36 922 212
internal_value=1.57629e-07 -30.9454 82.1502 -64.3173 -3.56155 119.181 -17.7005 63.9595 -53.2492 7.24324 76.1713 51.433 143.023 -101.103 14.7155 -43.2231 -46.3937 -49.7632 -0.127584 155.784 -36.9854 70.1184 -8.77359 -60.0527 -58.4743 56.7394 35.8715 -45.9442 31.4659 73.9297 58.5608 -7.92157 -4.71889 -63.757 -2.69449 -1.54007 -4.79121 2.85743 76.7534 39.9778 -109.118 -89.7976 12.1509 9.39193 -52.9244 -62.3008 -54.9686 60.6958 54.244 14.5375 99.6762 -40.3861 109.259 -14.2904 -13.4769 -41.8422 -43.5631 -62.41 -28.2309 59.7692 63.8892 62.435 -9.08665 28.395 0.242085 -3.22156 -8.20421 -28.3022 -113.39 -7.02295 191.621 16.1017 57.9042 93.7056 -40.291 -103.377 -94.7545 -41.6965 49.088 36.0454 -3.66 127.144 67.8215 -23.2167 -25.9368 45.6165 15.2363 -66.5826 -4.93199 40.7318 118.989 110.455 -66.5578 150.14 154.078 96.7264 112.834 -9.94652 -76.4692 63.5293 3.72491 49.3409 -66.9202 -44.6907 81.7056 94.5822 70.92 -31.1952 -39.3607 -0.297983 6.24918 -10.114 55.0346 19.4638 158.948 169.176 132.938 -57.5666 -52.2141 -14.6241 -10.1369 -38.7745 -27.1648 -59.5033 89.172 -43.9868 114.601
internal_weight=31708 23032 8676 10381 12651 2858 5480 5818 7980 7171 2946 2872 1286 2401 3561 3226 2726 2298 3610 713 1734 2190 3746 4754 4337 2269 385 857 603 1766 2132 3670 2442 2222 3117 2951 2082 893 1542 416 1405 996 3176 2306 2115 2089 1838 1904 424 149 1572 675 370 1228 1204 1413 341 885 877 1844 986 948 1549 137 775 606 446 428 1019 1853 97 493 618 756 1301 247 727 1201 276 68 585 573 550 166 500 253 308 628 885 228 238 136 182 616 434 1202 80 316 417 92 269 236 1158 524 992 108 330 724 277 489 869 67 858 870 306 111 335 1497 257 664 376 177 74 145 60 993 294
internal_count=31708 23032 8676 10381 12651 2858 5480 5818 7980 7171 2946 2872 1286 2401 3561 3226 2726 2298 3610 713 1734 2190 3746 4754 4337 2269 385 857 603 1766 2132 3670 2442 2222 3117 2951 2082 893 1542 416 1405 996 3176 2306 2115 2089 1838 1904 424 149 1572 675 370 1228 1204 1413 341 885 877 1844 986 948 1549 137 775 606 446 428 1019 1853 97 493 618 756 1301 247 727 1201 276 68 585 573 550 166 500 253 308 628 885 228 238 136 182 616 434 1202 80 316 417 92 269 236 1158 524 992 108 330 724 277 489 869 67 858 870 306 111 335 1497 257 664 376 177 74 145 60 993 294
is_linear=0
shrinkage=0.05


Tree=8
num_leaves=128
num_cat=0
split_feature=35 4 0 35 2 0 0 35 0 33 79 92 78 44 0 78 63 0 42 40 79 44 70 41 44 0 72 1 79 62 47 78 85 94 0 60 78 94 0 44 46 47 37 43 43 72 1 78 0 0 74 0 1 2 76 1 0 42 0 90 90 90 1 1 46 47 62 94 43 46 46 46 1 90 46 90 1 46 44 1 1 1 1 62 0 0 17 42 1 0 0 89 0 1 6 60 0 0 1 1 1 46 1 62 1 1 17 40 1 62 0 78 91 46 42 70 42 69 40 0 46 1 74 38 1 69 1
split_gain=2.91024e+10 7.63216e+09 2.08929e+09 1.6571e+09 5.44676e+08 4.79788e+08 3.16802e+08 3.12346e+08 2.90305e+08 1.17358e+08 1.04731e+08 9.46009e+07 9.1626e+07 8.81593e+07 7.85384e+07 6.91456e+07 6.79194e+07 6.77607e+07 6.49984e+07 6.00934e+07 4.92475e+07 4.8055e+07 4.66926e+07 4.53814e+07 4.15921e+07 3.93881e+07 5.10669e+07 3.89879e+07 3.3068e+07 3.27372e+07 3.20257e+07 3.07732e+07 3.02645e+07 2.93071e+07 2.8466e+07 2.76766e+07 2.50335e+07 2.5019e+07 2.45754e+07 2.44372e+07 2.39018e+07 2.2926e+07 2.24981e+07 2.13911e+07 2.1167e+07 2.04547e+07 1.94475e+07 1.93379e+07 1.91283e+07 1.86418e+07 1.75989e+07 1.72451e+07 1.62694e+07 1.60643e+07 1.60414e+07 1.56041e+07 1.53801e+07 1.47447e+07 1.38127e+07 1.31577e+07 1.29433e+07 1.29048e+07 1.24799e+07 1.2402e+07 1.22612e+07 1.20797e+07 1.19128e+07 1.17983e+07 1.15514e+07 1.81346e+07 1.0882e+07 1.05528e+07 1.05134e+07 1.01991e+07 1.0143e+07 1.00169e+07 1.00133e+07 9.67458e+06 9.55016e+06 9.5046e+06 9.42932e+06 9.30594e+06 9.134e+06 8.33188e+06 8.99972e+06 8.02774e+06 1.04106e+07 7.8779e+06 7.85331e+06 1.46867e+07 7.84111e+06 7.68274e+06 7.65007e+06 7.49067e+06 7.30397e+06 7.20875e+06 7.17484e+06 7.0838e+06 1.07485e+07 6.98732e+06 6.97793e+06 6.95784e+06 7.32327e+06 6.95243e+06 8.0834e+06 6.86378e+06 1.58898e+07 1.15302e+07 6.84152e+06 6.82873e+06 6.77984e+06 6.77865e+06 6.62403e+06 9.60421e+06 6.53321e+06 6.52437e+06 6.34008e+06 6.31576e+06 6.25576e+06 6.2412e+06 1.32713e+07 8.82343e+06 1.24358e+07 8.20474e+06 6.12773e+06 6.06081e+06 6.04999e+06
