tree
version=v4
num_class=1
num_tree_per_iteration=1
label_index=0
max_feature_idx=100
objective=quantile
feature_names=index forecast_horizon open close high low mid body range body_pct upper_wick lower_wick upper_wick_pct lower_wick_pct mid_lag_1 mid_lag_2 mid_lag_3 mid_lag_5 mid_lag_7 mid_lag_10 range_lag_1 range_lag_2 range_lag_3 range_lag_5 range_lag_7 range_lag_10 body_pct_lag_1 body_pct_lag_2 body_pct_lag_3 body_pct_lag_5 body_pct_lag_7 body_pct_lag_10 close_sma_3 close_ema_3 close_sma_6 close_ema_6 close_sma_12 close_ema_12 close_sma_25 close_ema_25 close_sma_50 close_ema_50 close_sma_100 close_ema_100 close_sma_200 close_ema_200 close_sma_400 close_ema_400 range_sma_3 range_ema_3 range_sma_6 range_ema_6 range_sma_12 range_ema_12 range_sma_25 range_ema_25 range_sma_50 range_ema_50 range_sma_100 range_ema_100 range_sma_200 range_ema_200 range_sma_400 range_ema_400 body_pct_sma_3 body_pct_ema_3 body_pct_sma_6 body_pct_ema_6 body_pct_sma_12 body_pct_ema_12 body_pct_sma_25 body_pct_ema_25 body_pct_sma_50 body_pct_ema_50 body_pct_sma_100 body_pct_ema_100 body_pct_sma_200 body_pct_ema_200 body_pct_sma_400 body_pct_ema_400 close_div_ema_3 close_div_ema_6 close_div_ema_12 close_div_ema_25 close_div_ema_50 close_div_ema_100 close_div_ema_200 close_div_ema_400 range_std_12 range_std_25 range_std_50 macd macd_signal macd_hist time curr_CARD curr_GARR curr_HEST curr_JUMP curr_LOGN curr_SIMP
feature_infos=[399:1799] [1:60] [90158:108067] [90109:108013] [90296:108514] [90068:107909] [90187:108053] [-360:381] [35:1433] [-0.89772726762654964:0.89444443947530872] [0:873] [0:792] [0:0.97979797732374252] [0:0.97267759297082623] [90187:108053] [90187:108053] [90187:108053] [90187:108053] [90187:108053] [90187:108053] [35:1433] [35:1433] [35:1433] [35:1433] [35:1433] [35:1433] [-0.89772726762654964:0.89444443947530872] [-0.89772726762654964:0.89444443947530872] [-0.89772726762654964:0.89444443947530872] [-0.89772726762654964:0.89444443947530872] [-0.89772726762654964:0.89444443947530872] [-0.89772726762654964:0.89444443947530872] [90195.333333333328:107935.66666666667] [90218.336273055756:107917.27034292661] [90213.666666666672:107830] [90270.530331617818:107849.30265143768] [90372.5:107780.58333333333] [90392.322250756741:107785.03379566457] [90588.919999999998:107729.56] [90577.904729346395:107691.03734948636] [90805.880000000005:107548.12] [90781.285816042262:107545.58078503924] [90963.169999999998:107352.89999999999] [91036.37785694834:107255.39105166103] [91349.104999999996:106908.06] [91394.878016699731:106569.30100173835] [91704.277499999997:106116.905] [92221.516748749564:105304.8184387175] [103:722.66666666666663] [107.11701846385563:856.77756073738249] [135.66666666666666:553.66666666666663] [150.34483883429033:627.75756325813154] [179.25:480.66666666666669] [193.01572606005266:500.12268423634606] [213.44:443.51999999999998] [224.02312861933564:430.51473596819892] [233.86000000000001:384.42000000000002] [234.59671129468961:394.72161979233402] [254.86000000000001:365.58999999999997] [248.68689574623946:366.04241105584379] [268.98000000000002:351.81] [261.97214875235892:350.71135353857511] [275.26499999999999:341.50999999999999] [272.42817329132805:355.9926078383188] [-0.62031783289750442:0.56889043156948182] [-0.59510187843060325:0.58692956643453931] [-0.47957647100532319:0.42391054823785179] [-0.42304797012823558:0.38513020754156996] [-0.33989605381661897:0.31326971358492933] [-0.34041109745204501:0.30701337075586999] [-0.25761136982881627:0.2545033184517545] [-0.24219220718236434:0.21999287432627099] [-0.18744834940234825:0.14236683054753907] [-0.16697101444826182:0.13457075025500406] [-0.10738522272240106:0.10130264208042161] [-0.12108716684718468:0.097806479105465055] [-0.057572387888659017:0.063161097287275828] [-0.080785600828466114:0.067844499033894667] [-0.04670960580050295:0.034771494490001276] [-0.096848924482661691:0.047857373777965437] [0.99097922138206607:1.0079746531797296] [0.9864581682607515:1.0112200243204899] [0.98294327232188983:1.0149370976830694] [0.98084744963178894:1.0187311606235587] [0.98094392741263581:1.0227096478275441] [0.97816341961872821:1.0266672227745548] [0.97019897911235409:1.0360392208808002] [0.96045841462603143:1.044075393431011] [59.639574008192135:346.35093430936485] [83.253128069360088:284.60139962176339] [106.96008219739518:237.81584798120662] [-674.14611481442989:674.25812526009395] [-590.76249324114974:557.07977099177708] [-271.04953753140705:238.06614354212161] [400030:1800112] none none none none none none
tree_sizes=7433 7785 9408 10732 10808 10824 10851 10856 10861 10950 10894 10922 10943 10950 10950 10971 10971 10963 10952 10976 11009 11014 11032 11053 11011 11018 11021 11074 11036 11036 11051 11071 11139 11122 11102 11091 11129 11176 11172 11139 11172 11164 11159 11170 11120 11107 11130 11148 11136 11152 11130 11172 11139 11112 11145 11153 11124 11203 11113 11162 11164 11178 11145 11074 11074 11125 11180 11155 11100 11099 11139 11157 11126 11153 11085 11092 11126 11055 11071 11188 11076 11040 11084 11165 11184 11096 11135 11070 11161 11105 11080 11167 11214 11127 11126 11021 11217 11239 11121 11199 11091 11075 11041 11148 11222 11187 11036 11100 11041 11179 11103 11192 11114 11161 11092 11097 11201 11161 11076 11179 11122 11060 11132 11076 10988 11205 11166 11125 11150 11106 11150 11092 11047 11015 11140 11169 11025 11144 11163 10994 11171 11113 10936 11134 11174 11178 11203 11094 11161 11106 11068 11040 11087 11110 11179 11112 11112 11120 11099 11069 11108 11122 11086 11096 11057 11129 11086 11067 11088 11050 11083 11107 11152 11058 11126 11217 11048 10992 11067 11159 11198 11160 11155 11046 11059 11070 11006 11180 11146 11113 10961 11052 11087 11095 11036 11015 11025 11155

Tree=0
num_leaves=99
num_cat=0
split_feature=35 0 39 79 1 61 92 62 2 1 40 94 59 90 1 39 72 40 1 2 39 1 1 44 1 17 1 75 87 17 1 91 92 85 42 74 42 42 1 37 92 1 84 32 1 86 86 36 1 1 72 43 19 45 62 1 1 93 64 68 47 43 1 1 34 0 1 53 1 62 32 70 1 1 54 19 1 1 1 94 1 1 1 1 1 8 0 0 1 67 1 88 38 91 1 1 1 47
split_gain=6873.94 105.764 65.6049 60.5353 49.0716 31.0893 27.6802 18.1254 16.5239 33.7973 16.322 22.3965 9.94078 9.59772 9.31775 14.5257 9.09168 6.0224 8.46145 9.15652 5.97991 4.73131 4.66667 4.66174 4.87742 4.55172 6.90196 4.54372 4.43975 4.34577 3.88658 3.53425 2.67831 2.60093 2.21911 2.20909 1.81325 2.43902 4.78101 11.9609 3.33223 3.59763 18.0891 6.48 2.8494 22.1445 13.2258 4.14326 3.66266 3.58539 3.56045 2.92881 2.71401 2.63896 1.79422 2.19182 3.25389 2.75134 1.70927 1.62476 1.57309 2.06818 2.97234 1.33674 6.9989 1.1687 1.05861 1.16802 0.851017 6.22234 0.794589 1.48571 0.761269 0.736386 0.717125 0.672269 12.8571 7.2 0.668317 2.04503 1.31688 0.662047 1.07333 0.595238 0.564706 0.452174 0.420297 0.345349 0.338629 0.188327 0.25 0.187461 0.162683 1.47123 0.160396 0.144444 0.0432886 0.0411504
threshold=102020.46698456984 1425.5000000000002 101059.05126178938 -0.0039221120024899789 33.500000000000007 336.73059206621087 86.394086639087035 330.00625000000008 102473.50000000001 18.500000000000004 102802.49000000001 1501091.0000000002 329.00970770791167 152.3279826022858 48.500000000000007 101758.57061852638 -0.026837128604468422 103161.97000000002 46.500000000000007 103222.50000000001 102601.55444182346 6.5000000000000009 16.500000000000004 103094.01250000003 26.500000000000004 103346.50000000001 22.500000000000004 -0.00026482677994297963 0.9801897293497791 102417.00000000001 21.500000000000004 187.2339748252198 -5.534071661458154 0.99768511720108066 103625.39500000002 0.010342768134118687 103064.29500000001 103262.38500000002 46.500000000000007 102713.68124395875 -143.44487566161311 10.500000000000002 0.99779599675719965 102718.33333333336 37.500000000000007 0.99005878307562389 0.99050510282680604 103187.08333333336 32.500000000000007 32.500000000000007 -0.029733244760475678 103401.10438167657 104150.00000000001 104609.42176081304 333.79625000000004 9.5000000000000018 25.500000000000004 5.426906300652413 -0.4146212284001291 -0.020299766539239674 103819.96245274975 103338.9861315906 25.500000000000004 42.500000000000007 104070.00000000001 1709.5000000000002 4.5000000000000009 314.9072976723333 30.500000000000004 332.8562500000001 102595.16666666669 0.015496873020993535 41.500000000000007 58.500000000000007 317.38000000000005 103213.00000000001 19.500000000000004 19.500000000000004 10.500000000000002 1746022.5000000002 30.500000000000004 44.500000000000007 28.500000000000004 40.500000000000007 38.500000000000007 418.50000000000006 1686.5000000000002 1674.5000000000002 25.500000000000004 -0.29394420288315931 28.500000000000004 102.2304289634982 101089.00000000001 155.61003611857453 52.500000000000007 24.500000000000004 54.500000000000007 104419.18900906642
decision_type=2 2 2 2 2 2 2 2 2 2 2 2 2 2 2 2 2 2 2 2 2 2 2 2 2 2 2 2 2 2 2 2 2 2 2 2 2 2 2 2 2 2 2 2 2 2 2 2 2 2 2 2 2 2 2 2 2 2 2 2 2 2 2 2 2 2 2 2 2 2 2 2 2 2 2 2 2 2 2 2 2 2 2 2 2 2 2 2 2 2 2 2 2 2 2 2 2 2
left_child=2 8 92 10 12 7 14 21 9 29 58 73 91 17 16 -16 -6 86 25 -20 94 -5 -14 33 -25 26 -19 -7 95 -2 -29 36 34 -9 -23 -17 54 38 40 -40 65 42 -42 -43 46 97 49 -47 51 50 66 -48 53 63 55 -30 -57 59 -3 72 -45 68 -63 -49 85 -38 -39 -68 69 -62 71 -10 -58 -12 88 76 -69 -77 -76 81 -81 82 -80 -59 -33 -65 -13 -18 -35 90 -60 -4 -1 -94 -15 -22 -11 -46
right_child=1 3 4 5 6 27 -8 23 70 96 11 13 22 20 15 35 87 18 19 -21 28 32 -24 24 -26 -27 -28 30 31 -31 -32 84 -34 74 -36 -37 37 44 39 -41 41 43 -44 60 45 47 48 52 -50 -51 -52 -53 -54 -55 -56 56 57 83 89 -61 61 62 -64 64 -66 -67 67 75 -70 -71 -72 -73 -74 -75 78 77 -78 -79 79 80 -82 -83 -84 -85 -86 -87 -88 -89 -90 -91 -92 -93 93 -95 -96 -97 -98 -99
leaf_value=102121.39999999999 102439 102446.77499999999 102415.14999999999 102441.45 102447.89999999999 102477.55 102488.3 102418.05 102488.3 102488.3 102505.60000000001 102481.55 102433 102481.55 102488.3 102434.14999999999 102439 102428.5 102486.3 102423.10000000001 102455.35000000001 102421.45 102447.89999999999 102421.5 102454.60000000001 102465.89999999999 102481.55 102421.5 102464.10000000001 102465.325 102441.75 102465.89999999999 102433.875 102452.8 102435.5 102426.60000000001 102466.35000000001 102475.35000000001 102421.5 102461.5 102423.10000000001 102457.14999999999 102488.14999999999 102421.5 102486.3 102441.75 102457.14999999999 102475.35000000001 102475.35000000001 102481.55 102481.55 102477.64999999999 102455.35000000001 102428.5 102478.39999999999 102488.14999999999 102488.14999999999 102423.10000000001 102457.14999999999 102461.5 102461.5 102466.35000000001 102423.10000000001 102428.5 102455.35000000001 102441.75 102455.35000000001 102428.5 102457.14999999999 102423.10000000001 102560.45 102443.45 102461.5 102505.60000000001 102435.3 102475.35000000001 102455.35000000001 102428.5 102435.3 102453.8 102451.8 102434.75 102453.8 102466.35000000001 102502.05 102428.5 102463.925 102435.3 102451.8 102478.39999999999 102478.39999999999 102415.14999999999 102386.45 102386.45 102478.39999999999 102486.3 102485.89999999999 102481.55
leaf_weight=14449 51 20 20 21 25 123 114 36 52 129 606 283 21 81 48 20 66 34 20 26 20 119 21 20 42 108 32 20 36 20 22 48 36 26 24 24 21 26 30 86 33 20 65 37 20 20 20 24 38 24 20 216 32 29 34 55 20 21 20 30 23 27 25 26 22 25 20 36 33 35 11748 28 27 21 25 40 20 40 25 20 22 21 21 21 20 20 20 20 20 726 25 299 196 22 20 52 20 93
leaf_count=14449 51 20 20 21 25 123 114 36 52 129 606 283 21 81 48 20 66 34 20 26 20 119 21 20 42 108 32 20 36 20 22 48 36 26 24 24 21 26 30 86 33 20 65 37 20 20 20 24 38 24 20 216 32 29 34 55 20 21 20 30 23 27 25 26 22 25 20 36 33 35 11748 28 27 21 25 40 20 40 25 20 22 21 21 21 20 20 20 20 20 726 25 299 196 22 20 52 20 93
internal_value=102439 102439 102439 102439 102439 102439 102439 102439 102439 102439 102439 102439 102439 102439 102439 102439 102439 102439 102439 102439 102439 102439 102439 102439 102439 102439 102439 102439 102439 102439 102439 102439 102439 102439 102439 102439 102439 102439 102439 102439 102439 102439 102439 102439 102439 102439 102439 102439 102439 102439 102439 102439 102439 102439 102439 102439 102439 102439 102439 102439 102439 102439 102439 102439 102439 102439 102439 102439 102439 102439 102439 102439 102439 102439 102439 102439 102439 102439 102439 102439 102439 102439 102439 102439 102439 102439 102439 102439 102439 102439 102439 102439 102439 102439 102439 102439 102439 102439
internal_weight=31708 16363 15345 4315 678 643 317 478 12048 220 3672 2881 361 2254 203 92 111 523 220 46 1731 200 42 278 62 174 66 165 1630 71 42 1558 179 216 143 44 1490 1246 460 116 344 298 98 200 786 286 500 173 274 226 202 236 153 121 244 210 174 119 791 77 180 143 52 92 68 46 182 156 91 58 11828 80 47 627 180 136 56 80 134 109 42 67 46 42 68 46 303 86 46 771 45 319 14667 218 101 72 149 113
internal_count=31708 16363 15345 4315 678 643 317 478 12048 220 3672 2881 361 2254 203 92 111 523 220 46 1731 200 42 278 62 174 66 165 1630 71 42 1558 179 216 143 44 1490 1246 460 116 344 298 98 200 786 286 500 173 274 226 202 236 153 121 244 210 174 119 791 77 180 143 52 92 68 46 182 156 91 58 11828 80 47 627 180 136 56 80 134 109 42 67 46 42 68 46 303 86 46 771 45 319 14667 218 101 72 149 113
is_linear=0
shrinkage=1


Tree=1
num_leaves=94
num_cat=0
split_feature=33 0 38 78 1 2 52 79 1 43 78 1 73 58 72 94 40 1 94 0 0 94 38 1 34 1 90 1 40 76 79 1 58 44 47 1 42 42 42 1 44 47 42 90 79 1 1 44 1 87 1 1 89 1 91 78 17 1 1 42 0 40 49 18 38 1 1 1 70 66 66 1 1 93 47 25 1 8 0 76 90 7 0 1 4 1 18 1 68 1 1 68 16
split_gain=6778.58 110.704 86.5293 60.3169 55.6361 34.9307 25.91 24.0405 25.6252 33.3162 22.0789 20.7766 20.6476 15.0139 14.7334 13.7216 17.5734 25.5691 12.0669 7.03286 6.71606 6.52123 6.14681 14.2589 5.31463 4.71687 4.23051 4.14459 11.8788 3.9152 4.92308 3.71812 7.38196 3.66903 3.51117 6.78272 9.71293 4.5856 3.28125 3.25466 3.25003 3.13237 3.09878 2.74321 2.71191 18.5598 5.67564 5.96514 2.44619 2.89274 6.22273 2.70752 2.43331 2.27165 2.08421 2.03795 2.3898 3.23929 2.00307 2.26745 1.77778 1.70154 1.48011 1.3475 1.27173 3.82401 3.39523 1.23077 3.56076 1.38685 1.21207 1.11453 1.40153 2.67442 1.07014 1.0613 0.996574 0.716667 0.696104 0.389002 0.364498 0.254348 0.232633 0.564706 0.168504 0.165517 1.01053 1.15469 5.10145 0.0324561 0.0194805 0.018896 0.180769
threshold=101954.45494959377 1619.5000000000002 101089.00000000001 0.0053206349974399105 46.500000000000007 103093.50000000001 256.37500000000006 0.0064106682288178956 18.500000000000004 101227.23786544848 0.011374845510124748 22.500000000000004 -0.048380889115951071 327.36500000000007 -0.040502236609050446 1501091.0000000002 103494.49000000001 28.500000000000004 1543090.5000000002 1739.5000000000002 1693.5000000000002 1783557.0000000002 103472.76000000002 30.500000000000004 102913.91666666667 16.500000000000004 165.45443475564414 17.500000000000004 102836.67000000001 0.012140276276489078 -0.0095885123005891235 16.500000000000004 324.45000000000005 102544.77000000002 104045.41157420797 30.500000000000004 103184.71000000001 103162.60000000002 103335.94500000002 40.500000000000007 104823.53250000002 104817.03494454526 104113.58500000001 174.00161387944954 -0.015132520863855898 26.500000000000004 45.500000000000007 103534.04750000002 5.5000000000000009 0.99001441008088531 53.500000000000007 53.500000000000007 127.23165224633904 9.5000000000000018 -168.68202020730675 -0.012181363618465163 102681.50000000001 27.500000000000004 12.500000000000002 103132.07500000001 1693.5000000000002 103368.81000000001 176.65149034431741 102152.50000000001 102347.24000000002 42.500000000000007 27.500000000000004 20.500000000000004 0.036761390705819276 -0.068683485396388355 -0.19434909448020748 47.500000000000007 21.500000000000004 -29.888087946704633 103920.02843894997 313.50000000000006 12.500000000000002 596.50000000000011 1567.5000000000002 -0.011794342395699981 175.16385437790612 -39.499999999999993 1494.5000000000002 34.500000000000007 103207.50000000001 54.500000000000007 103881.00000000001 45.500000000000007 -0.03104224669911838 28.500000000000004 34.500000000000007 0.18141035024983895 103747.00000000001
decision_type=2 2 2 2 2 2 2 2 2 2 2 2 2 2 2 2 2 2 2 2 2 2 2 2 2 2 2 2 2 2 2 2 2 2 2 2 2 2 2 2 2 2 2 2 2 2 2 2 2 2 2 2 2 2 2 2 2 2 2 2 2 2 2 2 2 2 2 2 2 2 2 2 2 2 2 2 2 2 2 2 2 2 2 2 2 2 2 2 2 2 2 2 2
left_child=2 5 -1 12 6 7 11 8 9 63 78 -4 19 20 18 82 -17 77 81 71 62 26 52 42 53 -22 34 28 -9 -16 -31 32 -5 39 44 36 76 -37 -39 -33 70 -42 -24 -29 46 67 55 -48 -28 50 54 58 -10 -20 89 56 -14 61 -51 64 -12 -58 -8 -2 -60 66 -66 68 69 -46 -19 72 73 -3 -47 -70 -36 -18 -6 -21 -54 -11 91 -84 -57 86 -72 88 -88 -50 -27 -7 -93
right_child=1 3 4 31 10 15 13 27 22 14 60 -13 21 -15 29 16 17 40 24 79 25 -23 23 -25 -26 90 48 43 -30 30 -32 33 -34 -35 35 37 -38 38 -40 -41 41 -43 -44 -45 45 74 47 -49 49 51 -52 -53 80 -55 -56 84 57 -59 59 -61 -62 -63 -64 -65 65 -67 -68 -69 75 -71 85 -73 -74 -75 -76 -77 -78 -79 -80 -81 -82 -83 83 -85 -86 -87 87 -89 -90 -91 -92 92 -94
leaf_value=-301.71999999999974 0 0.30875000000014552 -22.657499999999711 -15.022499999999855 46.834999999999859 115.37750000000015 -22.657499999999711 -16.672499999999854 21.330000000000293 34.532499999999708 -46.430000000000291 46.834999999999859 25.98249999999971 41.077499999999787 34.377499999999785 36.622499999999853 36.717500000000292 36.875 -9.9750000000000014 37.430000000000291 -11.20749999999971 37.430000000000291 -9.9750000000000014 40.422499999999857 -9.9750000000000014 8.4550000000002914 -15.105000000000292 -3.6224999999998548 2.4762500000000731 43.227500000000148 -1.9693749999998547 -5.7437500000000004 8.4974999999998548 -15.022499999999855 42.34375 21.375 24.607500000000073 -15.105000000000292 22.261249999999929 8.7987500000002914 -9.9750000000000014 34.417500000000295 7.9549999999999272 -16.672499999999854 -4.0650000000001461 16.332499999999708 25.98249999999971 -15.105000000000292 25.98249999999971 20.042500000000292 -16.625 17.025000000000002 45.172499999999857 15.532499999999709 1.9699999999997091 42.761250000000295 24.892500000000293 -15.105000000000292 -3.5150000000001458 -16.625 -3.0800000000002914 25.644999999999712 -32.007499999999709 0 14.059999999999855 12.159999999999854 -4.8900000000001462 12.109999999999856 -15.105000000000292 14.109999999999856 34.532499999999708 1.625 -7.9224999999998547 26.094999999999711 3.625 -16.625 -17.267500000000293 35.567500000000294 9.1425000000002914 10.830000000000291 40.93499999999986 34.532499999999708 63.269999999999712 33.019999999999712 25.555000000000291 15.532499999999709 34.417500000000295 15.532499999999709 -12.317500000000292 21.375 -3.5150000000001458 51.82750000000015 97.527500000000146
leaf_weight=14453 55 20 31 23 134 11740 23 22 25 20 25 63 41 22 202 475 172 25 26 426 29 71 21 76 35 33 39 39 32 26 26 21 29 97 20 32 72 32 28 26 35 33 20 28 21 119 27 24 20 31 20 20 833 23 33 20 22 28 34 23 20 31 400 25 36 21 29 39 39 37 20 21 36 23 20 20 21 20 20 22 24 26 48 20 107 20 24 30 22 37 21 20 188
leaf_count=14453 55 20 31 23 134 11740 23 22 25 20 25 63 41 22 202 475 172 25 26 426 29 71 21 76 35 33 39 39 32 26 26 21 29 97 20 32 72 32 28 26 35 33 20 28 21 119 27 24 20 31 20 20 833 23 33 20 22 28 34 23 20 31 400 25 36 21 29 39 39 37 20 21 36 23 20 20 21 20 20 22 24 26 48 20 107 20 24 30 22 37 21 20 188
internal_value=-0.000122997 0.0221644 -0.0241031 0.0110061 -0.00831303 0.0236737 -0.0156752 0.0166667 0.0184381 0.00872845 0.0146985 0.00851064 0.013933 -0.0199811 0.0148438 0.0245346 0.0184932 0.0107855 0.00115385 0.0219891 -0.0217391 0.0102965 0.0229479 0.0121795 -0.010119 -0.00873494 0.0093832 -0.00475207 0.00555556 0.0218504 0.00961538 -0.0153061 -0.00384615 -0.0194444 0.011375 0.00573171 0.0139381 -0.00434783 -0.0125 -0.00797872 -0.00131579 -0.0102941 -0.0115854 -0.0130597 0.0133193 0.00991525 0.0166667 0.00147059 0.00473761 0.00625 0.0127273 0.00257732 0.0243764 0.000510204 0.0183333 0.0197791 0.0151639 0.0101852 0.000574713 -0.00192308 -0.0161111 0.0174528 -0.0242908 -0.020625 0.000833333 0.00406977 -0.00192308 -0.00192308 -0.00448718 0.00431034 0.00301418 0.01 0.00727848 0.0133721 0.0232014 -0.0131356 -0.0054878 0.0239583 0.0237013 0.0246652 0.024825 0.0217391 0.024975 0.0220588 0.0242126 0.000862069 0 -0.00263158 -0.0076087 0.0241228 0 0.0249916 0.0245192
internal_weight=31708 16434 15274 1958 821 14476 622 1584 1463 464 199 94 1762 528 384 12892 876 401 130 548 506 1214 999 117 84 83 1143 121 54 254 52 196 52 144 800 205 113 92 60 47 209 68 41 67 595 295 300 51 343 304 110 194 882 49 90 249 122 81 174 143 45 53 423 80 120 86 65 156 117 58 141 100 79 43 139 59 41 192 154 448 857 46 12016 68 127 116 96 76 46 57 54 11948 208
internal_count=31708 16434 15274 1958 821 14476 622 1584 1463 464 199 94 1762 528 384 12892 876 401 130 548 506 1214 999 117 84 83 1143 121 54 254 52 196 52 144 800 205 113 92 60 47 209 68 41 67 595 295 300 51 343 304 110 194 882 49 90 249 122 81 174 143 45 53 423 80 120 86 65 156 117 58 141 100 79 43 139 59 41 192 154 448 857 46 12016 68 127 116 96 76 46 57 54 11948 208
is_linear=0
shrinkage=0.05


Tree=2
num_leaves=112
num_cat=0
split_feature=35 0 38 1 78 2 87 79 1 94 73 1 94 40 1 0 61 0 1 86 90 32 1 90 42 1 88 1 90 1 78 70 1 1 72 57 59 44 47 1 70 1 47 1 44 0 1 40 1 42 89 42 36 42 15 44 90 1 1 35 44 1 90 1 84 1 0 75 42 1 39 1 82 93 39 0 5 48 42 71 66 1 76 85 1 59 8 28 79 1 0 0 18 32 79 69 66 51 20 1 0 1 89 1 18 1 68 2 60 52 4
split_gain=6577.31 147.494 99.1348 83.768 42.2615 32.7033 32.2684 24.0214 22.4487 14.5827 23.1405 16.4546 12.5498 17.5734 25.5691 11.3348 9.79493 8.98086 12.7059 8.8161 7.03351 6.57902 25.6613 5.45319 5.02777 4.88008 6.63438 4.66667 3.97197 4.89574 4.79524 4.74113 3.68333 3.26307 6.68138 5.6149 3.25405 3.25003 3.13237 3.09959 2.90915 2.9015 2.83143 8.58803 21.9386 11.1312 6.73918 7.50441 6.73883 10.0739 4.73788 4.47943 4.225 3.40222 2.8 2.68293 2.67543 5.33153 4.73275 2.62957 6.91206 2.6714 2.12609 4.7779 4.84141 4.38486 3.03772 2.00798 1.8383 1.72857 1.63902 1.55093 20.0363 16.597 7.80557 5.73061 5.64392 2.05242 1.35281 1.28503 1.21207 1.01902 0.956312 4.73704 10.5307 0.733643 0.716667 0.495389 0.493968 0.457251 15.7442 13.9457 0.449367 0.423739 3.7522 0.396484 0.391737 0.389189 0.331963 0.278457 0.233796 0.564706 0.190385 0.165517 1.01053 1.15469 5.10145 0.143662 0.0477528 0.0457627 0.0327586
threshold=102020.46698456984 1619.5000000000002 101089.00000000001 33.500000000000007 0.0061024098176820736 103093.50000000001 1.0174932434827419 0.0049673967000090089 28.500000000000004 630093.00000000012 -0.032094896005471128 18.500000000000004 1501091.0000000002 103494.49000000001 28.500000000000004 1770.5000000000002 330.51741450087781 582.50000000000011 47.500000000000007 0.99359695089421096 154.86553284952205 101141.50000000001 47.500000000000007 174.00161387944954 102222.34500000002 15.500000000000002 151.0287448922839 16.500000000000004 173.367209667097 46.500000000000007 -0.018514182703963288 -0.027520920899500378 14.500000000000002 46.500000000000007 -0.030150738634636839 333.64644649615542 345.19448391055664 104823.53250000002 104817.03494454526 45.500000000000007 -0.0086224755029376526 31.500000000000004 104045.41157420797 28.500000000000004 103423.62750000002 1709.5000000000002 45.500000000000007 103227.02 30.500000000000004 103184.71000000001 149.24847291183229 103162.60000000002 103355.87500000001 103335.94500000002 102549.00000000001 102544.77000000002 185.02375005130719 9.5000000000000018 31.500000000000004 103282.71628291121 103563.11000000002 14.500000000000002 199.51946090261811 33.500000000000007 0.99839137457414207 15.500000000000002 1735.5000000000002 -0.037171084098676276 99416.175000000017 13.500000000000002 102393.40284495385 11.500000000000002 0.99994248485325021 17.062419770616305 102475.20194947494 1758.5000000000002 102622.00000000001 259.50000000000006 103335.94500000002 -0.029439841234128388 -0.19434909448020748 30.500000000000004 0.03121868499320744 0.99785103198624647 37.500000000000007 339.73042616953347 596.50000000000011 -0.16361153954874422 0.00062546769635758899 13.500000000000002 1547.5000000000002 1547.5000000000002 101495.50000000001 103395.83333333336 0.0033975898133197491 -0.12686244373638103 0.20126308600599027 256.64155528658461 511.50000000000006 36.500000000000007 1494.5000000000002 34.500000000000007 197.24912183579531 54.500000000000007 103881.00000000001 45.500000000000007 -0.03104224669911838 102360.50000000001 332.21250000000003 365.37500000000006 103393.50000000001
decision_type=2 2 2 2 2 2 2 2 2 2 2 2 2 2 2 2 2 2 2 2 2 2 2 2 2 2 2 2 2 2 2 2 2 2 2 2 2 2 2 2 2 2 2 2 2 2 2 2 2 2 2 2 2 2 2 2 2 2 2 2 2 2 2 2 2 2 2 2 2 2 2 2 2 2 2 2 2 2 2 2 2 2 2 2 2 2 2 2 2 2 2 2 2 2 2 2 2 2 2 2 2 2 2 2 2 2 2 2 2 2 2
left_child=2 5 21 16 15 7 20 8 9 11 19 40 59 -14 86 28 41 18 -8 67 -5 92 -23 39 -17 26 -6 -18 42 56 -31 -32 -25 34 -22 -35 98 80 -39 54 -2 -4 43 44 71 46 50 -48 49 69 -45 -50 -49 -53 -9 -27 57 -30 -59 60 -7 -62 -58 64 -64 -66 -67 85 -24 -44 -65 72 79 74 -73 -74 107 -75 99 -3 -16 -47 93 84 -84 -11 -15 -52 -10 90 -87 -91 -1 94 95 -61 109 -46 -12 -63 -95 -102 -85 104 -82 106 -106 -76 -97 -83 -79
right_child=1 4 3 6 25 12 17 23 88 10 36 -13 13 14 37 24 27 -19 -20 -21 33 22 68 32 -26 55 -28 -29 29 30 31 -33 -34 35 -36 -37 -38 38 -40 -41 -42 -43 48 45 97 81 47 52 51 -51 87 53 -54 -55 -56 -57 62 58 -60 82 61 78 63 70 65 66 -68 -69 -70 -71 -72 73 75 77 76 -77 -78 110 -80 -81 103 96 83 102 -86 89 -88 -89 -90 91 -92 -93 -94 100 -96 108 -98 -99 -100 -101 101 -103 -104 -105 105 -107 -108 -109 -110 -111 -112
leaf_value=-298.43399999999968 0 -1.0914999999993598 -31.256374999999391 -14.299624999999651 8.072624999999972 43.608625000000032 -19.622125000000235 -1.3963750000002619 42.913874999999827 14.755874999999651 38.703624999999739 44.576374999999828 34.791374999999974 34.881625000000348 35.03125 10.288500000000205 -5.1396249999997963 44.493249999999534 0.28574999999982537 35.818875000000119 8.6307500000002619 -26.783999999999651 7.1160000000003496 -0.16017187500001456 35.558500000000642 -4.4774375000000877 -15.271374999999535 8.0322500000002037 -14.349750000000496 35.558500000000642 11.55199999999968 -4.3445937500000582 -15.838874999999826 -2.926000000000204 -19.622125000000235 11.877874999999769 19.403624999999739 -9.476249999999709 32.696625000000495 -3.441374999999971 0 -9.6071249999993604 58.475312500000292 -14.349750000000496 24.533750000000147 16.553374999999505 -17.300000000000001 24.683374999999799 20.306250000000002 23.377125000000163 26.181812499999797 -14.349750000000496 -14.349750000000496 21.655468750000001 1.4836250000000293 -19.236374999999683 -4.6455000000001752 23.593375000000378 2.2386250000003201 24.908625000000029 17.108625000000028 2.7586250000000292 -16.803500000000351 11.55199999999968 13.107875000000059 -16.308875000000263 13.356999999999971 -2.5240312499998256 7.1160000000003496 -14.511624999999913 3.0169999999998254 -1.0914999999993598 19.337000000000263 -1.0914999999993598 17.223406250000334 -1.0914999999993598 -14.349750000000496 -1.0914999999993598 -2.2138749999998253 -15.793750000000001 32.805874999999652 35.558500000000642 33.758625000000031 92.658625000000029 -5.3913749999999716 32.805874999999652 33.789125000000062 59.314750000000643 34.36387499999983 -9.9244999999998988 -9.476249999999709 13.273874999999681 -26.783999999999651 123.60862500000003 27.20862500000003 63.858625000000032 9.1108749999999414 24.277250000000642 21.558625000000031 32.308625000000028 60.106499999999507 31.368999999999506 52.783625000000029 14.755874999999651 32.696625000000495 14.755874999999651 -11.701625000000059 45.058500000000642 17.508625000000031 40.594687500000511 -16.34962500000038
leaf_weight=14206 20 30 417 46 20 245 24 20 691 21 296 31 475 172 25 33 21 198 27 39 22 180 27 26 182 33 21 21 30 53 20 22 34 32 36 27 32 35 33 33 51 21 24 22 20 20 28 20 32 74 22 32 20 30 36 90 31 47 35 21 27 22 27 20 39 22 23 26 20 21 21 23 78 25 20 20 29 38 21 31 20 216 49 396 27 36 20 47 31 38 31 24 20 10612 29 425 20 128 25 34 48 20 20 20 24 30 22 51 20 20 20
leaf_count=14206 20 30 417 46 20 245 24 20 691 21 296 31 475 172 25 33 21 198 27 39 22 180 27 26 182 33 21 21 30 53 20 22 34 32 36 27 32 35 33 33 51 21 24 22 20 20 28 20 32 74 22 32 20 30 36 90 31 47 35 21 27 22 27 20 39 22 23 26 20 21 21 23 78 25 20 20 29 38 21 31 20 216 49 396 27 36 20 47 31 38 31 24 20 10612 29 425 20 128 25 34 48 20 20 20 24 30 22 51 20 20 20
internal_value=-0.000340608 0.0217121 -0.0238563 -0.00767937 0.00873057 0.023448 0.00885922 0.0165639 0.0186063 0.0120149 0.0151408 -0.00539216 0.0242709 0.0184932 0.0107855 0.0109853 -0.021875 0.0201807 0.00147059 0.0022093 -0.00843558 -0.0248547 -0.0164097 -0.00251678 0.0217442 -0.0155488 -0.000609756 0.00119048 0.00949387 0.00512821 0.015 0.00238095 -0.0141667 -0.00192308 -0.0103448 0.00635593 0.023017 -0.00131579 -0.0102941 0.00533708 -0.018662 -0.0240868 0.0109604 0.0121308 0.00774854 0.0172989 0.00676101 -0.00514706 0.00575117 0.0136555 0.0156593 -0.00425532 0.00875 -0.0120968 0.0125 -0.0205285 0.00194915 0.00803571 0.0146341 0.0246921 0.0204155 0.00961538 -0.00177596 0.000657895 -0.00472973 0.00119048 -0.00944444 -0.00255682 0.0164894 -0.005 0.0152439 0.00116438 0.00487421 -0.00169903 0.00995935 0.0188776 0.016 -0.0189759 0.00487013 -0.017623 0.00301418 0.0233696 0.02482 0.0226626 0.0111842 -0.000333333 0.0239583 0.0221014 0.024723 -0.00174419 0.0011194 -0.00483871 -0.0249895 0.024915 0.0234848 0.0245708 0.0242188 0.0239865 0.0245327 0.00892857 0.0249813 0.0220588 0.0247596 0.000862069 0 -0.00263158 -0.0076087 0.0235915 0.0248876 0.0247881 -0.0241379
internal_weight=31708 16363 15345 892 1930 14433 412 1541 1392 670 568 102 12892 876 401 1766 480 249 51 215 163 14453 227 149 215 164 41 42 1551 390 95 42 60 117 58 59 353 209 68 89 71 438 1161 948 513 435 159 68 213 119 91 94 40 62 56 123 295 112 82 12016 349 104 183 152 111 84 45 176 47 45 41 365 159 206 123 98 100 83 77 61 141 276 11667 492 76 150 192 69 722 129 67 62 14226 11175 495 466 256 148 321 56 10680 68 416 116 96 76 46 71 445 236 58
internal_count=31708 16363 15345 892 1930 14433 412 1541 1392 670 568 102 12892 876 401 1766 480 249 51 215 163 14453 227 149 215 164 41 42 1551 390 95 42 60 117 58 59 353 209 68 89 71 438 1161 948 513 435 159 68 213 119 91 94 40 62 56 123 295 112 82 12016 349 104 183 152 111 84 45 176 47 45 41 365 159 206 123 98 100 83 77 61 141 276 11667 492 76 150 192 69 722 129 67 62 14226 11175 495 466 256 148 321 56 10680 68 416 116 96 76 46 71 445 236 58
is_linear=0
shrinkage=0.05


Tree=3
num_leaves=128
num_cat=0
split_feature=33 0 37 78 2 1 1 79 94 79 0 94 40 1 3 46 1 59 1 0 54 1 90 40 74 4 1 89 79 42 1 76 1 70 19 42 54 62 78 1 0 0 90 72 72 56 1 58 44 1 76 93 1 1 44 0 47 1 0 94 1 1 19 35 44 1 92 88 78 45 1 0 38 1 70 1 1 44 1 69 1 54 42 1 66 79 76 36 1 1 1 34 76 85 1 1 36 36 3 8 45 38 37 1 3 3 1 42 1 32 79 69 1 1 0 1 89 1 18 1 68 44 2 40 44 1 60
split_gain=6517.76 174.03 85.6972 44.8376 44.291 43.9104 26.4591 23.5864 18.7053 18.4744 13.733 12.3819 17.5734 25.5691 12.0329 16.6801 11.5646 10.2443 9.5701 15.4839 9.53158 18.585 8.09037 7.88119 7.01006 6.18578 25.4094 5.5485 5.23424 5.85406 18.0554 6.88314 5.3878 6.07306 5.71765 5.02777 4.7395 4.48302 4.16346 4.68195 15.6746 15.3409 4.91705 4.12555 4.00659 3.85204 3.71812 7.38196 3.66903 3.52867 3.39221 3.31115 3.70807 3.25466 3.25003 3.24172 3.13237 3.06306 13.3333 6.89855 2.95874 2.92235 2.88146 2.57865 6.91206 2.6714 2.3273 2.26286 2.17886 5.92593 2.15111 1.67838 1.66071 1.54837 4.44615 1.54412 3.57 1.51485 1.46674 3.6878 1.43522 1.3909 1.35281 1.32658 1.21207 1.1774 1.16491 1.3861 1.01941 1.01611 1.015 1 0.918696 4.73704 10.5307 0.79422 20.5719 18.0919 0.830523 0.716667 0.701527 0.608009 0.596632 1.2 0.541936 0.48 0.459574 0.41201 2.16964 0.39764 3.7522 0.396484 0.3375 0.278457 0.226365 0.564706 0.190385 0.165517 1.01053 1.15469 5.10145 0.165517 0.152381 0.141406 2.1219 2.72727 0.0477528
threshold=101954.45494959377 1619.5000000000002 101146.96518058682 0.0053206349974399105 103093.50000000001 37.500000000000007 26.500000000000004 0.0064106682288178956 1560101.0000000002 -0.003240275258278994 1770.5000000000002 1501091.0000000002 103494.49000000001 28.500000000000004 102532.00000000001 103813.34875000002 14.500000000000002 329.00970770791167 44.500000000000007 600.50000000000011 295.78000000000003 22.500000000000004 173.367209667097 102767.70000000003 0.0065636561044215454 101260.00000000001 48.500000000000007 174.73287231243953 -0.013308099634990236 103117.31000000001 15.500000000000002 -0.034093517329892083 20.500000000000004 0.030051778207096123 102417.00000000001 102222.34500000002 308.82000000000005 304.09625000000005 -0.010155124649869172 30.500000000000004 1709.5000000000002 1709.5000000000002 201.21051794901732 -0.00037915514534722969 -0.013574779691246637 309.63000000000005 16.500000000000004 324.45000000000005 102544.77000000002 16.500000000000004 -0.021598130824717343 28.612842981534111 14.500000000000002 40.500000000000007 104823.53250000002 914.50000000000011 104817.03494454526 15.500000000000002 1547.5000000000002 1543090.5000000002 47.500000000000007 31.500000000000004 102946.50000000001 103282.71628291121 103563.11000000002 14.500000000000002 43.608087207372307 192.93883448404947 0.0046789473202041238 103248.65941147484 44.500000000000007 1701.5000000000002 103832.66000000002 49.500000000000007 -0.029503156103000215 31.500000000000004 44.500000000000007 103461.81000000001 15.500000000000002 -0.016926087834215734 39.500000000000007 346.78000000000003 103335.94500000002 45.500000000000007 -0.19434909448020748 -0.014905210869719498 -0.023135911646614115 102805.45833333336 14.500000000000002 19.500000000000004 50.500000000000007 102535.83333333336 0.03121868499320744 0.99785103198624647 37.500000000000007 14.500000000000002 102558.58333333336 102558.58333333336 102532.00000000001 596.50000000000011 100290.02794436616 101790.42000000001 101098.35545199165 42.500000000000007 102659.50000000001 102849.00000000001 8.5000000000000018 103184.71000000001 30.500000000000004 103395.83333333336 0.0033975898133197491 -0.12686244373638103 31.500000000000004 36.500000000000007 1494.5000000000002 34.500000000000007 197.24912183579531 54.500000000000007 103881.00000000001 45.500000000000007 -0.03104224669911838 103597.84000000001 102360.50000000001 103438.09000000001 103683.2075 36.500000000000007 332.21250000000003
decision_type=2 2 2 2 2 2 2 2 2 2 2 2 2 2 2 2 2 2 2 2 2 2 2 2 2 2 2 2 2 2 2 2 2 2 2 2 2 2 2 2 2 2 2 2 2 2 2 2 2 2 2 2 2 2 2 2 2 2 2 2 2 2 2 2 2 2 2 2 2 2 2 2 2 2 2 2 2 2 2 2 2 2 2 2 2 2 2 2 2 2 2 2 2 2 2 2 2 2 2 2 2 2 2 2 2 2 2 2 2 2 2 2 2 2 2 2 2 2 2 2 2 2 2 2 2 2 2
left_child=2 4 25 10 6 17 8 68 14 18 28 63 -13 99 16 45 23 20 19 -7 21 -4 36 122 51 102 100 -11 29 38 85 81 34 61 -30 -12 -18 -28 39 40 43 44 95 121 77 55 47 -5 53 -19 -36 57 -53 -48 84 88 -56 58 -17 -59 -46 -34 78 64 -6 -66 86 -9 72 -70 -71 -22 -8 74 -63 -35 -77 -41 79 -52 -79 -32 113 -68 -15 -31 87 -33 -16 -45 -82 -76 109 94 -94 96 -42 98 -97 -14 -27 -29 -1 -104 -99 -78 -64 -89 -109 110 111 -65 -40 -67 123 -116 -95 118 -86 120 -120 -3 -2 124 -111 -126 -113
right_child=1 3 5 46 11 9 7 67 -10 27 35 12 13 54 15 24 22 49 -20 -21 71 -23 -24 -25 -26 26 37 101 32 30 31 66 33 75 50 -37 -38 -39 112 41 42 -43 -44 89 60 -47 48 -49 -50 -51 62 52 -54 -55 56 -57 -58 59 -60 -61 -62 73 106 92 65 82 83 -69 69 70 -72 -73 -74 -75 91 76 105 80 -80 -81 90 -83 -84 -85 117 -87 -88 107 -90 -91 -92 -93 93 116 -96 97 -98 104 -100 -101 -102 -103 103 -105 -106 -107 -108 108 -110 114 -112 126 -114 -115 115 -117 -118 -119 119 -121 -122 -123 -124 -125 125 -127 -128
leaf_value=-283.51229999999998 -15.77155625000014 23.56637499999961 -19.961806249999793 -13.507806249999703 41.428193750000361 -0.62428749999962752 40.768181249999913 -15.046931249999762 36.76844375000001 -10.084643749999669 9.7740750000004493 33.051806249999935 33.137543750000624 33.279687500000001 -0.22249999999985448 31.165581249999377 0 -4.8826437499999891 42.268587499999562 42.268587499999562 -25.44479999999967 0.41356874999983123 -1.6994312499999069 2.4715867187500411 0.17950625000012224 -30.062299999999961 6.7602000000006228 11.283981249999488 12.726606249999897 21.334856249999575 -13.632262500000799 -15.146312499999841 -5.3133500000003551 16.166575000000012 19.920150000000287 33.780575000000681 42.34755624999962 -87.662299999999959 23.063387500000683 -18.274931249999646 13.341650000000664 33.780575000000681 -16.487825000000157 22.413706250000544 23.261262499999432 36.079693750000295 -5.2326906250003962 7.6689937499999363 -13.309556249999879 7.6306375000000122 -5.1725187500000178 -9.0024374999993597 11.300181249999879 8.2161937500004569 -9.0024374999993597 38.167431249999936 31.061793750000653 -8.9800250000000243 -11.344937499999652 13.646193749999657 -15.941249999999854 -4.4132250000002387 -13.632262500000799 23.663193750000211 16.253193750000356 2.6206937499999188 23.155768750000426 -1.5166812500003291 32.645681250000052 -1.9768187499998022 33.673181250000198 -3.667431249999936 15.739456249999785 -0.33417499999995925 13.658150000000024 -0.10767500000001747 45.916140625000118 22.382034374999787 13.589274999999908 10.81866874999978 -16.792262500000653 -13.632262500000799 -2.1031812499997615 15.165825000000041 31.165581249999377 20.023418750000204 23.963706250000541 -13.524156250000306 34.293931250000242 -13.632262500000799 23.57045625000028 14.192949999999838 32.070693749999919 88.025693750000215 -5.1218062499996453 -1.03692499999961 -1.03692499999961 42.805575000000687 -1.03692499999961 32.099668750000276 -9.3447999999996689 -2.5689218750001603 -46.759306250000378 -18.641018750000512 42.805575000000687 10.315634375000082 -15.678543750000244 58.718268750000426 -13.632262500000799 57.678193750000361 25.848193750000064 60.665693750000358 57.461512500000396 30.693193749999775 57.101174999999785 29.800549999999205 50.144443750000214 14.018081249999524 31.061793750000653 14.018081249999524 -11.116543749999984 21.403950000000261 0 118.47819375000036 12.603193750000356 3.9531937500003553 16.633193749999919
leaf_weight=14192 64 96 47 23 245 30 651 28 137 39 33 475 172 25 23 40 21 22 132 32 276 34 20 26 23 244 33 20 24 82 20 22 39 35 23 182 47 20 60 21 41 191 20 33 39 133 21 29 97 30 21 37 22 26 35 23 33 28 20 23 20 20 20 21 27 22 31 22 90 25 20 20 21 27 25 34 30 21 25 20 21 39 21 23 20 22 23 20 20 21 22 20 49 396 27 23 50 42 26 20 21 22 40 20 20 20 27 21 27 619 29 425 20 34 48 20 20 20 24 30 22 20 20 9949 24 20 20
leaf_count=14192 64 96 47 23 245 30 651 28 137 39 33 475 172 25 23 40 21 22 132 32 276 34 20 26 23 244 33 20 24 82 20 22 39 35 23 182 47 20 60 21 41 191 20 33 39 133 21 29 97 30 21 37 22 26 35 23 33 28 20 23 20 20 20 21 27 22 31 22 90 25 20 20 21 27 25 34 30 21 25 20 21 39 21 23 20 22 23 20 20 21 22 20 49 396 27 23 50 42 26 20 21 22 40 20 20 20 27 21 27 619 29 425 20 34 48 20 20 20 24 30 22 20 20 9949 24 20 20
internal_value=-0.000484105 0.0213703 -0.0239983 0.00737998 0.0232626 -0.00696023 0.0153725 0.0213244 0.00835626 0.00863636 0.00990352 0.0242321 0.0184932 0.0107855 0.00449153 0.00956633 -0.00555556 -0.016958 0.0170103 0.000806452 -0.0198276 -0.00462963 0.00795455 -0.0163636 -0.000906736 -0.0248216 -0.0179245 -0.0114198 0.00825792 0.0100044 0.00439394 -0.00353982 0.00341463 0.008 -0.00375 0.0217442 0.0161765 0.0136792 0.0122986 0.0111073 0.00739796 0.0154478 -0.00135135 0.0188235 0.003125 0.0197236 -0.0153061 -0.00384615 -0.0194444 0.00384615 -0.00772059 -0.00441176 -0.0139831 -0.00797872 -0.00131579 0.00984848 -0.0102941 0.000675676 0.00833333 -0.00833333 0.0131356 0.000572519 -0.0112832 0.0246505 0.0204155 0.00961538 0.00164671 -0.012 0.0233891 0.0175926 0.00277778 -0.0239865 0.0245536 0.00543478 0.00961538 0.0161765 0.0125 -0.00382353 -0.00454545 -0.0103659 0 -0.0182203 0.00487013 0.0101852 0.00301418 0.0216346 -0.00243363 -0.005 0.00174419 0.00740741 -0.00523256 0.0183333 0.0247771 0.0226626 0.0111842 0.000990099 -0.00247253 0.00382883 -0.0188776 0.0239583 -0.0242453 0.00119048 -0.0249754 -0.02 0.0217742 0.021 -0.0207447 -0.00147059 0.00104167 0.0248702 0.0234848 0.0245708 0.023125 0.00892857 0.0249345 0.0220588 0.0247596 0.000862069 0 -0.00263158 -0.0076087 0.0241379 -0.0238095 0.0249529 0.0242459 0.0136364 0.0248876
internal_weight=31708 16434 15274 1958 14476 704 1584 857 727 275 1762 12892 876 401 590 392 198 429 194 62 377 81 88 110 193 14570 318 81 1547 1137 330 226 410 250 160 215 68 53 807 727 392 335 222 170 144 199 196 52 144 52 136 170 59 47 209 66 68 111 60 51 59 131 113 12016 349 104 167 50 807 135 45 296 672 92 65 119 84 85 66 41 64 59 77 54 141 104 113 90 43 54 43 45 11667 492 76 202 91 111 49 192 265 42 14252 60 62 50 47 68 48 11175 495 466 80 56 10680 68 416 116 96 76 46 116 84 10612 663 44 445
internal_count=31708 16434 15274 1958 14476 704 1584 857 727 275 1762 12892 876 401 590 392 198 429 194 62 377 81 88 110 193 14570 318 81 1547 1137 330 226 410 250 160 215 68 53 807 727 392 335 222 170 144 199 196 52 144 52 136 170 59 47 209 66 68 111 60 51 59 131 113 12016 349 104 167 50 807 135 45 296 672 92 65 119 84 85 66 41 64 59 77 54 141 104 113 90 43 54 43 45 11667 492 76 202 91 111 49 192 265 42 14252 60 62 50 47 68 48 11175 495 466 80 56 10680 68 416 116 96 76 46 116 84 10612 663 44 445
is_linear=0
shrinkage=0.05


Tree=4
num_leaves=128
num_cat=0
split_feature=35 0 86 1 0 78 2 38 0 1 79 1 74 90 44 73 0 1 0 94 40 1 56 35 1 46 1 1 79 52 1 1 90 86 7 42 1 88 55 41 1 1 35 44 1 1 1 43 1 1 90 76 44 15 47 56 2 46 42 1 78 1 78 36 94 76 62 1 90 88 78 1 19 78 45 44 79 93 58 83 70 1 0 45 92 92 79 79 16 1 93 79 94 93 45 1 66 90 1 1 91 25 1 90 36 1 76 85 1 15 8 3 79 78 1 16 1 1 82 93 1 1 74 2 1 1 1
split_gain=6159.8 166.809 117.166 63.5963 42.6346 38.6446 35.5525 25.6645 36.8148 32.4853 22.1523 18.6874 18.4969 21.8023 15.8791 15.0735 15.7906 14.9908 13.9126 12.1487 17.5734 25.5691 10.8622 8.00015 16.5381 7.47668 6.50917 16.5 6.31154 5.96839 5.80829 9.70314 5.77187 5.62656 5.55556 5.02777 4.88008 6.63438 4.45714 4.27636 4.3701 4.0875 3.85726 10.2668 4.16528 3.68333 3.5 3.49117 3.39273 3.38784 3.94888 3.55988 3.25003 3.14325 3.13237 3.09974 2.95183 9.4359 2.94908 16.3171 4.42346 3.93032 18.6792 7.89944 6.0169 3.47046 3.13287 3.94386 5.57027 2.88274 4.02558 4.08614 6.95859 2.69469 4.23498 2.68293 2.35111 2.06398 1.99245 1.93554 2.33151 1.96709 17.15 10.9668 1.75 1.74435 1.50192 1.42008 1.67619 1.3859 7.68627 7.78039 6.61944 4.20779 1.3204 3.64583 1.21207 1.19388 1.17293 1.14545 1.07728 1.06485 0.987148 0.952538 0.942857 0.936144 0.892814 4.73704 10.5307 0.795455 0.716667 0.532767 3.0651 0.630828 0.990829 0.527712 1.6 1.25104 6.70476 4.83378 6.81791 3.55082 0.421687 1.19054 1.71247 3.85116 0.370586
threshold=102020.46698456984 1619.5000000000002 1.0139131421806236 44.500000000000007 859.50000000000011 0.0061024098176820736 103093.50000000001 101198.40000000001 552.50000000000011 20.500000000000004 0.0049673967000090089 28.500000000000004 0.054203048294917906 176.33166800905934 101422.15500000001 -0.031379985088317762 615.50000000000011 48.500000000000007 1770.5000000000002 1501091.0000000002 103494.49000000001 28.500000000000004 328.99000000000007 98627.433584315091 30.500000000000004 98734.020000000019 33.500000000000007 18.500000000000004 -0.014905210869719498 349.37500000000006 35.500000000000007 18.500000000000004 174.00161387944954 0.99369882727941272 49.500000000000007 102222.34500000002 15.500000000000002 151.0287448922839 297.19679761646142 102098.79887093451 31.500000000000004 16.500000000000004 103282.71628291121 103563.11000000002 14.500000000000002 14.500000000000002 5.5000000000000009 100392.17489100478 45.500000000000007 27.500000000000004 159.21368326383768 -0.027097461069173923 104823.53250000002 102549.00000000001 104817.03494454526 340.05000000000007 100139.00000000001 99987.300000000003 103117.31000000001 15.500000000000002 -0.010155124649869172 14.500000000000002 -0.023593760071044783 102558.58333333336 1757090.0000000002 -0.036454566868330533 330.22250000000008 49.500000000000007 185.02375005130719 169.45383485792743 0.0042343946692111377 14.500000000000002 103079.50000000001 0.0046789473202041238 103248.65941147484 102544.77000000002 -0.016778843156935865 40.689183473147175 316.80500000000006 0.9984028615654873 0.0068577078637313453 25.500000000000004 1743.5000000000002 103233.8995732045 -51.905469360704579 43.608087207372307 -0.0065447449353903996 -0.029848496676699476 101103.00000000001 46.500000000000007 9.7953873258709763 -0.010932704259677515 1730557.0000000002 -20.630723887849879 103494.98305260217 12.500000000000002 -0.19434909448020748 177.49672715788515 39.500000000000007 44.500000000000007 -134.24346341624184 511.50000000000006 29.500000000000004 173.59072491238342 102873.37500000001 46.500000000000007 0.03121868499320744 0.99785103198624647 37.500000000000007 101757.50000000001 596.50000000000011 103421.50000000001 0.0033975898133197491 0.009317836850362771 47.500000000000007 102417.00000000001 13.500000000000002 7.5000000000000009 1.0004968547101754 -28.909141094844127 18.500000000000004 14.500000000000002 0.045827856322918366 98972.500000000015 31.500000000000004 39.500000000000007 53.500000000000007
decision_type=2 2 2 2 2 2 2 2 2 2 2 2 2 2 2 2 2 2 2 2 2 2 2 2 2 2 2 2 2 2 2 2 2 2 2 2 2 2 2 2 2 2 2 2 2 2 2 2 2 2 2 2 2 2 2 2 2 2 2 2 2 2 2 2 2 2 2 2 2 2 2 2 2 2 2 2 2 2 2 2 2 2 2 2 2 2 2 2 2 2 2 2 2 2 2 2 2 2 2 2 2 2 2 2 2 2 2 2 2 2 2 2 2 2 2 2 2 2 2 2 2 2 2 2 2 2 2
left_child=2 6 12 7 29 18 10 8 30 -9 11 15 14 23 56 33 -17 26 28 42 -21 110 39 -14 -25 98 27 -15 58 101 31 46 48 77 -31 -20 37 -7 -33 40 109 -24 43 -8 -45 -34 -4 87 53 51 84 -30 96 -12 -54 -46 122 126 60 -60 61 62 63 -3 79 -64 -61 68 85 78 71 72 -71 -13 -75 -38 -69 -2 -18 80 97 82 -81 -83 -51 102 -80 88 -10 92 91 -91 -52 -94 115 -96 -23 100 -26 -43 -63 -5 -68 -85 -73 -42 111 108 -108 -16 -22 112 113 -44 -115 116 -53 118 -117 120 -119 -121 -1 -124 -125 -126 -58
right_child=1 5 3 4 -6 36 19 9 47 -11 32 73 13 17 22 16 69 -19 35 20 21 52 41 24 25 -27 -28 -29 49 34 -32 38 45 -35 -36 -37 75 -39 -40 -41 105 99 106 44 55 -47 -48 -49 -50 50 89 94 54 -55 -56 -57 57 -59 59 66 -62 64 65 -65 -66 -67 67 76 -70 70 -72 104 -74 74 -76 -77 -78 -79 86 81 -82 83 -84 103 -86 -87 -88 -89 -90 90 -92 -93 93 -95 95 -97 -98 -99 -100 -101 -102 -103 -104 -105 -106 -107 107 -109 -110 -111 -112 -113 -114 114 -116 117 -118 119 -120 121 -122 -123 123 124 125 -127 -128
leaf_value=-294.08668499999987 -1.2136480859371659 12.674567500000558 -46.936684999999855 40.155158124999438 -331.63668499999989 7.2855440624996852 39.356784062500083 -18.963715937500094 -5.1591849999997068 40.155158124999438 -0.87643437500082655 38.729772187500203 -404.13668499999989 -46.936684999999855 -3.4840596875001211 0 25.167265625000439 2.3133150000001481 9.2853712500007539 31.399215937499687 31.480666562500847 31.615703124999712 -4.6385115625002076 -86.786684999999864 -46.936684999999855 -59.636684999999858 -15.886684999999853 3.0633150000001481 19.193745156250227 4.6506740625001841 2.3133150000001481 -15.886684999999853 -0.12131388671878085 32.651559687500416 -0.066547500000160659 32.091546250000832 -4.6643753125004883 -13.832415937499901 2.3133150000001481 -10.813297499999681 7.7840840625001881 7.2491056250000838 57.63240906250067 15.440534062500229 2.9744778125001177 -14.628272187499533 3.0633150000001481 -18.222066249999624 -2.5169596874999116 13.656605624999793 15.336620312500237 -3.1124631250004313 -8.5523156249997552 1.4428731250001876 29.508704062500328 -1.998022187499737 -24.786684999999853 -59.336684999999854 20.268113437499416 -12.950649375000649 21.910218125000394 20.162138281250375 20.399756250000792 -0.98507874999995693 37.725146249999675 20.768068750000385 55.7823553125003 15.072032812500403 -14.811818124999991 -0.52767218750013856 22.186802812500538 40.230178437499859 25.219459062500391 31.013397187500232 2.677022187500552 -17.609078437500283 6.2136014062503824 -5.4213806250001655 35.087521562500477 43.331193750000239 21.88506875000094 37.124671249999665 -0.98507874999995693 17.482471249999801 16.995130468749995 21.410480312500297 17.868434687499395 -45.256191250000121 -23.941684999999417 -14.912041250000039 -2.6535045312499279 42.97783359374953 -0.87097562499984638 12.8582524999998 54.55553937500008 -14.894616562500596 12.662177187499402 21.293020937500842 3.0633150000001481 11.330907187499543 23.102800625000238 40.155158124999438 -12.950649375000649 -17.361184687499918 37.249738749999963 -2.4633608593747343 30.467159062500286 81.37440906250049 -4.8657159374997718 -8.2181659374997249 30.494685312500224 111.50428406250067 24.555784062499882 18.351534062500289 1.0824090625006648 -14.630851718751002 12.932314374999624 -12.827292343750742 16.191793125000185 6.7911509375000607 15.35824625000023 -6.2272553125003469 -346.58668499999987 -80.186684999999855 3.0633150000001481 -15.886684999999853 -24.786684999999853
leaf_weight=11569 155 20 21 178 68 20 245 63 20 83 20 609 465 33 20 21 36 43 33 475 172 25 21 213 42 37 43 33 20 36 27 39 26 39 36 182 33 21 21 120 23 35 420 27 53 34 42 36 33 36 44 20 35 36 33 24 181 642 82 28 80 54 23 56 86 80 23 25 33 23 47 22 20 78 35 90 20 26 232 45 41 76 35 79 48 23 29 575 22 20 24 31 28 22 27 21 116 50 114 20 24 21 30 20 20 22 49 416 27 35 20 10651 23 60 21 20 20 22 22 21 29 43 235 45 20 23 23
leaf_count=11569 155 20 21 178 68 20 245 63 20 83 20 609 465 33 20 21 36 43 33 475 172 25 21 213 42 37 43 33 20 36 27 39 26 39 36 182 33 21 21 120 23 35 420 27 53 34 42 36 33 36 44 20 35 36 33 24 181 642 82 28 80 54 23 56 86 80 23 25 33 23 47 22 20 78 35 90 20 26 232 45 41 76 35 79 48 23 29 575 22 20 24 31 28 22 27 21 116 50 114 20 24 21 30 20 20 22 49 416 27 35 20 10651 23 60 21 20 20 22 22 21 29 43 235 45 20 23 23
internal_value=0.000132459 0.0214738 -0.0226246 -0.00819099 0.0103982 0.00766839 0.0233198 -0.0148314 -0.0183375 0.00445205 0.0161421 0.0181034 -0.0239471 -0.0174731 -0.0244553 0.0120896 0.0173333 0 0.00982446 0.0241778 0.0184932 0.0107855 -0.0130068 -0.0205224 -0.0153941 -0.00479275 -0.00986239 0 0.00817215 0.0192804 0.004 -0.000609756 -0.00218121 0.00136364 0.00694444 0.0217442 -0.0155488 -0.000609756 -0.015 -0.0186364 -0.011 0.00328947 0.0245922 0.0194126 0.00625 -0.0141667 0.0130952 -0.0234686 0.00589888 0.00366795 0.00780632 -0.000283019 -0.00131579 0.0133929 -0.0102941 0.000324675 -0.0247213 -0.0218676 0.0104308 0.00587121 0.0119961 0.0107039 0.00432961 -0.0144737 0.0129412 0.0182039 -0.00247253 0.000324675 -0.00481651 0.0194056 0.0132576 0.00676471 -0.00406977 0.0236842 0.0165929 -0.0205285 0.0127778 -0.00234807 0.022138 0.0104953 0.014645 0.0077451 0.00125 0.0107143 0.0166667 0.00263158 0.023659 -0.0243517 -0.0154762 0.00340237 -0.00166667 0.00931373 0.00744681 -0.005 -0.00193878 -0.009375 0.00301418 0.0179688 0 0.0104545 0.0141026 0.0237437 -0.00235849 -0.000252525 0.0178571 0.000555556 0.0247472 0.0226626 0.0111842 -0.0204545 0.0239583 0.0248389 0.0232824 0.0241018 0.0200617 -0.000126904 0.005 -0.00143312 0.00595238 -0.00413043 0.00735294 -0.0132813 -0.0249243 -0.0231424 -0.0181818 -0.0110465 -0.0125
internal_weight=31708 16363 15345 1288 339 1930 14433 949 803 146 1541 1392 14057 1023 13034 670 450 152 1766 12892 876 401 296 871 406 193 109 66 1551 271 150 123 149 220 72 215 164 41 60 220 100 76 12016 349 104 60 63 653 89 518 253 265 209 56 68 77 12738 846 1033 264 769 689 179 76 510 103 182 154 109 429 132 85 43 722 113 123 45 181 297 424 169 255 80 175 84 76 261 617 42 169 75 51 94 50 245 48 141 128 156 55 78 199 53 99 42 45 11667 492 76 55 192 11175 524 501 81 197 40 157 42 115 51 64 11892 323 88 43 204
internal_count=31708 16363 15345 1288 339 1930 14433 949 803 146 1541 1392 14057 1023 13034 670 450 152 1766 12892 876 401 296 871 406 193 109 66 1551 271 150 123 149 220 72 215 164 41 60 220 100 76 12016 349 104 60 63 653 89 518 253 265 209 56 68 77 12738 846 1033 264 769 689 179 76 510 103 182 154 109 429 132 85 43 722 113 123 45 181 297 424 169 255 80 175 84 76 261 617 42 169 75 51 94 50 245 48 141 128 156 55 78 199 53 99 42 45 11667 492 76 55 192 11175 524 501 81 197 40 157 42 115 51 64 11892 323 88 43 204
is_linear=0
shrinkage=0.05


Tree=5
num_leaves=128
num_cat=0
split_feature=35 0 86 1 16 2 78 52 1 79 1 0 74 90 43 44 0 1 94 40 1 72 1 56 72 35 1 90 46 79 1 1 90 42 1 88 38 1 78 45 93 41 1 38 1 1 85 35 44 1 1 40 42 1 90 78 1 89 62 44 1 19 47 5 46 56 90 76 19 56 1 1 44 1 0 82 0 57 93 1 1 1 1 89 1 0 1 1 40 90 74 41 44 1 90 60 73 79 16 66 78 1 1 69 1 1 92 57 1 1 76 85 1 3 79 78 64 15 8 7 56 1 0 0 19 1 44
split_gain=6128.47 179.096 105.255 77.5091 51.1574 41.1196 36.4348 24.6818 21.4043 20.6583 22.8766 18.9913 18.4563 21.8023 17.4653 15.8578 15.6841 14.9908 13.2083 16.2961 25.5691 12.5988 11.6984 10.8622 10.5355 8.00015 16.5381 7.51975 7.47668 7.23028 6.50917 16.5 6.30192 5.02777 4.88008 6.63438 4.42651 12.7793 4.38767 4.70238 4.32488 4.27636 4.3701 4.09531 6.83824 4.0875 3.99447 3.82017 10.2668 4.16528 3.81894 11.8788 3.52524 9.97969 4.98509 3.57808 3.5 3.41199 3.33173 3.25003 3.19904 5.81637 3.13237 3.10143 10.2866 3.09974 3.09682 3.05762 3.22499 3.02415 2.83684 4.89534 2.68293 2.48321 14.7059 5.2 3.71793 2.46481 2.25874 4.83231 5.92214 4.50593 10.3691 3.48589 2.25333 2.15631 6.40221 2.37789 7.22671 3.68002 2.85031 2.15681 2.02267 1.99988 7.55245 1.80319 1.43868 1.3032 1.23097 1.21207 1.19737 1.17293 1.14824 4.42619 1.14545 1.11369 1.11364 1.09412 1.00076 0.936144 0.870923 4.73704 10.5307 0.803367 2.9354 1.18093 1.32267 0.795455 0.716667 0.706522 0.652302 0.601851 15.4187 10.9327 2.67329 1.61498 3.71001
threshold=102020.46698456984 1619.5000000000002 1.0139131421806236 33.500000000000007 100064.50000000001 103093.50000000001 0.0061024098176820736 348.20833333333343 49.500000000000007 0.0064106682288178956 23.500000000000004 552.50000000000011 0.054203048294917906 176.33166800905934 101036.88829907209 101422.15500000001 1770.5000000000002 48.500000000000007 1501091.0000000002 103494.49000000001 28.500000000000004 -0.03815848347364071 18.500000000000004 328.99000000000007 -0.011909313525300931 98627.433584315091 30.500000000000004 172.5880082842875 98734.020000000019 -0.013116316021121004 33.500000000000007 18.500000000000004 218.05681070260982 102222.34500000002 15.500000000000002 151.0287448922839 102347.24000000002 9.5000000000000018 0.0046789473202041238 103248.65941147484 -31.812899394180501 102098.79887093451 31.500000000000004 103711.48000000001 37.500000000000007 16.500000000000004 1.0157271347169252 103282.71628291121 103563.11000000002 14.500000000000002 17.500000000000004 102836.67000000001 103064.29500000001 15.500000000000002 174.55707796989441 -0.010155124649869172 5.5000000000000009 154.80112482246332 329.40875000000005 104823.53250000002 20.500000000000004 102417.00000000001 104817.03494454526 99864.500000000015 99987.300000000003 340.05000000000007 174.00161387944954 -0.021598130824717343 102946.50000000001 322.45000000000005 40.500000000000007 16.500000000000004 102544.77000000002 10.500000000000002 1758.5000000000002 0.99924174653050857 1758.5000000000002 335.38420125982742 3.792388978953952 45.500000000000007 30.500000000000004 44.500000000000007 30.500000000000004 151.8190644514724 44.500000000000007 1716.5000000000002 34.500000000000007 31.500000000000004 103323.22000000002 158.44793126056658 -0.0096997204136013617 103248.38063707681 103683.2075 15.500000000000002 158.56227644116419 338.13250000000005 -0.032094896005471128 -0.029848496676699476 99935.000000000015 -0.19434909448020748 0.010945613800410358 39.500000000000007 15.500000000000002 -0.0054821633086298205 44.500000000000007 31.500000000000004 -54.909381089457298 297.70143928206522 47.500000000000007 46.500000000000007 0.03121868499320744 0.99785103198624647 37.500000000000007 103421.50000000001 0.0033975898133197491 0.0086979089114584424 -0.095263241121817874 101757.50000000001 596.50000000000011 -21.499999999999996 298.39000000000004 30.500000000000004 1739.5000000000002 1739.5000000000002 102284.50000000001 48.500000000000007 103563.11000000002
decision_type=2 2 2 2 2 2 2 2 2 2 2 2 2 2 2 2 2 2 2 2 2 2 2 2 2 2 2 2 2 2 2 2 2 2 2 2 2 2 2 2 2 2 2 2 2 2 2 2 2 2 2 2 2 2 2 2 2 2 2 2 2 2 2 2 2 2 2 2 2 2 2 2 2 2 2 2 2 2 2 2 2 2 2 2 2 2 2 2 2 2 2 2 2 2 2 2 2 2 2 2 2 2 2 2 2 2 2 2 2 2 2 2 2 2 2 2 2 2 2 2 2 2 2 2 2 2 2
left_child=2 5 12 11 -5 9 16 24 -9 10 14 22 15 25 -2 63 29 30 47 100 118 40 56 41 -6 -14 -27 36 101 32 31 -15 52 -18 35 -8 37 -23 43 95 57 42 117 -12 -45 -25 -26 48 -7 -50 51 -11 55 54 -54 73 -4 -16 -55 99 61 -31 -61 -1 98 -51 -52 -63 102 106 71 -34 -36 74 75 -3 92 -10 79 80 -71 82 -80 -82 -41 87 -87 88 -60 -89 91 -91 121 94 -42 -40 -38 -13 -65 -22 -20 -28 103 -69 -47 -99 -62 -24 -92 -44 113 112 -112 114 115 -49 -117 -17 -21 -81 -98 122 -75 125 -124 126 -123
right_child=1 6 3 4 7 18 34 8 77 50 38 97 13 17 21 23 33 -19 19 20 59 27 107 45 46 26 28 -29 -30 60 -32 -33 70 -35 72 -37 96 -39 39 84 93 -43 109 44 -46 104 -48 110 49 65 66 -53 53 58 -56 -57 -58 -59 85 62 69 67 -64 64 -66 -67 -68 68 -70 78 -72 -73 -74 76 -76 -77 -78 -79 81 119 83 -83 -84 -85 -86 86 -88 89 -90 90 108 -93 -94 -95 -96 -97 120 105 -100 -101 -102 -103 -104 -105 -106 -107 -108 -109 -110 -111 111 -113 -114 -115 -116 116 -118 -119 -120 -121 -122 123 124 -125 -126 -127 -128
leaf_value=-285.83235074999976 -0.96579826562519888 -17.785723968750244 -44.589850750000188 -316.62387543750015 -1.1289304062491283 37.388944859374895 6.9212668593747368 -14.875094187500508 4.4142369218752719 -14.93915671875002 36.793283578124829 -10.101225749999868 -383.92985074999962 -44.589850750000188 29.667984591796269 -3.3098567031251154 8.8211026875003888 2.197649249999813 33.629255140624444 29.906633234375477 30.034917968749507 -0.89342173437471506 -15.092350749999605 -4.4065859843751243 38.147400218749681 -82.447350749999899 -44.589850750000188 -2.041789093749685 -56.654850749999611 11.59718930468771 -15.092350749999605 2.9101492499998134 17.291520265625149 30.486968937500933 -4.4311565468757186 -13.140795140624688 29.520734591796284 38.475802359374939 33.462727328125041 -2.0118289218749852 -8.4916332207030791 -10.27263262499946 7.394879859375215 -8.470341345703492 32.280783578124833 6.8866503437500803 2.197649249999813 54.750788609375746 14.668507359375509 2.8257539218750027 -2.3911117031246252 2.3916824521482343 19.963120265625186 -12.303116906250944 -13.901890851563076 20.814707218750119 2.9101492499998134 -8.470341345703492 21.079302796875346 -8.1246998437498412 14.389662453124402 18.844927843749613 28.033268859375678 -88.232350749999753 -55.619850749999756 -1.8981210781246773 -13.563171078124288 -4.5153989257814828 -14.166826218750067 13.940120976562321 31.026895203125605 -13.978861593749754 -16.728624515625416 40.863202812500823 -0.93582481249977723 19.558725937500277 30.70429518750025 4.4220437968746413 -9.5897843203129014 40.954846601562167 -0.91074653124960614 -1.2775948906251871 13.17147148437507 8.0327859765617173 31.855671078125308 -1.0145748125003593 31.828788046875708 19.724391179686791 -13.606666953125387 -13.523901906250103 -14.063568468749873 -12.573116906250654 21.947660593750335 11.101397124999494 29.667984591796269 5.885227328124893 31.405732046875347 -42.158531375000898 -23.547350749999897 12.029068328124778 8.0267551406243012 2.9101492499998134 11.752484734374594 9.950752062499669 10.764361828124676 -14.540993875001005 17.925399257812387 -15.092350749999605 13.337009734375171 -2.3401928164061245 28.94380110937491 77.30568860937565 -4.6224301406247834 105.92906985937589 23.327994859375032 16.311707359375578 14.886707359375578 -7.8072576406244485 28.969951046875213 10.345038550781466 32.635895484375219 -3.2989356640617191 -0.93582481249977723 31.083439335938603 -0.93068566406218456 -15.684908875000838 55.24815734375079
leaf_weight=11711 40 20 21 124 39 245 20 69 33 22 660 39 465 33 32 20 33 43 455 172 25 32 31 21 260 213 42 27 37 24 43 33 29 182 33 21 32 49 77 30 40 120 23 20 31 35 23 406 27 53 39 32 107 23 24 76 42 35 44 35 22 22 33 20 783 24 28 22 45 33 33 28 90 85 30 52 77 27 20 26 31 26 27 20 20 24 50 29 23 35 22 31 24 31 26 20 21 531 224 116 20 114 26 20 20 29 22 20 21 22 49 416 27 10651 23 30 65 35 20 20 197 47 20 86 51 33 21
leaf_count=11711 40 20 21 124 39 245 20 69 33 22 660 39 465 33 32 20 33 43 455 172 25 32 31 21 260 213 42 27 37 24 43 33 29 182 33 21 32 49 77 30 40 120 23 20 31 35 23 406 27 53 39 32 107 23 24 76 42 35 44 35 22 22 33 20 783 24 28 22 45 33 33 28 90 85 30 52 77 27 20 26 31 26 27 20 20 24 50 29 23 35 22 31 24 31 26 20 21 531 224 116 20 114 26 20 20 29 22 20 21 22 49 416 27 10651 23 30 65 35 20 20 197 47 20 86 51 33 21
internal_value=1.26151e-05 0.0212996 -0.0226865 -0.00900621 0.00465217 0.0232124 0.00699482 0.0124723 -0.00600775 0.0154932 0.0171831 -0.020021 -0.02394 -0.0174731 0.00934164 -0.0244476 0.00908834 0 0.0241351 0.0182078 0.0107855 0.0117816 -0.00131579 -0.0130068 0.0198758 -0.0205224 -0.0153941 0.0170391 -0.00479275 0.00733398 -0.00986239 0 0.00936681 0.0217442 -0.0155488 -0.000609756 0.0191088 0.00895062 0.0223193 0.0144558 0.000304878 -0.0186364 -0.011 0.0239451 0.0102941 0.00328947 0.0232332 0.0245672 0.0194126 0.00625 -0.00433884 0.00555556 0.0104502 0.00698614 0.0185115 0.0128617 0.0130952 0.0100746 0.00198675 -0.00131579 0.00160099 -0.00393082 -0.0102941 -0.0247135 -0.0220789 0.000324675 -0.0123134 -0.00796296 -0.0112832 0.00516194 -0.00333333 -0.0100877 -0.0205285 0.0114469 0.00441176 0.0166667 0.0130631 0.0158333 0.00258621 0.00653846 -0.000595238 -0.00445205 0.00478723 -0.0112745 0.002 0.00349462 0.0108108 0.000853659 0.00858209 -0.00289855 -0.00711009 -0.0136364 0.0109673 -0.0064433 -0.0113636 0.0208763 0.0224 -0.023581 -0.0131148 0.00301418 0.0244737 0 -0.00441176 -0.00952381 0.0104545 -0.0241964 0.0170455 -0.0191176 0.00290698 0.000555556 0.0247214 0.0226626 0.0111842 0.0248121 0.0229008 0.0237026 0.0186842 -0.0204545 0.0239583 0.0195652 0.0238532 0.00998542 0.00769231 0.0118984 -0.00950704 0.000742574 0.00514706
internal_weight=31708 16363 15345 1288 575 14433 1930 451 129 1541 1420 713 14057 1023 562 13034 1766 152 12892 876 401 522 114 296 322 871 406 358 193 1551 109 66 1145 215 164 41 331 81 858 147 164 220 100 711 51 76 283 12016 349 104 121 54 1055 433 131 622 63 67 302 209 406 159 68 12738 1027 77 67 135 113 247 90 57 123 546 102 72 444 60 203 130 84 73 47 51 50 279 74 205 67 138 109 66 367 97 66 97 250 599 244 141 475 156 68 42 55 560 44 51 43 45 11667 492 76 11175 524 501 95 55 192 46 218 343 156 187 71 101 68
internal_count=31708 16363 15345 1288 575 14433 1930 451 129 1541 1420 713 14057 1023 562 13034 1766 152 12892 876 401 522 114 296 322 871 406 358 193 1551 109 66 1145 215 164 41 331 81 858 147 164 220 100 711 51 76 283 12016 349 104 121 54 1055 433 131 622 63 67 302 209 406 159 68 12738 1027 77 67 135 113 247 90 57 123 546 102 72 444 60 203 130 84 73 47 51 50 279 74 205 67 138 109 66 367 97 66 97 250 599 244 141 475 156 68 42 55 560 44 51 43 45 11667 492 76 11175 524 501 95 55 192 46 218 343 156 187 71 101 68
is_linear=0
shrinkage=0.05


Tree=6
num_leaves=128
num_cat=0
split_feature=33 0 2 35 1 78 78 57 79 74 90 1 0 87 1 1 0 38 94 1 0 87 72 91 62 62 54 1 1 35 1 46 42 85 1 41 40 0 90 42 92 1 42 70 1 1 84 75 90 90 82 1 2 74 1 45 0 40 1 58 44 78 1 91 90 1 36 76 42 1 1 38 1 1 84 49 41 1 1 41 44 38 4 76 1 40 1 40 1 40 43 1 78 78 9 60 79 56 1 76 90 79 1 1 73 42 74 79 26 76 85 1 2 1 57 1 79 70 54 90 19 1 93 0 33 79 28
split_gain=6054.71 190.363 96.229 46.1915 43.8197 58.3139 41.0839 32.4573 30.7901 22.8357 21.9542 17.231 16.3482 16.1655 16.2769 15.0291 23.2116 15.699 15.023 16.4234 25.8165 14.3104 14.1543 10.1691 10.1623 9.51584 9.0601 8.57747 21 8.26582 14.9178 8.42714 7.58972 7.39295 7.13271 12.743 10.5918 5.73556 5.6656 5.56153 8.45037 7.28438 5.02777 4.85619 4.77647 4.76486 21.6676 6.34184 5.81238 4.62326 4.12237 4.78173 3.94286 3.73103 3.75633 8.1052 5.18072 4.9 3.71812 7.38196 3.66903 3.6556 3.56049 5.90102 3.40061 4.75251 3.31291 5.99351 5.74678 3.58173 3.25466 2.78167 2.68042 2.98965 3.57672 2.67856 2.67006 8.79114 7.38462 5.86574 5.10922 3.57657 2.50451 4.06976 2.46059 2.37911 2.6024 2.28287 3.35873 2.06336 14.6181 5.30278 1.92857 1.8165 1.74162 1.68713 1.68011 1.6617 1.53092 13.0672 6.20776 2.07131 7.43942 6.41371 1.51429 1.40745 1.39312 1.28901 1.27286 1.23746 4.44857 10.5307 1.22298 1.17293 1.1671 1.14478 0.914286 0.674948 0.63307 0.591218 0.557724 0.514286 0.51401 0.509091 0.495178 3.8086 0.49242
threshold=101954.45494959377 1619.5000000000002 100392.00000000001 103282.71628291121 47.500000000000007 0.0048756412879213057 0.0053206349974399105 298.98462095665576 0.0049673967000090089 0.054203048294917906 176.33166800905934 48.500000000000007 1770.5000000000002 1.0153245265374065 29.500000000000004 14.500000000000002 630.50000000000011 103062.32000000002 1501091.0000000002 28.500000000000004 1547.5000000000002 0.98544727239649987 -0.040502236609050446 -242.90334902513857 329.20000000000005 321.68000000000006 281.06000000000006 30.500000000000004 15.500000000000002 98627.433584315091 30.500000000000004 98682.42750000002 103064.29500000001 0.99403603866396673 28.500000000000004 103501.58894997358 103564.57000000002 1693.5000000000002 196.58901910565211 102820.08500000002 -166.1665064682615 14.500000000000002 102222.34500000002 -0.049932165911397201 16.500000000000004 13.500000000000002 0.99808423939770718 -0.0043043451460616179 223.73892989425778 170.12314147416888 0.99988116364290913 29.500000000000004 102294.00000000001 -0.019455753259613021 45.500000000000007 103432.78412436694 1721.5000000000002 103161.97000000002 16.500000000000004 324.45000000000005 102544.77000000002 -0.010401716029862645 38.500000000000007 89.062133160950921 172.91877584548831 31.500000000000004 99847.166666666686 0.0074146886982182974 100191.35500000003 46.500000000000007 40.500000000000007 102456.98000000003 32.500000000000007 9.5000000000000018 0.99911048343534492 192.26098781348756 103234.72388704609 29.500000000000004 30.500000000000004 102720.17307546205 103423.62750000002 102880.16000000002 101260.00000000001 0.0080279883714467603 11.500000000000002 100006.67000000001 26.500000000000004 99852.790000000023 26.500000000000004 103494.49000000001 103401.10438167657 48.500000000000007 -0.0099376570236928748 0.0061024098176820736 0.13500177761118168 333.50750000000005 -0.0059243288857236155 337.74000000000007 27.500000000000004 -0.028024369532204742 158.56227644116419 -0.015655758416886663 45.500000000000007 47.500000000000007 0.027582873993234561 104047.74000000001 0.0013540161801251312 -0.00057038599643356583 -0.036160144189307054 0.03121868499320744 0.99785103198624647 37.500000000000007 103163.50000000001 39.500000000000007 305.22009515121903 45.500000000000007 -0.0054428692393561464 -0.033969084522257144 331.46000000000009 165.74030213601893 102681.50000000001 23.500000000000004 9.7953873258709763 1661.5000000000002 103399.09097295885 0.0033975898133197491 -0.28202346971437087
decision_type=2 2 2 2 2 2 2 2 2 2 2 2 2 2 2 2 2 2 2 2 2 2 2 2 2 2 2 2 2 2 2 2 2 2 2 2 2 2 2 2 2 2 2 2 2 2 2 2 2 2 2 2 2 2 2 2 2 2 2 2 2 2 2 2 2 2 2 2 2 2 2 2 2 2 2 2 2 2 2 2 2 2 2 2 2 2 2 2 2 2 2 2 2 2 2 2 2 2 2 2 2 2 2 2 2 2 2 2 2 2 2 2 2 2 2 2 2 2 2 2 2 2 2 2 2 2 2
left_child=2 3 9 8 7 43 12 13 15 66 29 27 32 -4 75 16 52 64 89 -20 61 -9 23 105 106 93 -23 28 -12 -11 -31 113 38 -25 35 -27 97 82 76 -10 41 -41 -14 -6 -39 46 47 -34 50 107 51 94 -2 95 55 116 57 -56 59 -8 70 -21 71 -64 -17 -66 -1 68 69 72 -60 122 73 -68 -75 -15 77 80 -78 -79 -3 115 83 87 -82 86 -85 -28 -89 90 -5 96 -80 -19 121 -53 -92 -36 99 -52 -100 103 -103 -102 -48 -18 -7 -24 -43 124 111 -111 -95 -32 -84 -81 -55 -45 -114 -63 -73 -47 -40 -101 125 -91 -87
right_child=1 6 4 18 5 24 58 21 39 10 11 -13 42 14 -16 17 22 25 19 20 -22 26 49 33 -26 34 37 -29 -30 30 31 -33 45 -35 36 -37 -38 44 62 40 -42 108 -44 117 -46 48 104 -49 -50 -51 98 53 -54 54 56 -57 -58 -59 60 -61 -62 119 63 -65 65 -67 67 -69 -70 -71 -72 120 -74 74 -76 -77 78 79 92 81 84 -83 114 85 -86 126 -88 88 -90 109 91 -93 -94 112 -96 -97 -98 -99 100 123 101 102 -104 -105 -106 -107 -108 -109 -110 110 -112 -113 118 -115 -116 -117 -118 -119 -120 -121 -122 -123 -124 -125 -126 -127 -128
leaf_value=-284.49073321249961 -1.178603585156452 10.658227765625634 -50.638858212500054 43.922616366406146 1.2094718996093434 -14.194023563671728 -11.483755383593234 33.755795054687404 7.94768047424368 -364.7333582124993 -42.360358212500437 2.0877667875000046 8.380047553125042 -15.90760357187537 36.240030207812381 34.953619399218589 29.18458536220642 56.316119399218593 28.411301572656523 -7.7184648515620218 16.455292383593768 0.29027923906251091 29.369497616406445 -8.0670515596677443 9.6150187367180493 7.6779619919918334 -31.04498321249994 -14.337733212499735 2.7646417874995679 -78.324983212500229 -42.360358212500437 -53.822108212499735 10.678220502343175 34.920437428564405 5.5909659617187577 -9.6335441456059936 30.203619399218589 -7.0107950710931624 -3.1590894990236849 2.418553156836424 -2.9480686179689659 0.12879997578202165 28.962620490625707 2.6954592390633483 1.6586363777347288 19.285991157031823 19.312183463867406 -14.838973806250578 -2.1208832757816709 1.9944106945316891 16.596754541405971 -0.40492185000039171 -0.38884797578102737 -0.60972201718723229 -16.825411664452986 54.48713205039094 41.003768166406374 17.029129294921585 -4.5162795007818204 6.5752035164063276 -10.927193289843855 -7.7184648515620218 29.475550442968963 -3.781256591406418 -2.1500862660155691 56.316119399218593 -28.96998321249994 -53.588858212500057 -31.851358212500056 0.0092667875003826349 7.5459988063477796 -0.60255051367275891 -19.49073321249962 11.309266787500384 -18.190733212499619 -10.163091040624932 19.239229015625462 28.681140720703844 4.3472194259764363 13.833206468749996 19.242487453125797 21.698043869139656 -8.0865669621089182 -33.119983212499939 38.820042671875854 -38.001823868750215 7.5300167875000632 2.7611417874999464 -20.704420712499996 52.013249178906705 2.376366366406728 -6.6396717585936136 52.452190607812376 29.185574147656009 13.379147814648242 -11.816211060938441 16.689621991406604 -0.68147752421937191 24.654305097265752 -13.316806605468811 -15.275494107812847 13.736597910156707 -0.55737901015600078 13.692134591406649 16.07032760000002 8.1731212547849292 -52.113858212500055 13.888324147655659 -2.7098123679686981 27.496611053906236 80.540404178907195 -4.391308633593872 43.369497616406449 2.7646417874995679 -19.801823868750219 -16.431548970311997 -0.62233493906242077 36.240030207812381 22.669497616406446 10.772614911718847 -3.2764569088867574 15.489821857617063 6.3669146285159517 -15.436499268360059 101.68261636640673 22.161595116406534 -41.643156665625433
leaf_weight=11712 46 199 63 808 24 22 23 22 34 465 42 46 33 25 78 930 27 113 367 30 153 27 228 46 20 34 32 58 42 219 42 43 33 20 73 42 81 29 26 23 56 22 182 21 56 36 106 43 34 31 21 23 24 24 20 21 43 20 21 29 97 20 34 25 23 29 21 496 112 29 26 21 29 21 27 92 120 128 54 29 21 24 20 27 37 76 20 36 20 293 93 21 21 43 26 22 31 20 39 20 37 29 22 22 20 20 126 29 28 49 311 27 22 114 521 22 21 163 24 152 20 20 29 35 10025 28 236
leaf_count=11712 46 199 63 808 24 22 23 22 34 465 42 46 33 25 78 930 27 113 367 30 153 27 228 46 20 34 32 58 42 219 42 43 33 20 73 42 81 29 26 23 56 22 182 21 56 36 106 43 34 31 21 23 24 24 20 21 43 20 21 29 97 20 34 25 23 29 21 496 112 29 26 21 29 21 27 92 120 128 54 29 21 24 20 27 37 76 20 36 20 293 93 21 21 43 26 22 31 20 39 20 37 29 22 22 20 20 126 29 28 49 311 27 22 114 521 22 21 163 24 152 20 20 29 35 10025 28 236
internal_value=-2.20764e-05 0.0210417 -0.0226856 0.0230209 -0.0116743 0.00345745 0.0064096 -0.0157971 0.0161025 -0.024116 -0.0171102 -0.00159574 0.0088252 0.000193798 0.00730769 0.0178871 0.010138 0.0204324 0.0241739 0.0171745 0.00950704 -0.0194742 0.0147756 -0.000221239 -0.0184524 0.0127212 -0.0202727 -0.0102113 0 -0.0204134 -0.015311 -0.00540201 0.00702973 -0.0128788 0.0062 -0.00657895 0.0117816 -0.0209925 0.0103704 -0.0047546 -0.00949612 0.00171233 0.0217442 0.0211538 -0.00852941 0.00335821 0.00990099 -0.0111842 0.00088785 0.0206597 0.00224551 0.00634058 -0.0164286 0.00206186 0.00587248 -0.0030303 0.0129518 0 -0.0153061 -0.00384615 -0.0194444 -0.00222772 0.00177419 0.0114407 0.0239817 0.0115385 -0.0247188 -0.0214626 -0.0149582 -0.00767717 -0.00797872 -0.00416667 -0.0122449 -0.00688406 0 -0.00448718 0.0124046 0.0103261 0.0173077 0.0181034 0.00418288 0.007 -0.0220648 -0.0192953 0.0172414 -0.0216574 -0.0111702 -0.00965909 -0.00357143 0.0246064 0.0223767 0.00775862 0.005 0.0207921 0.0164634 -0.0105556 0.0116935 0.000268817 -0.00277778 -0.00855263 0.000167785 -0.00590909 0.00147059 -0.0122881 0.022619 0.0175532 -0.022973 0.0228599 -0.009 0.0248043 0.0220284 0.0111842 0.0154494 0 -0.024353 -0.000490196 -0.015 0.023913 0.00978261 0.000581395 -0.0140244 0.0214286 0.00318182 -0.0213636 0.0249082 0.0229751 -0.0232372
internal_weight=31708 16434 15274 14476 1756 376 1958 1380 2068 13518 1071 188 1762 258 195 1905 471 1434 12408 722 355 1122 401 113 168 452 1100 142 84 883 418 199 1547 66 250 76 174 1073 810 163 129 73 215 208 85 737 202 76 535 288 501 276 70 194 149 66 83 40 196 52 144 202 155 59 982 52 12447 735 239 127 47 96 98 69 48 117 655 460 195 203 257 75 988 447 58 359 47 88 56 11686 953 145 75 202 82 45 124 93 225 76 149 110 51 59 126 47 148 257 50 10733 387 76 89 156 541 51 45 184 46 172 41 56 55 55 10346 321 312
internal_count=31708 16434 15274 14476 1756 376 1958 1380 2068 13518 1071 188 1762 258 195 1905 471 1434 12408 722 355 1122 401 113 168 452 1100 142 84 883 418 199 1547 66 250 76 174 1073 810 163 129 73 215 208 85 737 202 76 535 288 501 276 70 194 149 66 83 40 196 52 144 202 155 59 982 52 12447 735 239 127 47 96 98 69 48 117 655 460 195 203 257 75 988 447 58 359 47 88 56 11686 953 145 75 202 82 45 124 93 225 76 149 110 51 59 126 47 148 257 50 10733 387 76 89 156 541 51 45 184 46 172 41 56 55 55 10346 321 312
is_linear=0
shrinkage=0.05


Tree=7
num_leaves=128
num_cat=0
split_feature=35 0 4 1 47 33 78 79 34 62 1 46 1 41 59 0 0 0 1 44 63 1 42 78 72 1 94 88 93 90 79 94 45 57 79 47 74 14 60 1 66 42 93 59 1 88 89 41 90 83 68 43 85 0 1 76 78 70 58 1 78 94 1 55 40 1 1 39 39 89 92 78 42 0 1 49 1 5 1 1 91 32 1 0 88 44 38 1 93 34 1 68 93 36 53 70 43 1 0 1 90 0 60 1 45 62 1 1 1 0 87 92 92 44 1 70 1 90 50 44 36 1 1 60 0 55 1
split_gain=5811.35 174.37 118.613 55.2236 73.825 40.9939 35.768 22.2197 19.2215 51.1837 36.7271 18.6531 19.7648 32.9316 19.8594 18.3726 16.2505 14.1175 20.2947 24.8357 12.3074 12.0979 21.8319 13.6104 13.3903 11.1734 17.8784 14.7366 8.46881 7.47324 7.95974 7.27865 7.14764 6.62517 6.48003 6.39479 6.00026 5.88573 7.19728 5.21146 5.03739 5.02777 5.00595 4.88466 4.88008 6.63438 4.81987 4.725 4.4905 4.336 6.54312 4.29693 15.8066 8.26524 5.57788 8.0397 4.26171 3.97933 3.69426 3.68424 6.82216 3.63968 3.63073 6.57724 4.37752 3.6 3.39443 16.3902 9.184 7.0379 8.16697 3.39341 3.38824 5.51225 12.8013 3.09107 3.025 2.99221 5.76732 5.49643 3.63462 2.80232 2.69237 13.6552 10.0033 2.68293 2.63845 4.47596 2.63718 2.37537 2.28913 2.27562 2.25871 2.12413 2.01667 2.00207 1.95149 11.8037 2.97049 5.07369 11.6431 5.66058 2.27729 4.01069 2.29565 1.91761 2.34375 3.80278 1.87284 4.01082 2.80737 2.14322 1.84703 2.44773 1.8355 1.97699 1.80176 1.74208 3.57818 1.67619 1.63042 2.20909 1.53465 6.18956 3.1647 1.50036 1.45764
threshold=102020.46698456984 1619.5000000000002 100191.50000000001 47.500000000000007 99997.415745119899 103309.01580402034 0.0061024098176820736 0.0049673967000090089 98596.416666666672 306.17000000000007 22.500000000000004 99987.300000000003 32.500000000000007 100833.72179376149 305.75942599825254 1680.5000000000002 1770.5000000000002 1485.5000000000002 29.500000000000004 104658.12750000002 307.57942808409581 18.500000000000004 101104.58500000001 0.0046789473202041238 -0.040502236609050446 45.500000000000007 508557.50000000006 195.85469258116044 -15.499216797475937 180.55072285829195 -0.014905210869719498 1691055.0000000002 103233.8995732045 360.8832224437794 -0.025100388833205558 99997.415745119899 -0.0085596711987827867 98780.500000000015 298.93750000000006 15.500000000000002 -0.061401883520188293 102222.34500000002 -16.622137843776333 332.985409588143 15.500000000000002 151.0287448922839 160.46525563632676 103267.13430261264 169.41680360088628 1.0000626650988789 0.033629220326597806 103859.27767270045 1.0047983714075881 929.50000000000011 24.500000000000004 0.00085166730622576682 0.015796315488950951 -0.04781657931397499 339.36000000000007 44.500000000000007 0.012250497953561873 630093.00000000012 49.500000000000007 350.99252408509648 102907.44000000002 16.500000000000004 45.500000000000007 103386.60270911043 103371.09362796631 157.32445765192267 -166.1665064682615 -0.0090835046695554762 102820.08500000002 1443.5000000000002 14.500000000000002 335.53900158779885 21.500000000000004 101140.50000000001 22.500000000000004 22.500000000000004 342.18887150859524 102832.33333333336 50.500000000000007 1513.5000000000002 168.80738001754639 102544.77000000002 103729.90000000001 33.500000000000007 24.039532104678759 104034.83333333336 39.500000000000007 -0.09806903215356351 -96.902878802712891 102697.25000000001 343.97771098066625 0.020383066804425549 103338.9861315906 29.500000000000004 1693.5000000000002 29.500000000000004 171.57872741488586 1709.5000000000002 340.64000000000004 15.500000000000002 103574.09691050633 312.11375000000004 15.500000000000002 42.500000000000007 26.500000000000004 1654.5000000000002 0.99472569026771951 50.956177108074094 -34.01093142059117 103683.2075 46.500000000000007 -0.037315078256918405 47.500000000000007 163.72442750935278 373.08333333333343 98720.747500000012 104989.16666666667 33.500000000000007 15.500000000000002 331.17000000000007 1726.5000000000002 333.52224792900239 4.5000000000000009
decision_type=2 2 2 2 2 2 2 2 2 2 2 2 2 2 2 2 2 2 2 2 2 2 2 2 2 2 2 2 2 2 2 2 2 2 2 2 2 2 2 2 2 2 2 2 2 2 2 2 2 2 2 2 2 2 2 2 2 2 2 2 2 2 2 2 2 2 2 2 2 2 2 2 2 2 2 2 2 2 2 2 2 2 2 2 2 2 2 2 2 2 2 2 2 2 2 2 2 2 2 2 2 2 2 2 2 2 2 2 2 2 2 2 2 2 2 2 2 2 2 2 2 2 2 2 2 2 2
left_child=2 5 8 11 57 7 16 21 -1 10 91 12 14 20 77 43 29 51 -19 -20 49 22 -2 33 28 26 -12 37 46 30 66 36 59 86 90 117 76 -27 -39 -33 -36 -18 -40 -6 45 -8 -24 -30 61 -14 -51 52 53 54 58 -56 -11 -5 -7 -25 -61 -26 64 -64 122 -37 68 69 92 -68 -71 94 -9 74 -74 -52 -13 78 80 -79 126 -50 84 -84 89 -46 -23 -88 -49 -73 -28 -10 -3 -66 -21 -60 98 -98 102 101 -101 -100 104 -104 -94 -58 -107 -108 109 -32 -110 -111 113 116 115 -76 -34 118 -16 -80 -54 -122 123 -31 -124 -57 -4
right_child=1 6 3 4 15 17 44 72 9 56 25 31 13 -15 35 -17 41 18 19 71 -22 23 24 32 48 27 34 -29 47 62 108 39 112 -35 40 65 -38 38 42 -41 -42 -43 -44 -45 85 -47 -48 88 81 50 75 -53 120 -55 55 125 105 -59 95 60 -62 -63 63 -65 93 -67 67 -69 -70 70 -72 82 73 -75 114 -77 -78 79 119 -81 -82 -83 83 -85 -86 -87 87 -89 -90 -91 -92 -93 96 -95 -96 -97 97 -99 99 100 -102 -103 103 -105 -106 106 107 -109 110 111 -112 -113 -114 -115 -116 -117 -118 -119 -120 -121 121 -123 124 -125 -126 -127 -128
leaf_value=-303.36619655187462 -0.89806595355476027 -2.2443992042964966 -39.343224676875252 4.1404680120504054 -52.259415301874839 13.424428673086368 6.2464433405861204 7.5502964505314596 -23.0161965518746 -58.861243426874722 -47.373590301875083 -27.578477801874762 0.46523782312506229 34.428028697421546 -28.799387879219285 6.9806244869731024 7.9610451754684624 30.727227304960252 15.475027764413973 -0.80901445191339016 1.5121746207812976 34.547198427694823 26.72535609409606 31.003418458945092 0.090497094883176032 10.703309698125668 -34.561290301874401 2.6264096981249168 30.153483239511118 -3.0210328248540463 18.432528356992407 -6.2889078337895628 -0.5953239519432828 2.7309384292573671 9.7576596981249182 -40.178858699140619 -41.903790301874693 -16.323590301875083 5.1551065731251589 -1.668774064804893 2.6264096981249168 27.514489466094531 -1.3661965518746002 -10.34629030187498 -4.2904655257429116 -11.90956761441339 -8.237400192621136 -8.7178239816836136 -1.6742698612884852 -13.141248284687755 -13.620846551875003 96.798485548086319 61.100993360586294 76.823485548086325 22.594006954336148 -1.8086731862891612 -42.711290301874399 8.239717965683667 8.4484855480863192 39.953691646445805 -1.4910823363672536 28.36697056371122 13.409895525898902 -1.7514641119923908 -1.6858537623676968 7.3919596981249924 27.247083684668908 -15.044268152549558 17.639726221094318 -15.609971521796252 18.436283770312002 -2.3246841295702327 2.1511706716992194 -14.044795451913524 -4.8452244058200451 0.2757652771091671 6.8050065731251381 -15.399449019844178 -13.829578660468542 1.0012135270313594 3.27279633953076 14.235361456680403 -15.318453333867001 11.543984166132578 12.354723985585588 -15.345833625351952 -7.565147071138199 30.407999679257774 -7.6636989816841385 -12.333909583866626 -13.620846551875003 -73.241196551874609 20.629331113788432 -13.003813548437392 -7.3325416089835933 -0.42491788941370034 25.357494675673664 -11.795647105547687 29.114997590625354 27.735023392090081 -15.053155652421266 9.5936488760249627 18.992267564843498 20.81487040224529 18.909275430468551 -16.579215301874502 -16.116196551874602 -29.021509051874819 12.204434259198752 -5.8813118904305162 7.4235439776362915 -13.822145764375456 15.144431121914387 -6.2625848980082086 -2.8006651870702628 0.46238129730481892 29.983339226133104 -32.210446551875066 -0.31225266683613884 -1.1354465518750658 60.698485548086325 8.4484855480863192 -13.266239975273493 15.461335079150013 5.524649718086585 -0.15151445191368113 2.6264096981249168
leaf_weight=9553 51 21 20 38 206 68 20 34 20 2388 96 20 29 89 41 33 33 461 157 30 31 980 49 114 25 22 26 78 24 22 21 34 48 34 33 20 760 42 24 74 121 182 32 27 33 21 25 26 21 126 24 9422 1594 92 40 38 48 221 23 39 21 354 33 25 22 20 63 36 126 20 38 40 39 30 27 22 20 38 22 32 21 31 36 22 63 90 26 38 34 22 20 261 88 30 30 20 33 26 28 95 20 180 30 55 27 32 60 36 171 166 27 21 26 25 20 20 21 369 25 20 24 20 21 25 81 49 71
leaf_count=9553 51 21 20 38 206 68 20 34 20 2388 96 20 29 89 41 33 33 461 157 30 31 980 49 114 25 22 26 78 24 22 21 34 48 34 33 20 760 42 24 74 121 182 32 27 33 21 25 26 21 126 24 9422 1594 92 40 38 48 221 23 39 21 354 33 25 22 20 63 36 126 20 38 40 39 30 27 22 20 38 22 32 21 31 36 22 63 90 26 38 34 22 20 261 88 30 30 20 33 26 28 95 20 180 30 55 27 32 60 36 171 166 27 21 26 25 20 20 21 369 25 20 24 20 21 25 81 49 71
internal_value=0.000173458 0.0209023 -0.0219306 -0.0118528 0.00252381 0.0227898 0.00678756 0.0164757 -0.0238481 -0.0205825 -0.00932258 -0.0157676 -0.0111275 -0.000856698 -0.0158441 -0.0159774 0.00886183 0.0239144 0.017741 0.0095 -0.0107759 0.0179423 0.0122656 0.0205904 0.014983 -0.00111336 -0.00726351 0.00808081 0.00253165 0.00707608 0.00863003 -0.0209802 0.0110544 0.0231911 0.00125 -0.0216316 -0.022625 -0.00291667 -0.00816327 -0.0087963 0.00616883 0.0217442 0.00357143 -0.0209227 -0.0155488 -0.000609756 0.0148649 -0.00833333 0.0195476 -0.0152985 -0.018314 0.024381 0.0222561 0.0122727 0.00735294 0.00019685 -0.023986 0.0215251 0.0155405 0.0175287 0.0075 0.021438 -0.000675676 0.0103448 -0.00385572 -0.0025 0.0112867 0.00461783 0.0127229 0.0134298 0.000862069 -0.000514403 -0.000882353 -0.00441176 0.000943396 -0.00217391 -0.00375 -0.00357143 0.000324675 -0.0121429 0.00625 0.00576923 0.00286885 -0.00603448 0.007 -0.0205285 0.0238985 0.0140625 -0.0158333 -0.00725806 -0.0152174 -0.0237544 0.0101575 -0.0163462 -0.0108333 0.00406977 0.0107388 0.00211864 0.0117113 0.00874613 0.0171739 0.00408654 0.0165 0.0102941 0.021087 -0.0164773 -0.0132813 -0.009375 0.00283251 -0.000480769 0.00631313 -0.00280749 0.00166667 -0.00159574 -0.0123134 -0.00691489 0.00326087 -0.0233908 -0.0159091 -0.0154762 0.0242674 0.0147727 0.000503356 0.00797872 -0.00294118 -0.00833333 0.00192308
internal_weight=31708 16363 15345 2453 525 14433 1930 2182 12892 3339 775 1928 1020 321 699 266 1766 12251 861 400 232 2012 640 1372 589 494 296 198 158 1551 1292 908 294 1078 200 475 800 120 98 108 154 215 56 233 164 41 74 84 431 201 172 11390 1968 330 238 127 2564 259 111 174 60 379 259 58 201 40 886 157 729 121 58 243 170 136 106 46 40 224 154 70 112 52 183 58 125 123 1044 64 60 62 46 281 603 52 60 43 582 59 523 323 115 208 200 85 115 176 128 96 406 208 198 187 120 94 67 47 69 435 66 42 1638 44 149 47 102 87 91
internal_count=31708 16363 15345 2453 525 14433 1930 2182 12892 3339 775 1928 1020 321 699 266 1766 12251 861 400 232 2012 640 1372 589 494 296 198 158 1551 1292 908 294 1078 200 475 800 120 98 108 154 215 56 233 164 41 74 84 431 201 172 11390 1968 330 238 127 2564 259 111 174 60 379 259 58 201 40 886 157 729 121 58 243 170 136 106 46 40 224 154 70 112 52 183 58 125 123 1044 64 60 62 46 281 603 52 60 43 582 59 523 323 115 208 200 85 115 176 128 96 406 208 198 187 120 94 67 47 69 435 66 42 1638 44 149 47 102 87 91
is_linear=0
shrinkage=0.05


Tree=8
num_leaves=128
num_cat=0
split_feature=35 0 4 1 47 34 79 78 74 0 1 46 44 46 93 45 46 57 0 45 0 78 38 1 1 79 76 60 1 92 5 1 94 1 91 1 94 94 90 1 89 39 38 2 1 0 60 74 71 66 1 76 40 78 59 36 1 47 1 54 58 40 1 1 1 42 42 77 94 88 62 1 41 74 1 93 1 2 79 1 1 91 71 1 38 2 45 0 1 1 81 19 1 1 1 93 3 1 1 75 76 4 1 36 90 1 91 52 57 40 1 90 90 54 81 55 1 22 38 90 91 1 1 92 89 1 38
split_gain=5672.83 161.304 112.664 53.1511 76.0415 41.3842 31.1126 31.0027 20.5795 24.8221 37.916 19.2267 17.3862 18.434 17.3055 16.8362 16.4117 22.2666 15.189 14.1706 12.1023 11.9122 11.0232 17.388 10.3688 16.336 10.2805 15.4228 9.18974 9.14715 7.88713 7.8251 7.19275 7.11811 9.64853 7.06586 32.9571 20.0263 6.77329 7.10659 19.5127 10.4176 6.6881 6.53391 26.7452 6.13365 6.01208 5.96966 5.78616 5.45225 5.21146 5.18484 6.85936 6.60152 5.1572 5.1179 14.7887 5.02013 4.92273 9.24444 4.91827 4.5306 8.1756 13.6997 4.30104 19.5971 14.8399 4.16002 4.34767 4.13631 3.79775 3.77305 5.50433 3.79741 3.5651 3.48474 4.31361 8.86226 6.95156 6.57835 3.39231 3.17682 3.17466 3.025 2.99688 2.91429 2.87879 2.86599 8.18791 2.75702 6.66563 4.01497 5.48706 6.75 3.77372 8.28864 4.66667 3.4383 6.79141 4.5 2.74344 2.73214 2.72296 2.70464 2.64745 2.94639 4.82659 2.80404 3.11792 2.62223 2.61696 2.57209 2.572 3.09878 2.55069 2.50741 3.60497 2.49787 2.44239 2.33307 2.27069 5.35283 4.60909 2.11297 2.50458 2.47342 2.04167
threshold=102020.46698456984 1619.5000000000002 100191.50000000001 47.500000000000007 99997.415745119899 104383.25000000001 -0.013116316021121004 0.010659224084477417 0.045827856322918366 802.50000000000011 45.500000000000007 104997.60125000002 100023.31500000002 99987.300000000003 -7.6510189208661172 104084.46945958583 100011.84625000002 307.5088867768348 1770.5000000000002 99937.427248047839 1661.5000000000002 0.0078032418182517561 98889.060000000012 22.500000000000004 45.500000000000007 -0.012621271325189479 0.0070341534866670786 327.02750000000003 20.500000000000004 -290.51722079443311 102444.50000000001 17.500000000000004 1691055.0000000002 37.500000000000007 72.012929404081675 24.500000000000004 1536062.5000000002 1536062.5000000002 180.0385545284054 45.500000000000007 155.92145959045388 103371.09362796631 100495.26000000002 102360.50000000001 17.500000000000004 1437.5000000000002 298.34750000000008 -0.0085596711987827867 -0.0022379255437541142 -0.15067952938501647 15.500000000000002 0.015443310924990634 104349.98000000001 -0.010401716029862645 332.985409588143 101385.37500000001 21.500000000000004 100119.36897483353 15.500000000000002 344.34000000000009 326.82500000000005 103295.16000000002 20.500000000000004 46.500000000000007 45.500000000000007 104344.93000000001 104376.83500000001 0.011473652807806574 577558.00000000012 158.09737600515271 316.89500000000004 45.500000000000007 103010.70179571678 -0.030669941790398628 15.500000000000002 -5.8135339120675402 22.500000000000004 101197.50000000001 -0.015837378731927223 6.5000000000000009 20.500000000000004 101.00201993383963 -0.0034798285423084927 21.500000000000004 101910.02 103820.50000000001 100082.05975861847 708.50000000000011 44.500000000000007 19.500000000000004 0.99926198036048219 102417.00000000001 32.500000000000007 47.500000000000007 13.500000000000002 -13.166147071367531 102616.50000000001 30.500000000000004 49.500000000000007 0.027272130837334683 0.025138314876727876 101124.50000000001 8.5000000000000018 103324.25000000001 157.72445941798563 15.500000000000002 -8.8351834990171465 280.54166666666669 322.38943328283807 102146.24000000001 12.500000000000002 160.7474949740816 163.72442750935278 339.14000000000004 0.99957393625919011 301.23329062466757 17.500000000000004 204.50000000000003 103988.14000000001 145.35811161068918 -231.57721026759825 15.500000000000002 12.500000000000002 -160.41624099016119 150.62256913587308 29.500000000000004 103907.60000000002
decision_type=2 2 2 2 2 2 2 2 2 2 2 2 2 2 2 2 2 2 2 2 2 2 2 2 2 2 2 2 2 2 2 2 2 2 2 2 2 2 2 2 2 2 2 2 2 2 2 2 2 2 2 2 2 2 2 2 2 2 2 2 2 2 2 2 2 2 2 2 2 2 2 2 2 2 2 2 2 2 2 2 2 2 2 2 2 2 2 2 2 2 2 2 2 2 2 2 2 2 2 2 2 2 2 2 2 2 2 2 2 2 2 2 2 2 2 2 2 2 2 2 2 2 2 2 2 2 2
left_child=2 5 8 16 67 7 18 11 12 10 22 15 -1 31 46 26 17 55 38 33 54 89 -10 -24 30 82 104 43 86 -17 48 -14 47 112 -35 36 103 51 39 41 -41 123 -30 44 -28 102 -12 83 -9 -42 -34 52 53 -37 -6 75 -57 70 -32 119 -45 62 -62 100 66 -66 118 68 -5 -51 115 73 -73 80 -23 -4 77 79 -78 -77 -40 -25 -26 -18 -22 -67 -21 88 -7 90 110 92 -91 -94 95 -92 -96 114 99 109 -64 -36 -29 -31 -2 106 107 -106 -109 -99 -8 -68 113 -19 -93 -15 -117 -81 -55 -60 121 -38 -122 124 125 -3 -107
right_child=1 6 3 4 20 87 21 24 9 -11 14 -13 13 57 -16 29 32 19 -20 28 84 74 23 81 25 -27 27 45 42 35 58 -33 50 34 101 37 120 -39 71 40 49 -43 -44 60 -46 -47 -48 -49 -50 69 -52 -53 -54 64 -56 56 -58 -59 59 -61 61 -63 63 -65 65 85 111 -69 -70 -71 -72 72 -74 -75 -76 76 78 -79 -80 117 -82 -83 -84 -85 -86 -87 -88 -89 -90 91 94 97 93 -95 96 -97 -98 98 -100 -101 -102 -103 -104 -105 105 126 -108 108 -110 -111 -112 -113 -114 -115 -116 116 -118 -119 -120 -121 122 -123 -124 -125 -126 -127 -128
leaf_value=-261.79788672428111 33.689262885446809 9.0352164322233879 0.3888086663439026 4.1693056895732301 -49.720194536781491 33.913561270682116 -12.012729162041069 0.30289636329980568 -64.62288672428113 -324.92838047428086 -15.507410786781112 32.91186185661936 -21.86538672428069 -40.575725786780822 2.4950892132183071 32.879186270682112 -26.199553911781187 2.4616535814664533 26.138764992789948 -29.905336724281007 8.7852365755337818 -8.874714233692794 -50.599136724281564 9.6263392132183085 2.4323663711540577 -2.6606319277168953 -0.85316265587680395 11.602545410916356 -32.476401645374793 0.49332130275288366 19.258836559744307 7.5524829632195178 -5.9744624421000481 0.57466972173569963 -10.589134137640213 -7.1290027074614049 26.797622548326402 27.690314780841437 16.633495524230238 25.884729500435789 24.496603788359792 16.903707410040081 7.0223617132185616 42.921435880056379 33.161097289122701 -9.3525310531949799 13.166048119469634 -39.901100786781171 -13.342555679317593 -14.365810994922505 -1.5853353615646484 -9.0116674793185663 36.358561270681825 1.436163445294369 -9.8289757867809389 -14.629476568852262 32.70662726255032 -27.323134380530973 1.3556609745879542 -0.14393872931832449 12.839223692558154 61.155029239432046 -0.27856411994362135 38.671435880056379 11.660218372611418 -0.043091785220167371 23.284451089712821 34.01604279913736 -0.7876803885519621 -12.43461022086267 -6.1696464899057908 27.328450937885648 -1.6638909063927714 -12.027532475000044 -9.6135419440841368 -38.275179068031143 -12.929367618851394 -29.460603545023698 0.26197701325363598 2.4950892132183071 -0.67797548170601662 -12.939804224281398 25.88236637115406 6.4647562444690267 -0.15441453618404921 -13.19759316717391 -1.0776382867814391 114.19343588005722 -0.57393872931788792 -5.3293839199381186 -5.6529656900987906 13.344390519092849 11.079178083451552 -3.3296205562364776 9.1442429166949299 11.664481881631218 -11.978612171801798 -4.3495826024081907 15.567451117215388 -1.1835555068268151 2.6892236925581532 -14.087967120452232 1.1748752764688106 25.569375128774848 26.799598894900555 44.558561270681821 31.258561270681824 -2.3914387293181791 7.4075370519320138 11.215846301688726 2.0110968099012099 25.454375128775428 -29.720274957875517 -38.45539453135207 8.6178679166943777 -21.487235786781095 -15.310386724281125 3.1091565225542581 -2.3914387293181791 17.363697371081798 -7.2805140325996041 -9.2925069925229771 4.6876307498645478 17.963811658944906 17.52126308727966 35.787683012095293 20.358561270681822
leaf_weight=10817 1362 37 74 44 196 64 53 30 262 606 39 1704 33 112 109 164 20 20 173 38 22 32 105 33 23 72 55 22 28 22 136 91 34 30 21 32 36 150 20 68 20 141 42 567 122 24 20 740 23 55 74 27 39 53 27 21 50 329 47 67 115 215 139 86 63 21 24 194 21 37 32 32 20 55 96 22 93 28 25 27 32 92 35 20 21 64 22 7423 23 31 20 41 30 20 21 58 21 25 52 24 23 51 104 369 21 350 67 24 27 47 20 99 393 21 21 62 150 34 47 121 33 35 22 543 65 20 42
leaf_count=10817 1362 37 74 44 196 64 53 30 262 606 39 1704 33 112 109 164 20 20 173 38 22 32 105 33 23 72 55 22 28 22 136 91 34 30 21 32 36 150 20 68 20 141 42 567 122 24 20 740 23 55 74 27 39 53 27 21 50 329 47 67 115 215 139 86 63 21 24 194 21 37 32 32 20 55 96 22 93 28 25 27 32 92 35 20 21 64 22 7423 23 31 20 41 30 20 21 58 21 25 52 24 23 51 104 369 21 350 67 24 27 47 20 99 393 21 21 62 150 34 47 121 33 35 22 543 65 20 42
internal_value=-3.94222e-05 0.0204409 -0.0218785 -0.0120567 0.00204762 0.0222563 0.00686528 0.0194677 -0.0237473 -0.0176935 -0.0109848 0.0204545 -0.0244065 -0.0173362 0.00952381 0.0187942 -0.0158973 -0.0116346 0.0111912 -0.0171171 -0.0167293 -0.00245098 -0.0179878 -0.01 0.00812274 -0.00423077 0.0206612 0.0175272 -0.00230769 0.0139615 0.0119104 0.000403226 -0.0208896 -0.020709 -0.00882353 0.012368 0.0166828 0.00876414 0.0091048 0.0106491 0.00166667 0.0126551 0.01 0.0192511 0.0103107 0.00233333 -0.0122881 -0.0225641 -0.00613208 -0.0111607 -0.0087963 0.00367804 0.00497738 0.0030397 -0.0214126 -0.00187166 0.0102113 -0.0205474 0.0144879 0.0101064 0.0206332 0.0173875 0.0139807 0.00887097 0.00491914 -0.00168919 0.00930493 0.021332 0.0103846 -0.0163043 -0.0164326 -0.000471698 0.0105769 -0.00584112 -0.0160156 -0.00470297 -0.00775109 -0.000675676 -0.0144068 0.00753012 0.00384615 0.0026 0.0155172 -0.00375 0.00755814 -0.0173529 -0.0166667 0.0248269 0.0158046 0.00113636 -0.00349741 0.00420962 -0.00524691 0.005 0.00375 0.0102564 -0.00833333 0.00785714 0.00371622 -0.00416667 0.000308642 -0.01875 0.00674603 0.0238491 0.0230983 0.0201036 0.0138489 0.00486111 -0.00147059 0.00208333 -0.015411 0.020935 -0.0235023 -0.0115854 0.0177419 -0.0180556 -0.0148585 0.0159836 -0.005 0.016369 -0.00555556 0.000352113 -0.0131818 0.0100376 0.0159836 0.00833333 0.0223214
internal_weight=31708 16363 15345 2453 525 14433 1930 6923 12892 1266 660 6369 11626 809 168 4665 1928 1040 1318 666 266 612 492 230 554 130 3365 1472 130 1300 424 124 888 536 102 1136 517 619 1145 986 180 806 70 1322 177 150 59 780 53 112 108 469 442 403 223 374 71 685 371 235 1145 578 363 248 371 148 223 259 65 92 356 159 52 107 128 303 229 111 118 83 52 125 58 40 43 85 60 7510 87 484 193 291 81 50 120 78 42 210 148 96 162 72 126 391 1893 531 139 72 51 72 73 123 434 41 62 324 212 61 100 168 126 71 55 665 122 57 392
internal_count=31708 16363 15345 2453 525 14433 1930 6923 12892 1266 660 6369 11626 809 168 4665 1928 1040 1318 666 266 612 492 230 554 130 3365 1472 130 1300 424 124 888 536 102 1136 517 619 1145 986 180 806 70 1322 177 150 59 780 53 112 108 469 442 403 223 374 71 685 371 235 1145 578 363 248 371 148 223 259 65 92 356 159 52 107 128 303 229 111 118 83 52 125 58 40 43 85 60 7510 87 484 193 291 81 50 120 78 42 210 148 96 162 72 126 391 1893 531 139 72 51 72 73 123 434 41 62 324 212 61 100 168 126 71 55 665 122 57 392
is_linear=0
shrinkage=0.05


Tree=9
num_leaves=128
num_cat=0
split_feature=34 0 2 62 1 2 39 78 78 46 42 45 42 46 42 1 40 85 89 3 78 76 79 60 1 79 1 34 70 0 1 92 45 44 47 40 76 1 74 1 94 94 1 59 93 76 40 78 90 55 42 1 84 75 84 57 1 68 89 30 78 1 93 0 56 1 94 1 88 88 58 54 1 70 90 91 1 25 91 90 92 1 60 54 79 1 0 47 90 1 0 1 3 2 0 1 63 44 79 1 1 1 88 81 50 74 36 1 38 1 43 56 42 1 38 1 0 37 72 0 1 1 58 1 17 72 44
split_gain=5560.49 165.789 87.3161 73.8474 61.7181 42.9974 41.0467 38.1217 34.9618 20.3965 19.6398 16.6719 16.0868 14.8529 14.3936 12.5676 18.1749 12.4349 12.1657 20.533 11.8857 10.8038 10.2627 10.0805 9.76305 9.90164 9.37295 11.7483 8.68896 8.67482 8.59826 8.32251 7.98725 6.69684 7.95411 6.67412 6.64197 5.89067 6.60749 5.66754 31.0531 16.3326 5.50257 7.68176 5.4217 5.36713 5.52437 7.47306 5.30033 5.19553 4.78403 4.76486 21.6676 6.34184 6.20192 4.71347 4.46968 4.28113 4.16667 5.26309 4.04438 4.27039 14.8757 4.41646 4.03912 6.32003 3.88283 3.75517 21.908 15.4097 9.68992 3.49267 5.79146 4.38095 3.38826 3.34857 4.71895 3.34495 3.22423 3.22087 3.19355 4.31661 3.14815 2.91593 2.89822 2.8761 4.89421 2.83883 2.82066 4.5329 12.6792 3.67813 9.97501 9.75293 2.78377 2.78091 2.75909 2.7401 2.71515 2.64848 2.60962 4.22003 7.0555 2.60357 2.60342 2.57869 9.03314 34.1245 2.53049 5.43214 2.44212 2.41037 2.38993 4.32805 2.32637 2.2727 2.26339 2.22752 2.12046 2.10258 6.26023 2.0813 10.2439 4.35986 5.45026 2.05867 1.99141
threshold=101947.25000000001 1619.5000000000002 98902.000000000015 306.67750000000007 31.500000000000004 104357.50000000001 101059.05126178938 0.0091302608784263242 0.0061024098176820736 104943.54750000002 102691.18000000001 104084.46945958583 99959.72500000002 100270.15375000001 103064.29500000001 35.500000000000007 102836.67000000001 1.0092775377073357 175.10566323616362 101073.00000000001 0.010249076912518014 0.0070341534866670786 -0.0089148499050180578 336.80250000000007 46.500000000000007 -0.016986798217696098 45.500000000000007 101187.83333333336 0.041931801637880149 1770.5000000000002 12.500000000000002 -290.51722079443311 103233.8995732045 100042.45000000001 100119.36897483353 101891.40000000001 0.024040361993164616 15.500000000000002 0.012062967514314541 23.500000000000004 1536062.5000000002 1543090.5000000002 45.500000000000007 315.14138799254607 45.666526649291512 0.0023216889273376161 104349.98000000001 -0.010401716029862645 146.75512702108156 337.37783610513912 100191.35500000003 13.500000000000002 0.99808423939770718 -0.0043043451460616179 0.99808423939770718 348.73708421453784 2.5000000000000004 0.033629220326597806 164.63050041407635 -0.054304480186834772 -0.010155124649869172 9.5000000000000018 8.1171165633940152 1731.5000000000002 358.07000000000005 37.500000000000007 556025.50000000012 46.500000000000007 148.49924712908592 186.04873683432979 304.21500000000009 310.98000000000008 28.500000000000004 -0.014865716664966465 158.03516335633665 -231.57721026759825 15.500000000000002 321.50000000000006 116.55950213023608 223.73892989425778 -117.52589613678474 42.500000000000007 327.63250000000005 325.94000000000005 -0.023456767333157692 14.500000000000002 914.50000000000011 104419.18900906642 154.16991777633987 13.500000000000002 630.50000000000011 20.500000000000004 103498.50000000001 103355.50000000001 1758.5000000000002 46.500000000000007 324.92049090525171 103661.28250000002 -0.021467386349540561 30.500000000000004 23.500000000000004 47.500000000000007 182.35787306549835 0.99897182508243965 371.08333333333343 0.03935507745427913 98099.291666666672 45.500000000000007 99684.320000000022 39.500000000000007 103380.92109418852 297.59000000000009 103335.94500000002 38.500000000000007 103907.60000000002 56.500000000000007 1686.5000000000002 103313.00003582907 0.038618878797441879 708.50000000000011 43.500000000000007 15.500000000000002 324.45000000000005 40.500000000000007 102284.50000000001 0.0074937181481810082 103683.2075
decision_type=2 2 2 2 2 2 2 2 2 2 2 2 2 2 2 2 2 2 2 2 2 2 2 2 2 2 2 2 2 2 2 2 2 2 2 2 2 2 2 2 2 2 2 2 2 2 2 2 2 2 2 2 2 2 2 2 2 2 2 2 2 2 2 2 2 2 2 2 2 2 2 2 2 2 2 2 2 2 2 2 2 2 2 2 2 2 2 2 2 2 2 2 2 2 2 2 2 2 2 2 2 2 2 2 2 2 2 2 2 2 2 2 2 2 2 2 2 2 2 2 2 2 2 2 2 2 2
left_child=2 5 64 4 18 7 12 9 14 11 -9 21 17 33 22 16 -12 36 19 20 56 74 29 30 25 -23 57 58 44 60 111 -13 84 -5 37 42 67 -35 50 40 117 45 43 -32 71 46 47 -41 97 -8 -39 52 53 -16 100 110 -4 -19 -28 -60 61 62 63 -3 105 -66 -45 68 -6 70 -69 72 73 -27 -2 76 -42 -61 -70 112 81 -40 -74 -14 -17 86 -76 -77 91 90 -90 93 -93 -73 126 103 -86 -18 -57 -37 -53 104 -103 -34 -102 -1 -107 -108 109 -36 -50 -15 115 -114 -87 -56 -101 -33 121 120 -7 122 -10 -123 -125 -88 -63
